1.678624711884502407e-01 -1.234394881349653444e-01 9.164397785668720528e-03 -3.555904061846388436e-02 1.004577169316192703e-01 1.024323391033443442e-01 1.866675242761612827e-02 5.794648260101736836e-02 4.683518882797817889e-02 1.274438134122840016e-01 -7.079649184627125058e-02 9.442849433577506918e-03 -1.282644560154497793e-01 -2.905156746430868214e-02 1.645547902275512619e-01 -8.807979269189164517e-02 4.014074327255373609e-02 2.896458844100049945e-02 -2.592673907203244324e-02 -8.486311359595143100e-02 6.737652783493484898e-02 -9.332390123709485841e-02 -5.509884950608174431e-02 7.182501010920640250e-02 -1.356905624466673010e-01 -1.609958933796015179e-01 9.482042657556266629e-02 -1.182623913812214100e-02 -6.010756708432080792e-02 -1.524158060399710968e-01 9.857846942164082138e-02 1.595327554454753841e-02 3.171346683725848048e-02 -1.742153938848404193e-01 -1.881648303523093466e-02 8.597763716515645360e-02 1.410103642093435694e-01 2.087653133311454315e-02 1.196778261807833754e-01 -1.160036922052314241e-02 -9.202563071560806995e-02 -5.315761298646037164e-03 7.134059215408627974e-02 -1.700835676010518938e-01 3.223486436355535445e-02 -1.721332474883808805e-01 9.484786197411453762e-03 -1.336835330930505328e-01 -5.055888746993399130e-02 1.536181839054204246e-01 1.055340450396063251e-01 -9.998242845164555248e-02 6.592633958177143705e-02 -1.300635617886886919e-01 1.478560782278545982e-01 1.580120044448254935e-01 -1.219793293754399266e-01 6.428036154397419322e-02 6.142096575273854608e-02 -9.668015061395961174e-02 -1.059979295260969762e-01 -3.371584316479653287e-02 -1.539866268451330067e-01 -1.242893666293325983e-01 2.590153376754803644e-02 -1.541549075400759083e-01 1.378519783397401041e-02 5.075065973615992126e-02 1.379574327424490654e-01 5.982283223132434102e-02 -4.035619642234930873e-03 -8.115381170523812415e-02 -9.626030743801977305e-03 -3.650844780790718502e-02 4.946771665912050309e-02 -1.384065869014147465e-01 -1.279935966783115053e-01 3.945744800257827006e-02 -4.456182260585107163e-02 -7.149521779874937200e-02 1.712125165528883552e-01 1.103982164562171131e-01 -3.556278851097532251e-02 -2.320050740003465686e-02 -3.102632307881744711e-02 -1.518359947514185682e-01 -1.077630976822143705e-01 1.213168725854764513e-01 -1.674685214929120536e-01 -1.351294241508892158e-01 -1.119297840467701477e-01 -8.231075960749431597e-02 -1.382657884630617839e-01 1.017251799594698775e-01 1.611441039639034400e-01 1.129018191008759608e-01 -1.506942398686115792e-01 5.471556207105207799e-03 1.037404289611617569e-01 6.117538254099578326e-02
-1.380666394449343859e-01 1.273588675492715039e-01 3.960691595822588007e-02 -4.951690477625848852e-02 -3.840291896529881427e-02 1.409613827893624050e-01 5.301344366564623642e-03 4.753520102218883325e-02 -5.119193700990645052e-02 -1.302514587235347743e-01 7.228871127148243925e-02 6.984663417012652864e-02 1.216355082230738960e-01 7.977092389013004659e-02 -1.402482701171621840e-02 -5.757027129146979200e-03 -1.757430469435816434e-01 -5.486225628115560388e-02 3.088652660724959531e-02 -7.536149818450578464e-02 -9.722240706059230228e-03 9.402018773687870201e-02 -2.295026362279166399e-02 1.609417935572281244e-01 6.471994530140431912e-02 -1.491695050597097449e-01 8.879130438364478406e-02 1.059475542317501184e-01 1.443615541639155231e-01 6.780494719758801969e-02 -5.091460573483957280e-02 -1.109774360879148269e-01 -4.990833042207452885e-02 1.141237856384245825e-01 -6.399287094308052370e-02 -1.596277374073612476e-01 -5.891622243333689141e-02 9.759627211308788408e-02 2.245340369784775206e-02 1.106600289354297828e-01 -5.619543519742911664e-02 2.160750470768211043e-02 -6.724454128502956041e-02 -1.399164016344923156e-01 -1.221115070549847192e-01 -1.767544664223406762e-03 -1.690368873697870589e-01 9.779675862384699936e-02 5.780641782655891910e-03 1.585958120620028222e-01 1.984727013533648179e-02 -6.197506779913251190e-02 -8.582880563955339048e-02 -6.160393170720080552e-02 -1.260548190871665086e-01 9.096306284316668656e-02 2.125033320163274009e-01 1.025008895819414789e-01 -3.195999383370908692e-02 -1.877327118094877442e-03 1.961043129111230687e-01 4.262981551691537307e-02 1.218854653351545136e-01 -9.878567048126039862e-02 1.304529979056787692e-01 3.650116055054799385e-02 1.075173781304402942e-01 1.200292165131567057e-01 3.787994523164570776e-02 3.896900620024768003e-02 -8.968271763753109249e-02 -1.038141716025790390e-01 -1.114617752658398769e-01 1.613352153988639737e-01 -2.563612915515180862e-03 9.451638004145357375e-02 1.094022653067579925e-01 6.272016312015099571e-02 2.595382107871420374e-02 -1.373082545222770005e-02 1.708191702587006644e-01 1.665148612459592115e-01 1.854595976218159983e-02 -1.310239200551477357e-01 1.177353398587945854e-01 -1.333451570895254068e-01 -4.481731703390096772e-02 -1.096271819629850985e-01 -8.033540341055667167e-02 8.581892606166875714e-02 1.334714334541974856e-01 -7.416284623711587309e-02 -1.156210605104698169e-01 1.292539623670453386e-01 -6.936679438272212728e-02 -1.506095094153092340e-01 1.003037994267321487e-01 -9.025911120774662844e-02 1.251585612828488847e-01 -8.573408834080235852e-02
7.779102908391780091e-02 1.412618365653593722e-01 1.667512158257563326e-01 8.931332765730187750e-02 -2.855325008081142577e-02 -4.265916774145395163e-02 -6.989911935764946127e-02 4.022516943624818153e-02 7.416523361705042172e-02 1.366212970111655711e-01 8.174069065111852495e-02 4.033899953040653852e-03 9.972263880929400914e-02 -1.623770843723875423e-01 -2.136718347893862280e-02 -6.830028019440355369e-02 8.324607680275951382e-03 6.774943903960335689e-02 9.847606019036755920e-02 -1.136121931745830149e-02 -5.345678029843718010e-02 6.368891208644174295e-02 -7.775137663990194792e-02 1.343243224929664865e-02 1.572618579147306850e-01 9.323896354656260876e-02 4.279756201810806099e-02 3.499969303270968751e-02 5.345610564325645880e-02 -1.725754285941310529e-01 1.135290251041618514e-01 -9.916299013063337164e-02 1.096405425055493876e-01 -5.668372963096792068e-03 1.497002156809330020e-01 -9.352459462966947190e-02 -1.089879466906348709e-01 -9.693614652252709879e-03 4.125477006578164886e-03 6.129644258759438941e-02 9.944687776710589566e-02 6.527926154794208569e-02 1.534946039675271490e-01 2.355299055224207780e-02 -1.876223414821599211e-01 -1.216431804694944468e-02 3.138848361503468465e-02 4.596191757544775686e-02 -9.682039809687392751e-02 1.466599933107347042e-01 1.644323573055641585e-01 -5.863296932938440870e-02 -1.820341121499695902e-01 -1.115555290198152680e-02 3.172675292688381665e-02 5.792425401136398061e-02 1.319808981093647249e-01 -1.660550198934670763e-01 -8.793751924167102219e-02 1.584494189464283331e-01 1.736441520794257953e-01 -1.444555046657168551e-01 9.924737481802435590e-02 3.039519724942383802e-02 -1.535057075225267631e-01 2.696267420521360203e-02 3.493080408031585399e-02 -6.626087055028893891e-03 6.590847869602173281e-02 -9.899418326516440728e-03 -2.105972173698506325e-02 -1.321671682457456753e-01 2.000245498686011383e-02 1.681925403245383144e-01 -1.496622950583905431e-01 8.761879124286681142e-02 5.106648346121191173e-02 -3.274472624664533094e-02 -3.422793027540417532e-02 1.057304298593928771e-01 2.710261999694079521e-02 -6.305316448276497565e-02 -1.144402716918343360e-01 1.129739013634255274e-02 1.492403340389802935e-01 -9.695326856346209859e-03 -8.334317986297261338e-02 -1.601827849809536464e-01 -1.639784846184854372e-01 1.817170347198985569e-01 -4.689760900425323648e-02 -8.198500595802137025e-02 1.251403249059162559e-01 -1.140032241048983125e-01 -4.849995382313642550e-02 -1.160030764076072501e-01 -1.504277363015180669e-01 -3.165346010825234591e-02 1.594790025197459493e-01 -7.111655499787244983e-02
9.733043170052571580e-02 -1.017694714587654842e-01 -8.405427662746813022e-02 -1.258158479071661562e-01 -1.349852446394750501e-02 -6.477436812716938497e-02 -5.992621637422705649e-02 -4.469690712599967697e-02 -7.139513306259440140e-02 -5.042066055820367682e-02 7.877152484939142774e-02 3.572278928113075541e-02 -1.257508621782467972e-01 -8.718417327792429838e-02 -9.045313548437224072e-02 9.051978579237031364e-02 -1.288358674266633364e-01 -1.350468443680725647e-02 -3.302813605533586050e-02 6.659793895179473566e-02 6.248286649746750271e-02 6.520709333073944347e-02 -3.347756923472443996e-02 7.297351359684192684e-02 -7.952673274301708464e-03 -4.168097259543661337e-02 1.036617336687391255e-01 1.082130244459278932e-02 -9.571984629826278679e-02 1.017591150281362128e-01 -1.057949500597575587e-01 1.492284286813858052e-01 -7.784956664947295657e-02 1.013435655630836041e-01 -8.175232255712976126e-02 -1.600332479999788393e-01 7.263724121047814009e-02 -1.325991856144113634e-01 -2.093784653658565253e-01 -1.898875348519396544e-01 1.515032782415031698e-01 1.345513051841136509e-01 1.302460271328036989e-01 1.758115798907722988e-02 -5.775176449130525747e-02 1.144903119121046808e-01 8.088274436775250154e-02 3.086304040438576576e-02 -5.045361141830817520e-02 -5.315701207962401920e-02 -1.426297106926137544e-02 4.406121074239071483e-02 -1.651531767601795153e-01 5.663454926408367091e-02 1.693754429744459555e-02 -1.067158831310222877e-01 1.876664341487102594e-01 -4.382557525634223766e-02 1.361691262017897253e-01 3.136872587561377601e-02 -7.605472021031852966e-04 -3.336348072066566001e-02 -7.936263086919709275e-02 1.265928171326364815e-01 -5.106837211034639251e-02 1.166991429668219338e-01 1.430464855699452587e-01 -4.023415263210579351e-02 -1.039391348462878062e-01 -8.222212194820806286e-02 -1.008567738183406975e-01 5.503373355173397929e-02 8.906201321938886362e-02 1.683761786479409384e-01 1.034261938925873786e-01 8.196301103907145669e-02 3.070510302123799756e-03 -1.630767234128217662e-03 -4.646858865995374260e-02 -1.607869134055368576e-01 -3.606049290221652326e-02 -9.790671761044000831e-02 -1.136611976575227084e-01 -1.229077739796293756e-01 -8.500757494016751570e-02 -1.043947698975105087e-01 6.218897125933707526e-02 -1.876595903224917150e-01 1.352541080648138605e-01 1.574798743871263507e-01 -1.214593097786808157e-01 1.226798671744206148e-01 -4.022020422957101743e-02 -1.207997336534609445e-01 1.163734220601517211e-01 4.901089573254174825e-02 -5.317499195691687691e-02 1.597622673612150990e-01 1.681855313495806414e-01 -1.334817850708858444e-01
1.736305298816711445e-02 -7.766708550395952371e-02 1.887079447668254806e-01 -7.628834286412444765e-02 7.002469740639188922e-02 6.906697842934639286e-02 1.053960883774514579e-01 -1.077193248662076941e-01 1.294410158540535739e-02 -3.989965454972506549e-03 4.939212700778906895e-02 -4.518605215688404481e-02 6.257411405991178399e-02 -1.358592466056544878e-01 2.044188029476617929e-01 7.149653115477878906e-02 1.291733679459472484e-01 9.589809054278111006e-03 8.204360037441810194e-02 -1.460641749241827769e-01 -1.667793010157740327e-02 1.153105003073823936e-01 1.789378534473609339e-01 1.442693648509672522e-01 -5.472981063015174702e-02 3.493260464904504592e-02 -9.818344161552090832e-02 -2.469392193513779421e-02 -2.018896554364728591e-01 -3.689390253815499898e-02 -9.420724251790517367e-02 -8.836639342238708505e-02 1.803604175898123885e-01 2.074113286890674019e-04 1.064273225913762132e-02 4.670981006020478304e-02 8.064011603010282081e-02 5.125229403258128869e-02 9.267507583108111624e-02 -4.658769668015916993e-02 -9.573961584203392883e-02 -2.915382674479306477e-02 -1.009983922762552194e-01 -1.370580523690536623e-01 1.223959203552240083e-01 -7.620443835738469713e-04 1.487159660769237779e-01 1.939951202120125673e-02 -5.568280604089554525e-02 -9.308915794171300495e-02 8.630170477090447212e-02 1.125880095006955538e-02 5.790214803927250242e-02 -1.288607404348604268e-01 1.286490289779186266e-03 9.870916211088172354e-02 -2.291953236248476036e-02 -1.302058913907562510e-01 -9.705653855613739778e-02 4.683270185807907916e-03 1.042806915455050075e-02 -6.539345394790943219e-03 -1.479045609348982604e-01 5.656605611695920965e-02 1.519086994068594154e-01 -5.383382138930323246e-02 4.942560365440642339e-02 -2.758898998858243246e-02 -1.587325420058112446e-01 1.410157541468056164e-01 6.229961860491128184e-02 1.136048005668691130e-01 4.986754679546308300e-02 2.063696347637202291e-02 -9.593165509830619414e-03 8.412304198080693129e-02 -3.815993699173471365e-02 -1.235921477045225508e-01 -1.795921285298121006e-01 7.324579403052024207e-02 1.158482488315851211e-01 -8.815239410833279610e-02 6.737864963115598738e-02 -9.525332348220125200e-02 -6.606554571885756011e-02 1.646825594734354914e-01 2.548091352557930317e-02 5.292291053314120836e-02 -1.196924154525993433e-01 3.832620884569862968e-02 1.436068261308573457e-01 2.074404383269685126e-01 8.267906551491591149e-02 3.492229714060679502e-02 -1.798337693501064413e-02 -1.871845683772484781e-01 1.665629504672529737e-01 -1.433751580053693464e-01 1.080716255645736978e-01 1.447362344142562318e-01
-1.079415618214224076e-01 1.105889587271070423e-01 4.572567354570823694e-02 -1.318096439411536314e-01 -9.898855590032062945e-02 -1.317737205608723317e-01 1.444084222045466936e-01 -8.341844824149549642e-02 -1.059461367370112955e-01 -6.841402246790094510e-02 -1.244150128559717433e-01 4.123129214313229346e-02 -1.597984612319024167e-01 -1.643959888141642567e-01 3.758169326791563347e-02 -1.201417292511090529e-01 7.571963884606552897e-02 -1.322998449996986015e-01 -8.959917639272209355e-02 -1.371752054026814382e-01 8.449083048386298034e-02 -5.224590335661635082e-02 -9.089399535930373086e-02 -1.733448193570480411e-01 1.794549565977151262e-01 -3.968901357102407046e-02 -1.572876623181095612e-01 5.586319156001489511e-02 -1.838935584114335386e-01 -1.778271744626972184e-01 -1.701561598895888205e-01 1.548501976696621540e-01 1.806256188397305507e-01 -8.418262549168303854e-02 -6.893658502136985888e-02 -6.611393172920961014e-02 -6.545407611716949625e-02 1.486745234956630794e-02 -4.324057370532533549e-03 -8.706669367135756732e-02 1.199450502931477536e-01 -1.240291422597793874e-01 -1.154557842929710143e-01 6.069192314675297267e-03 2.349166933065199858e-02 1.375321159835019291e-01 2.565350305507359957e-02 6.001616795563079199e-02 -5.935765869847302312e-02 -1.414339624846610299e-01 -2.021081858424847097e-02 6.067454231478870696e-02 -1.008406410348215015e-01 1.101682211606605372e-01 7.561779626924895747e-02 1.123363299377209447e-02 -3.823767390290347401e-02 4.386030622082665031e-02 -1.412861310087701328e-01 -2.623093664476380121e-02 1.412325255998617690e-01 -1.298243879719147321e-02 1.192969541092412378e-01 1.584478392778599920e-01 -1.463121233600742921e-01 -8.941133753653604521e-02 4.695354685119126209e-02 1.750457125887890791e-02 -1.302515798315375117e-01 -8.292987851511070263e-02 4.199898708156243887e-02 -5.234238394495828450e-02 -4.908643368269679369e-02 -2.568710130754587369e-03 -9.940234968256662917e-02 -9.716650396740882101e-02 -1.273145914119403477e-01 -1.260465026639842612e-01 -3.311699780829494705e-02 -7.537797242056087921e-02 1.575907854176004930e-01 2.377793111686068387e-03 4.132614989388873339e-02 1.080726830753606649e-01 1.255481460593069476e-01 1.026262975780623671e-02 -1.207372174442967461e-01 1.004607084269273365e-01 -9.107977254772453568e-02 -8.710886814270726863e-02 -6.972135225998617181e-02 5.234543176757319727e-02 -9.828438333245149983e-02 -9.769147996455705696e-02 1.012459473757133799e-01 -1.612574493138364123e-02 2.958218510288133929e-02 -3.107736394035915187e-02 -6.092849604566818490e-03 1.188703739207381052e-02
-8.018048943725353261e-02 -9.528909470195282005e-02 -4.210004351776811676e-02 -1.889553826919434520e-01 6.312040681750689941e-02 3.222849407360460494e-02 -1.170120791882644229e-01 9.008232506860351652e-02 -1.412683559823976476e-01 6.323724252053061767e-02 -3.115460513100440712e-02 -6.073041627807680698e-02 8.408442107691842249e-02 -1.435454902310149827e-01 2.377335981836369971e-03 4.597741406863732616e-02 5.046796452926132631e-02 -5.771057886963615845e-03 1.310493022544757247e-01 1.348087842982738094e-01 -1.393847466880870911e-01 -3.728070884354537512e-03 -1.002030011860438330e-01 1.384970808651960206e-01 -1.318716900719252016e-01 -1.209633713931197868e-01 -9.880160102860230387e-02 1.015040347158146922e-01 -6.059064571432584007e-02 -1.264925045248936897e-01 1.021302522263806412e-01 -1.285054771091228842e-01 8.948466166531372779e-02 1.363646193905711235e-02 1.076014863691995144e-01 -3.737550802295590974e-02 8.419138767777503696e-02 1.614242543301021293e-02 2.275298876396124673e-02 5.294525853242469660e-02 1.959420350194092109e-01 -9.584338911752891821e-02 4.465063909305944795e-02 8.470205169382238886e-02 -1.566160526758939575e-01 -1.381100770274907574e-01 -3.791376887555397701e-02 -1.076218157195192419e-02 8.816530694625980547e-02 6.367009085940658619e-02 1.228499524959222183e-02 -1.521795125131435444e-01 8.306485538538381161e-03 -1.708754810896995213e-01 -7.478223342297179999e-02 2.227531365960305071e-02 -8.869222247004894533e-02 2.467334238049281175e-02 -1.180121786912600862e-01 1.409413487721316582e-01 -6.407152172583249761e-02 1.308937178021349901e-01 -7.290716632969655719e-02 -1.192154333795594073e-01 8.412543207045666827e-02 -1.286547747489463212e-01 1.383918045728482205e-01 1.428219418726179024e-01 2.647022661964729476e-02 1.312927055807303622e-01 -1.055987451553433432e-01 -6.298108071145513964e-02 1.754855898590454155e-01 -4.201571199425759018e-02 -2.738726563624188908e-03 1.025756430281815762e-01 6.475459955687715152e-02 -1.717961973331709746e-01 1.053005763236264658e-01 -1.685434097680794385e-01 9.397818465976059965e-02 -6.818367832478686164e-02 -7.933080610364415253e-02 -1.540195961754174947e-01 3.410715526132034742e-02 -4.428346997285030617e-02 -1.880062854949618792e-02 7.585866310506059196e-02 -1.658169073477891997e-01 -1.180170895626956595e-01 -8.285482992462071816e-02 6.588396791168422972e-02 -1.268861131609977100e-01 -9.248127738115999308e-02 7.608608477947130522e-02 -6.388492506839324458e-02 1.023948769663742542e-01 -3.794957826359626751e-02 -1.452270551417712552e-01 -6.156097805212569496e-02
-1.227141240958244534e-01 9.611420628068427507e-02 6.469858242659087821e-02 -1.356341166598666881e-01 -1.651403824753672200e-01 1.627717540774381967e-03 -1.399101224562964395e-02 1.810250136471879545e-01 9.866723813305590396e-02 -1.651296401273560088e-01 -1.892229116974511460e-01 -7.503548174264673687e-02 -1.023059290257747195e-01 -3.965210590793773887e-02 1.690247076441254159e-01 -5.668566271985895494e-02 -2.730384885047770424e-02 -1.358662923750194040e-01 -1.311283906416684242e-01 7.782547107039664014e-02 1.742259721868430131e-02 -4.179735974903384110e-02 -5.704787533968087854e-02 -1.425493143731597356e-01 3.563369750070492781e-02 -1.170804785141055099e-01 -4.144141887645459016e-02 -5.632971203380972292e-02 -7.339401768465600440e-02 1.218619881595489340e-01 9.359766994392615391e-02 -7.646552009539773521e-03 1.567697136003539937e-01 2.810652287740976734e-03 5.478782653970797056e-02 6.878913345297676951e-02 -1.359355552436532499e-01 -1.164390074895229818e-02 1.090701116233739332e-01 1.405785734268465668e-02 6.511823636761561451e-02 1.422024822426180002e-01 8.545290547372050294e-02 1.084872946729805304e-01 -9.691089440467805238e-02 3.167037770936628922e-03 -1.178788165276453831e-01 -1.566052733572893263e-01 1.202320394270571524e-01 -4.807369300347882901e-02 4.436344211297967022e-02 5.185796822804285104e-03 -1.339162511524490985e-02 5.457302041684002764e-02 9.561213394687530231e-02 9.945318948815157212e-02 1.931307031664149798e-01 4.315514552333296616e-02 -1.161415150656708306e-01 1.175179937293030497e-01 7.684963384325234348e-02 -4.465330172717085072e-02 5.570368578606033766e-02 1.568341074339193730e-01 -1.346098730118018005e-01 2.852493316477434926e-02 -1.183622797504924606e-01 -5.750383659680822351e-02 -4.631333579292975372e-02 -1.039318865221035282e-01 -5.299482555191033228e-02 -3.819613930121725648e-02 -7.024895668514982705e-02 5.940557053695520034e-02 -9.525047908129523344e-02 -7.562562803897055798e-03 1.534808974985207852e-01 1.686022309170617838e-03 4.113434604946925033e-02 -1.027577258442341074e-01 1.385374813461506538e-01 1.630536466442062890e-02 1.472114752708555685e-01 -1.938697562092608628e-01 -5.706048555495281394e-02 -1.104272828060099410e-01 1.650943769248125192e-01 -2.839460484813419866e-02 6.252045538783303213e-02 -5.874353267449336502e-02 -8.507315189207824424e-02 1.553982383581921645e-01 1.528454244386084349e-01 9.982755115457359052e-02 5.439586101324302148e-02 -1.485957698171986030e-01 4.883698077281019593e-04 1.519226550707443446e-01 7.582474357832898193e-02 -3.437097214318433208e-02
-6.139967119367315679e-02 4.909197779045324644e-02 -1.102495684403069359e-01 -1.243909911559742260e-02 7.139671552426418710e-02 8.803122827157586205e-02 -4.819932517271421912e-02 1.128695875426519724e-01 2.167356827260378052e-02 -1.606166248738985780e-01 -1.249882976553527564e-01 -9.643605498364529738e-02 1.614546244671733743e-01 -2.643818450753417787e-02 -5.560318038265540767e-03 -1.698309884683429083e-01 1.735314125052519335e-02 1.537255053814320926e-02 -1.355687771209839187e-01 -8.200006018006712749e-02 4.671826109747936125e-04 4.894949187534639728e-02 5.907702387021143003e-02 -1.722571638957968165e-01 -1.367313747664365142e-01 4.332165155776447618e-02 -1.121555824840808485e-01 -2.244559665822736250e-01 -1.014263508910038386e-01 3.830165914059886767e-02 1.147728916837020552e-01 1.251187530095294875e-01 4.882173905361729231e-03 1.373972452330953498e-01 -3.661713402411138907e-02 5.834738069809836808e-02 1.370197521687855358e-01 1.536167641082401281e-01 7.985305331783350280e-02 8.779154093949630144e-02 3.058773416644299317e-02 -1.207235030904171835e-01 -1.527583481153440004e-01 -2.579703775413973860e-02 -1.141064891042816304e-01 3.007948760871346008e-02 -1.543111612655571896e-01 9.122151641418400903e-02 -1.879061870582660748e-02 5.642661057051481799e-02 8.303174967861200184e-02 -7.549157084144504648e-02 9.844065908253465946e-02 -1.068596254682057517e-01 1.766504961435971244e-01 -3.517765665358540961e-02 -5.012150279269475539e-02 -6.536330810365729993e-02 -2.419526325320826149e-02 1.485785626652412206e-01 4.586782837237107779e-02 -9.847363940913389513e-02 1.508026059947231712e-01 8.101297800067153165e-02 3.024871750822017910e-02 -1.347857878111375085e-01 1.284500605508546167e-01 -4.815030683749142032e-02 -4.840283929399101515e-02 6.402935458454980799e-02 -8.457297029899936425e-02 3.634460847968516706e-02 -7.606384456330120281e-02 9.473492094472341432e-03 -1.296728405913025739e-01 1.387656657954121908e-01 -9.138930315729328069e-02 -5.960627755217566548e-02 -1.847961969658176995e-01 -1.077245081609848332e-01 -4.787895657923028209e-02 -9.270138525084432868e-02 4.323699826646579952e-02 -1.400581250830297206e-02 9.260838059867487759e-02 1.536919455236296665e-03 -5.418059661343979649e-02 -1.555796365781457191e-01 -3.791488399822576932e-02 5.274376196153015423e-02 -1.686742243900601068e-01 5.143676165986141302e-02 -1.341133644733036312e-01 -1.513781645387332897e-01 1.539693462888559738e-01 1.388502123825844925e-01 8.752446551595921553e-02 -6.832187866108409280e-02 1.045097240801370481e-01 -1.095699770447400578e-01
1.601516498701803237e-01 -2.198318908504908950e-02 -2.671291722188034318e-03 9.318599221766234175e-02 -7.947485955114901024e-03 -2.752560612880353835e-02 1.202509278785057339e-01 2.525087866758081792e-02 1.277450074154604931e-01 6.580665773372910976e-02 -1.945933195255707127e-01 1.656937318091052103e-01 1.710328102896232355e-02 -9.593874914326337711e-02 1.697173827123174827e-01 5.843903577000495245e-03 -7.245228438247693081e-02 9.156959616457593931e-02 -1.163283078274802117e-02 -7.432001797244647268e-02 1.495595450535609494e-01 -1.169375347383858621e-01 1.826673424301695214e-01 -1.141572137183450714e-01 -6.367387966442286662e-02 -1.467265648495951202e-01 -5.969479988487405575e-02 -6.742293079333266936e-02 -2.138049670312017203e-02 -1.597286441332443907e-01 -9.982832581482799922e-03 -8.802617476098154037e-02 -7.006225295917106743e-02 2.050104876088581357e-02 2.027233265917752214e-01 -1.025383606465026243e-01 1.712133705509643888e-01 -5.401305203848706660e-02 9.537755910379278057e-02 2.858169110785340264e-02 2.012974870222384860e-01 -4.945604877113075892e-02 8.930666919928093028e-02 -1.223027768125253475e-02 -4.404047942776399133e-02 -2.764045730969086345e-02 4.824026757753934608e-02 -1.354810839269240119e-01 3.277984853345240757e-02 -1.442432339133984387e-01 9.764184133037431823e-02 1.449777512350406417e-01 1.026218883867242998e-01 -1.136424378375686106e-02 -9.031598824481933130e-02 -1.098614081106475404e-01 -1.597478593519225526e-02 1.075060217538235108e-01 -6.363714144344012613e-02 8.566746669619024201e-02 1.407423139050712618e-02 9.554513912656677210e-02 1.520048105794712390e-01 1.317110419067689109e-01 -1.398312106958832582e-02 8.834743980747135350e-02 8.547046421791568149e-02 -1.586461999017468039e-01 -1.642509924386305886e-01 1.071281666946367547e-02 1.307344893332408609e-01 -1.177926339829576535e-01 3.654095857324973079e-02 1.056092384979268883e-01 -1.626968967189938026e-02 2.022934715716696516e-02 7.824831603842648253e-02 -7.021954266421209789e-02 3.547176392477466300e-02 6.629120581456583901e-03 -1.416959410206579950e-01 1.130349394776403310e-01 -1.519692312267546253e-01 6.034205807187712628e-02 2.185393738135356020e-02 -3.663557250371254209e-02 1.304369012896734181e-01 1.071994041700075756e-01 -1.756085573278797218e-01 5.993971610804361277e-02 -8.809605560717943817e-02 -4.378583781400038552e-03 -8.510446145693474629e-02 6.234959437748154032e-02 -8.543252640755197302e-02 -5.700036191946052794e-02 1.415990866826630501e-01 4.460273348782420322e-02 -1.067842510162744507e-01 1.205955647607521580e-01
6.470153010759654988e-02 1.325936470910168141e-01 -8.436589487670544119e-02 3.673298848574235720e-02 3.151405430164019167e-02 1.022730150669725474e-01 1.307201892603449336e-02 -3.630102051364260396e-02 4.891966542329525408e-02 -1.674546539344677620e-01 -6.649051291454491364e-02 -4.691238018611144228e-02 9.008515239293064802e-02 -3.478190936331324729e-02 1.763488068378481211e-01 1.497229639099912357e-01 9.546778633619384946e-02 -7.955755411151033130e-02 -3.268299691287553099e-02 4.096387992618080037e-02 2.088482008721400524e-02 1.078973170805235388e-01 -5.235568304405618933e-02 7.781554496965156775e-02 6.929731232620028880e-02 2.317858591064958854e-02 5.086656794614214522e-02 -2.067779903496937827e-02 -6.098893184478017260e-02 1.850951024163854583e-02 1.259714102818383918e-01 1.608768288203801522e-01 3.281769238175248626e-02 3.225101744979400054e-02 1.630043039525139459e-01 1.401415285356561735e-01 3.127795812723378061e-02 -8.037603344935097260e-02 -1.467092600129221158e-01 -1.680589572442620430e-02 -4.036873391077808876e-02 5.078580439159863236e-02 1.151328166685054166e-01 4.153009000544814061e-02 2.533255074851243488e-02 -6.701371341528571113e-02 -1.564560164675078691e-01 -8.144077933523764801e-02 1.169682876511149577e-01 -4.767758400807371733e-02 -5.592033112807979350e-02 -1.395855963726895244e-01 -8.117527623701072115e-02 2.418423288218283368e-02 -7.493786222752771287e-02 -1.782955226214716360e-01 8.994518280358797246e-02 -9.098181906495571292e-02 -6.924862719696393831e-02 -1.723681611247270817e-01 7.578750117521763918e-02 -5.025841313944914845e-02 1.821183663361768124e-01 1.200746426375847026e-01 -6.938323650329791814e-02 3.001282278664661393e-02 -1.165863314833145842e-01 1.134428141117566624e-01 3.812562999213121862e-02 1.089413252035963953e-01 -4.968146524825151067e-02 1.023233471190796162e-01 2.116416764067039977e-02 -7.961968319802698035e-02 -1.715702771700620133e-01 -1.545504574804568432e-01 -5.336535777942531117e-02 -1.414483961789812505e-01 -9.216316856701074756e-02 8.896500510453342336e-02 1.698275935986052476e-01 1.872431933650243463e-01 -5.010469723894408339e-02 1.991113506420760012e-03 9.461418800220681991e-02 -1.338217274246700271e-03 3.554445582157841205e-02 -1.548175832073907243e-01 -1.545317465848922503e-02 -1.207382315262554018e-01 -1.198175645846169673e-01 1.775802566787588743e-01 -1.978948439588286423e-02 9.409343809535437864e-02 -2.978182248208349758e-02 1.289259381728051213e-01 1.561423432387251953e-01 1.796202862890764196e-01 -1.437344627441762557e-01 -1.328198483538018393e-01
5.101078054628703506e-02 1.773632102770850150e-02 1.779514361411628220e-01 6.969724251728055819e-02 -2.865116321502171950e-02 1.472746257000614178e-01 -6.816030247873557102e-02 -4.534669002910098751e-02 -1.498766648206695806e-01 8.263396050774847457e-02 4.550961737180882205e-02 3.560348721069141881e-02 1.141213605254720875e-01 7.607327143546362136e-02 -5.462110239792813265e-02 -9.174970759535834575e-02 1.291936032878062291e-03 3.953844583118962946e-02 7.706329677090625885e-02 -4.053840024888738514e-02 1.247410370483361952e-01 -4.346811491779595574e-04 1.676825704054950572e-01 -8.550118017722767305e-02 1.557714674708360059e-01 1.183613348430582746e-01 -1.576042834416402916e-01 -1.519430299842491339e-01 -1.704002101693864180e-01 7.647578693324866284e-02 -1.620673667526411343e-01 -2.108927186592155639e-02 1.462334470457554436e-01 -4.367905870191346462e-02 1.911085307508518516e-01 -5.379744730126970881e-02 4.096204535447795642e-02 8.599355421910052921e-02 8.951981511483564358e-02 -1.526464271358486668e-01 -9.949649466385405983e-02 1.397995660463021150e-01 -5.666636806367859880e-02 1.574891125311854712e-01 1.004874204177411828e-01 -3.280379758311647437e-02 1.226286069485538338e-01 1.586804598180660553e-01 -9.547715541248127935e-03 2.050831267025069252e-02 -7.335688018885838657e-02 -7.768821979651094334e-02 1.720505229885372148e-02 -1.171276391247798171e-01 -3.535948229579018859e-02 -3.200379681706608942e-02 1.424583032357557566e-01 3.317823291163075200e-02 1.592823307961750978e-01 -5.975232776009986591e-02 3.431071734048554093e-03 2.379700592831072298e-02 -9.944370039935218619e-02 -4.864390137837702743e-02 -5.162125351888032648e-02 1.237556676664723909e-01 -8.927298923112546303e-02 7.445499321616504129e-02 -7.829669469647903071e-03 4.902449237412580263e-02 3.776894529975758502e-02 1.467109066179846100e-01 6.022970286620572648e-03 -2.279493770086526636e-02 -9.538729812992116641e-02 8.567533635776984624e-02 4.899153237000844485e-02 -1.734251333690268321e-02 -6.891993977970858887e-02 7.480095925845826887e-02 7.684370219717357418e-03 1.731862274480736874e-01 1.047382118263410003e-02 -1.795120755232897658e-01 4.468287488461179097e-02 1.481025234947652147e-01 -1.260296032445477887e-01 -1.743271408404740153e-01 -1.785365472726962721e-01 4.051763868880386282e-02 -2.418698402953769252e-03 1.581642479542926250e-01 -1.279792361250635668e-01 2.768063581377859170e-02 9.826643407616741932e-02 -2.558693298169879143e-02 -1.136468411482395996e-01 1.350067295933123634e-01 4.652208712137443497e-02 -1.356406597285237103e-01
-5.236852904238058909e-02 -1.661884311263308323e-01 1.587388572112737595e-01 -6.526529507878253700e-02 7.007297779892920908e-02 -1.762006656491429957e-01 -1.634573889836277161e-01 -3.018373271722817747e-02 -1.722606915555829898e-01 1.535384407412196525e-03 2.405849172043676362e-02 -2.173727458850516474e-03 1.602609790437786452e-01 -1.448348328307111355e-02 1.264797232914884328e-01 1.524542503560927520e-01 -3.659503115827244385e-02 -1.780176373632730014e-01 -6.596735886509566549e-02 -7.138776953186411200e-02 -1.803631361090201821e-02 -8.530050991276272310e-02 -2.002434368112844879e-02 -6.565713428260976960e-03 1.668947942514339144e-01 5.793809188273395250e-02 3.601270082362895836e-02 -1.554171648283331209e-01 -1.368098660877693218e-01 -1.112235482791530949e-01 1.299694812153053824e-01 1.395008240776264841e-01 1.931688155064300860e-01 -8.306975549083983612e-02 1.897940498136402310e-01 4.750363136191011054e-02 -8.292852968595511298e-02 6.996122146278341281e-02 4.373494602423676908e-02 1.210436470182281593e-01 -1.516696379754199761e-03 -9.616300926311356634e-02 1.464363784643228084e-01 9.183121484474866814e-02 -5.876621544675617731e-02 7.303892523852954051e-04 -1.826834923877574401e-01 -1.599545896859356497e-01 1.009398855296645553e-01 -6.834622336365434904e-03 1.668416181109257379e-01 -8.039757953216217223e-02 -1.187419401439045452e-01 3.485053542094968676e-02 1.086570092086335121e-01 -1.361625628771078456e-01 1.643165405597599438e-01 -1.469971986068162872e-01 -2.406046126119288850e-02 -2.235970550644312063e-02 8.749641652654888135e-02 1.638488767547459923e-01 1.861823819853150510e-03 4.028750994545762798e-02 -1.517423259316227901e-01 4.238432992049327719e-02 -1.223368183975934815e-03 5.310648855863507947e-03 -1.376516901931329750e-01 -6.669865970401549216e-02 3.220708725358124858e-02 -5.284482763925250903e-02 -2.051492959737737445e-02 1.768399299136546310e-01 7.854753623861994438e-02 8.279086894662331109e-02 4.155789424543334526e-02 5.120740005979447507e-02 -9.973388030220732559e-02 -1.479269275796955829e-02 6.648675597449425767e-02 1.183112542319763455e-02 -3.956479642346170250e-02 1.353918004911597861e-01 5.556933326249437893e-02 8.118181968665227899e-02 3.701868498152987436e-02 -7.639278198198301562e-02 -3.371330520857905577e-02 -5.981922461228612875e-02 6.083823539119154883e-02 3.199918027060866949e-02 -3.796192485704606712e-02 1.422971261967070737e-03 1.580555696355346318e-01 -6.441754430207530246e-02 3.743758795785510213e-02 1.409579268198301594e-01 5.819832384975962697e-02 -2.954933861245409576e-02
-1.098141498475638661e-01 5.778791282943199215e-02 1.110809062656783197e-01 4.460230896694940272e-02 1.242791297020266056e-01 -1.666918198365782700e-02 3.108291309454256843e-02 1.232396922228333885e-01 9.701487052486265639e-02 -1.358748562534087267e-01 5.536045245648798900e-03 -8.915660632631449561e-03 4.118391890326222188e-02 2.655945169873662540e-02 1.470797211225250700e-01 -3.245882543393865255e-02 9.225215494889887902e-02 7.423190649308561428e-02 -1.642790759151990798e-01 4.554682604601566903e-02 7.941543908574461019e-02 1.066652256938971643e-01 -9.932017098495593554e-02 -1.423803177071387427e-01 -1.062785225237775216e-01 1.393082878613444708e-01 -1.133502709002794373e-01 -6.792749039294149194e-02 -1.381047425397463613e-01 6.936352520486624429e-02 -3.663329148713136835e-02 -1.620965599131843904e-01 -1.094596439913147756e-01 -1.506345044807759770e-01 1.636693651432533647e-01 -2.026586012586020086e-02 -7.128493750758163605e-02 7.725674320921314953e-02 3.917609686722753337e-02 1.105177576516571253e-01 -7.654427046893375053e-02 -3.613196832087610996e-03 1.482154164530637697e-01 1.396444726469470328e-02 -1.612273685009723845e-01 4.939475268768309807e-02 -1.343977354743542130e-01 -3.542559734580408987e-02 -1.178132535948179793e-01 -1.367709217970931035e-01 1.447475758527381196e-01 1.263945474245241340e-01 -1.688570858734441127e-01 1.008914091614916825e-01 1.064099867087988788e-01 -1.951401895178675461e-02 9.529381238903687767e-02 -1.387049974950531339e-01 -8.144002145591063002e-02 -2.265868447118429829e-02 -6.359697836322288078e-02 -1.021710971246680560e-01 1.012867872202198594e-01 6.823522524466422989e-02 -9.494149606102547656e-02 1.900494415666289377e-02 -7.158316260235293715e-02 1.352738083490498955e-01 4.507846875609200846e-03 -7.020662014500783643e-02 -1.391904311224978485e-01 -1.811401943308639517e-02 -1.466798227802876831e-01 1.709504281465238085e-01 -7.260941323765138233e-02 -9.954839587648438293e-02 -3.337608100349452600e-02 -5.960176986906823293e-02 -1.164032894278074909e-01 -1.455902280770520196e-01 -1.048494690032947263e-01 1.248243847314342049e-02 -8.818637481838011161e-02 8.918953873257738640e-02 7.447272580711457313e-02 1.276276977209531149e-01 -9.936917348235621561e-02 -1.204249813564818722e-01 9.828785890611256570e-02 5.695046369443051287e-02 -1.404731852095867650e-01 -5.157075984565634430e-02 -1.371251527377214396e-01 -1.164175734480453056e-01 -9.408909460667463920e-02 1.442141988442603370e-02 -7.597953890545965094e-02 -1.140958983760108625e-01 -4.714563479503994237e-02 1.179920530975279575e-01
-1.963720330209411946e-02 -1.371808940185751668e-01 -1.113098479773013821e-01 -3.528772621060592696e-02 -8.779087807517323150e-02 7.325925531684804315e-02 -4.571580877710042928e-02 -1.151356644601636559e-01 2.219439314111384953e-02 6.757142080588648958e-02 2.449659398317573233e-03 -4.974497046786315740e-02 1.288091431765632788e-01 1.290237142291336403e-01 1.887657584004977518e-01 -1.114174829425662039e-01 -6.948371169138382875e-02 1.433424010469207532e-01 9.022005571825360976e-03 -1.358541932492735305e-01 1.545512264678040038e-01 4.383109184444926310e-02 -4.407006814901932162e-02 -1.520209912133414221e-01 -2.261910761240739157e-02 -8.056496329331624962e-02 -1.615687920075731809e-01 -9.320130972488722618e-03 1.089149242350750113e-01 -1.113050017811626907e-01 -1.745851780209669787e-02 -7.631832372997593428e-02 -6.683167474207826926e-03 3.374737738931058318e-03 9.265115812935074968e-02 6.172741719591845477e-02 -4.070060081204940339e-02 5.658805162259507998e-02 -1.852704934753942601e-01 9.095178265487113833e-02 -1.106278341142594018e-01 6.631916514538579999e-02 -2.255428119036470861e-04 4.955621150339253878e-02 1.073620685384989309e-01 6.723701392965972246e-02 -1.736790633713206355e-01 -9.311930596883968847e-02 -6.213974943517848459e-02 2.181770657813771747e-02 -9.484904296090508613e-02 1.063590766668935234e-01 1.851424837065399412e-02 5.895762831467218218e-02 1.381234639315065960e-01 -5.356828346033155885e-02 1.986063932897545736e-01 1.770526838628558655e-02 -1.277081182824905403e-01 1.599624311374740759e-01 -8.212131143259661370e-02 1.516522060013261453e-01 1.290970626974108637e-01 -9.938053463717705371e-02 -1.726247056625480059e-01 3.461037367364269701e-02 2.932182696615056455e-02 4.387442672744867184e-02 1.015467012209942677e-01 -1.403053250490948478e-01 -3.584489260473081723e-02 -2.954978039651905489e-02 -1.562286048055062659e-01 -1.060708689529442222e-01 -3.091639568799488605e-02 -1.529771657870937773e-01 -1.736593797052678537e-02 7.843672801169869480e-02 6.518356321844911982e-02 1.694712000235775937e-02 5.350726975983696038e-02 -1.167154021440451467e-01 -8.105707175167400913e-02 -1.927264705365002162e-01 -1.679789198713015352e-01 4.661920920084380859e-02 -7.369300356238259186e-02 -4.658444719405754886e-03 1.183884219786418140e-01 -1.532464165971373637e-01 -9.761242228047467551e-02 -3.439826708409414457e-02 -1.243255092627328778e-01 1.233935775690520181e-01 1.319309022537313658e-03 -6.249536901500300085e-02 5.666282489460391925e-02 -9.823724299976346885e-02 -1.496709974437616386e-01 1.352196339500125744e-01
-1.048405292642152209e-01 -1.606459089727400036e-01 -6.323191945460134022e-02 -1.793866363505719208e-01 9.871325226492251581e-02 -8.082966201354245539e-02 3.585433070213678991e-02 4.754276217771186142e-02 -3.114123552317741780e-03 2.153696965449010056e-02 -9.108245151392553585e-02 -7.152233269155613971e-02 -1.378566441357830796e-01 1.192425555335366871e-01 -7.132464936433244307e-02 -1.540732627401675443e-02 6.345052664642669704e-02 -1.641571683444466023e-01 -1.310758842384778800e-01 2.041491044460144733e-02 -1.102641973965567818e-01 -1.058386750791346920e-01 -9.929458925080828294e-03 4.964032833622124968e-02 3.333341946376092158e-02 2.262250924973383329e-02 2.683187909723950756e-02 2.738369238206374290e-02 1.273264518697648229e-01 1.477208243038708735e-01 -7.156504410484773593e-02 1.014365126356915892e-01 -2.221711362692938702e-02 -1.047299849077837353e-01 5.203513345757555114e-02 6.486397900018713025e-02 -1.138216246501202594e-01 1.543708149086666648e-01 -1.074163349429861497e-01 9.976471656689475664e-02 1.439669554378322225e-01 -1.883050045149286533e-01 1.110196757789599781e-01 1.106636442203682014e-01 6.770036713774504888e-02 -3.152009458957614335e-02 1.081591717205910852e-01 1.657910315944825103e-02 -5.679244330066254842e-02 1.142800080570301746e-01 -2.864583529571443354e-02 -1.469969244948260978e-01 -1.214326958120269667e-01 -1.814988943053620907e-01 -1.154916949610717974e-01 1.671466285189773249e-01 1.320835015534570778e-01 -5.269127496699810981e-02 -1.075817528287684594e-01 4.735714257874596919e-03 1.425430762640930438e-01 -1.510725079975768215e-01 1.856214001071489483e-01 -1.468403112727044713e-01 1.486329769703344239e-01 4.496984786938781203e-02 -2.750185121151105597e-02 -8.592307188662261230e-02 1.144923213271804574e-01 1.333287772456615838e-01 -3.124474134128031946e-02 -2.476834003261726286e-02 -7.364384942074916895e-02 1.136259337174120726e-01 -1.150364640883586725e-01 3.343656107773056857e-02 -1.003499466238266108e-02 3.298817316957131790e-02 1.416052647570961165e-01 1.024691019487371513e-01 8.747554143332585130e-02 -4.686588222310302670e-02 6.575729732431381813e-02 1.292236515707105016e-01 1.289745890634054482e-01 4.045349964543106663e-02 -9.609261472011848895e-03 -1.037224468153103429e-01 -3.479695000566117996e-02 1.499438775406647037e-02 -1.175458738579337470e-01 -9.430889610621785712e-02 -8.347801469506626465e-03 -1.747860269986005188e-01 1.449676199255098552e-01 -5.141174667253550767e-02 7.454813398806864333e-02 5.354492337349471900e-03 -1.291966110853825789e-01 1.639331176623558262e-02
1.542257826571198642e-02 -3.605490157552674463e-02 2.005537002632467869e-01 -1.761209743768311214e-02 1.365602563075845044e-01 4.754993763501719900e-02 7.483352680425275905e-02 -8.004393473384166513e-02 -2.852124725241511746e-04 -5.212072504089527297e-02 -5.722992164644159947e-03 -1.765455963383227508e-02 -5.531252286330953089e-02 -1.788305795656260910e-01 5.467544816330641502e-03 9.572457736979822496e-02 -1.071850996828819791e-01 1.056405422691149287e-01 -1.269574719564566800e-01 -1.317553811985754941e-01 -1.127822647180921345e-01 1.975934055418717139e-01 -4.730138433638748224e-02 -7.255713510908951003e-02 4.020120062213824313e-02 -1.018832925234081782e-01 -1.705829919328943345e-01 8.680039101532650847e-02 -1.224391245315545676e-03 1.287895615396038862e-01 5.347755576266530197e-02 -1.226244831250698081e-01 1.967298451673675785e-01 -1.433588187706168471e-01 -1.531293632740190515e-03 -6.782938601366801656e-02 1.291762891303277483e-01 -6.924910746115277294e-02 9.361157249053234097e-02 1.435586193096703989e-01 -5.634207165700397257e-02 -1.553231606955579602e-02 -3.030919414054078498e-02 8.618052274334810081e-02 8.802619964950662151e-03 1.032838645118483306e-01 8.964180596657872480e-02 -8.307286602619931570e-02 1.250389886128603079e-01 -4.738716968668421625e-02 1.234753374848015922e-01 1.501744303116779033e-01 9.247013362061129449e-02 6.470684600627236993e-02 -3.919022947679578345e-02 -6.587794940141673827e-02 1.096347324728416811e-01 1.554324798861334012e-01 1.138034815634003522e-01 -7.518382577171263403e-02 -1.483424110989481903e-01 8.656348455061430025e-02 1.396750107791965012e-01 1.165692667684087441e-01 5.234802791193179233e-02 3.863521681308603687e-03 8.607599970065966943e-02 -6.805983211856368731e-02 1.404217796655939654e-01 1.004714723152485556e-01 1.099088985941135271e-01 -1.735053030730676904e-01 -1.315865970023145058e-02 -1.467228811989444437e-01 3.787461088525352626e-02 -4.868909883180263382e-02 1.952459042608007539e-02 1.318076594148328284e-01 -3.826311908001221729e-02 -7.992466463545570832e-02 1.041989754077935620e-01 1.554338392281029990e-01 1.224494160924434888e-01 3.521911089547683903e-03 7.713931744719372541e-02 1.615755017391414528e-01 3.838273060012838828e-02 5.463517306180405708e-02 9.351853237794199858e-02 8.947260967921357930e-03 -7.475086754865334360e-02 -1.001508350498114819e-01 -4.880419670252950093e-02 -1.730226721013659597e-01 9.035319487298102900e-03 9.832779643573567874e-02 9.067620334432213713e-02 4.516197235293273327e-02 -1.640626494956270720e-01 -8.516325997453784435e-02
-6.656626821189415288e-02 1.251347742750950620e-01 4.788185806652302950e-02 -1.226421875819522639e-01 7.321797764913690054e-02 -1.192396227644415968e-01 -5.861129215193804087e-02 6.492183346383781362e-02 -8.712557572203828704e-02 -1.654479383304368889e-01 -1.143483393253891672e-01 -2.547932225200694525e-02 7.724507189829898923e-02 7.343017922763220295e-02 -9.331901507980654153e-02 9.766301697163672080e-02 -9.104652487662897448e-04 -3.766361682993830257e-02 1.471787167851812961e-01 1.460659232195612167e-01 6.756409395421886233e-02 -9.184798381900349806e-02 -5.281076392507938477e-02 1.309076216403977019e-02 -8.933707096644387391e-02 -5.706685958673224368e-02 1.290019333507837207e-01 6.801759638302945499e-02 -5.407921219455577577e-02 -1.471675270616590037e-01 4.396604841592102048e-02 1.102001515239872387e-01 -6.979768546074055502e-02 -1.864235311927036065e-01 -5.555956396801491060e-02 1.530870558534925541e-01 2.252084910948086785e-02 5.402236867245816671e-02 -1.159406706870342585e-01 1.345825741822390398e-01 -1.807420150845217774e-02 -5.065755001243559680e-02 -4.945868426822615932e-02 -1.449735356588901791e-01 6.773543635061521351e-02 -1.313488699235809964e-01 -1.368578336818486174e-01 -1.720426087843401619e-01 -7.349306302682273584e-02 -6.275986145764778090e-02 -3.331218045357389052e-02 8.182558011889326521e-02 -5.726704859521489221e-02 4.654805398167911890e-02 -4.033071489777803609e-02 5.011803085055680645e-02 -8.083672663209888476e-02 -1.175171368990992754e-01 8.532716585934405074e-02 1.585225315569957216e-01 2.710021575614036948e-02 -6.246612747805285054e-02 6.502447350665871428e-02 9.272160425756115210e-02 1.199290777799154467e-01 8.157987588357556996e-02 2.046596033013911020e-01 8.827524393625225951e-02 1.241266542660905969e-01 -3.297971361401350054e-02 7.673426441519259900e-02 -1.863426913506663687e-02 4.294273159374805381e-03 1.191835127444389603e-01 -8.846417254358053539e-02 -6.626654213515637513e-03 1.427542950311559700e-01 9.328054912132746623e-03 -1.526678250450314023e-01 -1.603089651240337810e-01 -9.104790315229588371e-02 1.856607139396830586e-01 1.324385573860767107e-01 -4.620370231176249530e-03 -8.779317434029064449e-02 -4.660495197467715706e-02 1.499114536231399841e-01 9.573774242674716606e-02 -1.854230170912924969e-01 -4.299387197211314987e-02 3.327043240010874037e-02 7.012608560979143035e-02 -1.156727230239515125e-01 -1.615332036569074869e-01 -6.590363150394241976e-02 -1.434203284063064743e-01 8.816435070824370224e-02 -5.634989205568944476e-02 -7.010356600358194634e-02 -1.468148364010632423e-01
-4.547467776411794754e-02 -8.332794112226321603e-02 9.490727457106779008e-02 -9.352757758751134576e-02 8.002468532913506460e-02 -1.277872808542171168e-01 7.452352990336880145e-02 -5.312662127078760649e-02 8.423576554952580397e-02 -1.570387518672221872e-01 -1.964752548013100342e-02 6.345829772478749076e-02 -4.907481140476962350e-02 -1.179833876496536385e-02 -1.195567933943638000e-01 1.328751163631569920e-01 -9.465658790866449124e-02 -9.417504762106428465e-03 -1.338034283501275956e-01 1.131637679553583326e-01 -7.825316357408222678e-02 1.573238149518882412e-01 1.077256162867115258e-01 -1.180796206596509551e-01 -1.402786388555058716e-01 -6.369014647987063238e-02 -1.178391411781828657e-01 -9.771912351569957134e-02 -2.896502848285628998e-02 -2.509006559750059234e-02 1.111293172077335162e-01 8.112109196165002978e-02 -1.607095783230873265e-02 5.288252866539651376e-02 -1.876639197825218097e-02 1.623727986214611174e-01 1.487337606422241831e-01 7.457906524687683836e-02 -1.789433462261706409e-01 -9.329619259174072587e-02 3.902590794713567401e-02 -1.525825655099609379e-01 -1.449130208612263437e-01 3.442868034616215767e-02 7.037998120319519102e-02 9.785012578292862084e-02 -9.542158367308638256e-02 -9.688597151561410825e-02 -1.244535482643142621e-01 9.889658799560994973e-02 4.803470141195391105e-03 -1.791155820085274242e-01 1.012024382584366528e-01 -1.515273892508003754e-02 1.712051436916970162e-02 -1.049532480129840434e-01 -4.359408754613806891e-02 -1.189958869749144568e-02 8.215510061695179000e-02 1.436328813996720077e-01 1.538633329370040215e-01 -1.100223323235228687e-02 1.449037685645795381e-01 7.568439290216254223e-02 1.316094780406976139e-01 -4.617563384576433422e-02 9.719392638956633745e-02 7.409184899005474834e-02 8.729332779117769670e-02 -3.850287061928401450e-02 -1.376281126830134205e-01 -3.736253647483178675e-02 8.383622109423571889e-02 1.365545682614885958e-01 -1.691449325345963650e-01 1.104974090073418541e-01 1.571478626264614931e-01 4.427867876215978160e-02 -1.656815186866953532e-02 -5.803763838618196391e-02 -1.315170218844629035e-01 -3.125800145950062559e-02 1.152565026239677909e-01 -2.673977707417522776e-02 1.115636441840254650e-01 2.225656823899366948e-02 -3.076151721583754439e-02 7.650522875569833181e-02 -1.394620649431034531e-01 1.226164822965479101e-01 8.257327998140095993e-02 -8.685178698575435341e-02 1.154140588664600703e-01 9.604289818149701341e-02 -1.277236359390221954e-01 1.362681704608710853e-01 -1.346066442016575770e-01 -7.274326748316586877e-02 -1.403724341899793004e-01 -9.162887627804355839e-02
1.569466523164994853e-01 7.130252906680957514e-02 1.301421382084306244e-01 9.363616844524251526e-02 6.892033271635246428e-02 -9.601528996497256385e-02 -3.815684756513912368e-02 -1.659957772613694302e-02 1.359754347278609721e-01 1.279180131714727775e-01 8.768334271544749037e-02 5.746691332552440051e-02 -9.651105687227727603e-02 7.541350700291973852e-02 1.194654787188596801e-01 -1.269170787115192489e-01 -9.476414711575602279e-02 -1.431825299743421653e-01 -1.531417938378666355e-01 -1.098666037651477578e-01 9.169250659467645392e-02 1.318188108146987336e-01 -9.094241305660563657e-02 -4.923443589487850464e-03 1.656783741459363565e-02 6.017789553630609883e-02 1.710590503966810021e-03 -1.788372802513615578e-01 -1.233841195765692789e-01 -1.540184626001364909e-01 -1.199035240782859169e-01 5.979257988387801093e-02 1.142234684894923025e-01 -2.594817088753227120e-03 5.753570708302309378e-02 -1.360346516791136606e-01 -2.035925530896441973e-02 -1.374726295047557223e-01 -1.415930899113542474e-01 -2.458784364304590631e-02 8.538925295493651757e-02 1.154659350695542847e-01 -1.163919808616980384e-01 -1.342299934014741514e-01 6.117719199539059516e-02 -6.719983015629273082e-02 -1.438868418557852358e-01 -1.452965173970834911e-01 -3.705649919024858741e-02 -7.791812842286016672e-02 1.521633266501628001e-01 -7.309133296575880123e-02 3.971736406815785068e-03 1.451135611032499436e-03 1.115341559277404498e-01 5.422380071864296019e-02 -1.154693668524667399e-01 -1.225251040037664968e-01 -1.509056682743547817e-01 9.749366585605803714e-02 1.654169277798042681e-01 -4.131543145053157007e-02 -7.713864394384840895e-02 1.453532984160536279e-01 -1.490588813375882116e-01 -8.161066581397635744e-02 -8.513752838043318893e-02 -1.282487535763827402e-01 8.993233378839756223e-03 3.020114872099282158e-02 1.156211122599728885e-01 5.663270255560005906e-02 -6.810119766144739906e-02 -7.714278739932360629e-02 -1.088669912774914011e-01 -6.509723709575127026e-02 -9.968877569718254117e-02 -6.847284229025159263e-02 2.560103315910397179e-02 9.960012411868679472e-02 -1.044593340819015975e-01 -6.239011329099840297e-02 7.467720800258563496e-02 -1.480010026753187102e-01 -1.382625755833623293e-01 -1.564893993289435958e-01 -8.800842369250333128e-03 9.732994785702737961e-02 -9.719131021817317695e-02 1.059374551170831069e-01 1.168323804655212877e-01 -5.789283607271133308e-02 7.583413816818354060e-03 3.166056883396637517e-02 -1.148067766322536376e-01 1.754107214114821942e-02 7.464055835067238964e-02 -7.101493566698424686e-02 9.453265356837178834e-02 -1.065406896387792457e-01
-3.146670007427301852e-02 5.556754388061081046e-02 1.864348090014614212e-01 -8.382566659723729441e-02 -1.884616655041514719e-03 1.505144350693451982e-01 -1.096578709857698869e-01 4.200799370540422850e-02 1.333701926206000143e-01 8.096925323031134436e-03 -9.654993423409467812e-02 -1.295343060842065186e-01 -1.350200279355215360e-01 -1.299619103218595528e-01 -5.515503386918456374e-02 -3.884126650415667837e-03 6.061270171175904553e-02 -3.803525928960911628e-02 -1.456433451758385733e-01 4.699127645756936630e-03 -8.056035504552833126e-02 1.799451608948478554e-01 2.177289624624971151e-02 1.114931072596090089e-01 -4.717685307787971433e-02 5.944308011998787611e-02 -2.897564410548637490e-02 3.515314024321004871e-02 -4.902944135748245336e-02 -4.527508680499772731e-02 -8.012689451819954289e-02 1.583022293980737571e-02 1.461885290375932456e-01 -7.419064358229016110e-02 -1.176753079180830747e-01 -1.234889591174122975e-03 1.694176209064887362e-01 -8.678273192478475062e-02 -1.499760544346528113e-01 3.726416198595793733e-02 9.795340555146261896e-02 3.900257838227697699e-02 -1.407221939027395174e-01 -1.542756066808018967e-01 -7.507894616188603987e-02 3.972444965924301630e-02 -5.020938696038682036e-02 6.001407284430445438e-02 -2.275108373156733976e-02 -1.390043194380239377e-01 1.157839279007587541e-01 1.981373055630931967e-02 -1.287544552867338730e-02 -1.849841347728278518e-01 5.619502543485479368e-02 6.109812164356920317e-02 5.777709786997478614e-02 1.113231927142465938e-01 1.088224791902721728e-01 8.928911715802567706e-02 1.428400171672568053e-01 -9.375938813925817350e-02 -5.566392298518665210e-02 1.746606349676476863e-02 -1.610611222414977950e-01 7.069346468701828701e-02 -9.563288241297341133e-03 1.085811389015779171e-01 1.167713277254419230e-01 -1.505630161832093583e-01 3.465013996780123146e-03 -8.680869137897410936e-02 6.203062262364118784e-02 1.500686746795290849e-01 5.740061744975853003e-02 -1.884742219538301441e-02 1.549990691540924781e-01 -7.835953459825575895e-02 1.298483645504383832e-01 -9.837312032628284242e-02 -4.332088903391260321e-02 -3.326322913229972505e-02 1.373700185578458632e-01 9.934111358218732091e-02 -7.516154944866128285e-02 -1.626556690661439819e-01 -1.039015618513143974e-01 -1.397680731508937728e-02 1.122172177232749757e-01 -3.529017481105040793e-02 1.490478838077340107e-01 1.565147027524378120e-01 5.665089637761792224e-02 1.286591323298176825e-01 -1.375021602929487052e-01 1.421278403342114693e-01 1.615595381248387807e-01 -1.196538557182304230e-01 5.857794389751846964e-02 -1.226064892201795264e-01
1.172462662018988605e-01 1.402373463689040589e-01 -5.362830409238265872e-02 8.679142817025897738e-02 6.439623240535419235e-02 -1.571614812050050047e-01 1.024171562760901877e-01 1.815053785651354890e-01 -1.566392838895275530e-01 -2.849135795619685621e-02 -4.240248232202335765e-02 3.193579721217637557e-02 2.859977631461201389e-02 -1.505071117224089650e-01 -1.151913357452269138e-01 -1.578451233348880101e-01 -5.797784968856635468e-02 6.329782236352578077e-03 2.992292951489051740e-03 3.252941382649301993e-02 -9.548084963768026234e-02 -1.408708671863520209e-02 -1.032424149259077509e-02 -1.429195226607440916e-01 1.103545008219531109e-01 -6.950862547498858242e-03 -1.241868685743730549e-01 -1.558709940569855124e-01 -5.202384222293184729e-02 -2.351563928289665192e-02 9.628785690421196031e-02 -2.092754332193664992e-03 1.172270316779391863e-01 1.469431895046703074e-01 -6.109225368781713572e-02 9.254512167267474332e-02 7.635515217270852362e-02 -4.172788580849557533e-02 -8.315910201192310003e-02 1.023305449374583842e-01 1.668285259817716415e-01 1.287911087296938206e-01 -1.020876574632944983e-01 1.318903394896982773e-01 3.997494178665454700e-02 -8.204682504935147114e-02 1.057398229378386512e-01 4.533446749407145371e-02 -1.895906129828271031e-02 -3.124121058538119680e-02 -8.775721959754351209e-02 1.257076563499016364e-01 4.703797381828807300e-02 -1.781477736067962059e-01 5.377822669244392007e-02 5.602410048750627175e-02 -1.173476927904485156e-01 -3.195366687704480346e-02 1.608792148206238948e-01 -5.382717866640939625e-02 -8.425777298048850450e-02 1.461772697809327615e-01 -1.005808308168739812e-01 -4.983989134936947507e-02 1.507710900984745028e-01 -1.046710082169962086e-01 1.802045732313467818e-01 -8.792678986765442573e-02 -1.654805981511458801e-01 8.968434730408599009e-02 5.788554056477784697e-03 -4.606808187653899100e-02 -9.825916208135718199e-02 5.814502678149365000e-02 5.581904002283086252e-02 -3.194448161779082224e-02 6.391454362992164684e-02 1.309570741670799676e-01 3.640696496007589378e-02 -1.265654797658807007e-01 3.629948853248236157e-02 -5.940673932989905259e-02 -1.365744528291185089e-01 -1.407875574470192348e-01 -5.407670072668132634e-03 2.326093506429656801e-02 1.167233300614680669e-01 -1.864238112408064252e-01 -6.299229951037707553e-02 -9.198126255845355537e-02 -7.140470807155285815e-02 8.018641079219603063e-02 -5.783133165869611819e-02 -1.099092638099469638e-01 -1.598636018094423406e-01 1.428587002030360931e-01 -1.384105673475589660e-01 -7.571377786539262855e-02 8.963050665313757048e-02 4.082741237148670294e-02
8.995161821534163049e-02 8.350731778334476163e-02 6.361684178230662956e-02 -4.756630367392000042e-02 1.259435813585580433e-01 4.288377749180594806e-02 -7.759459011752731228e-02 -3.742635555341420478e-02 8.256791531385206107e-02 -7.555611200558981499e-02 -1.419506714761178783e-02 -2.022055140577795271e-02 -2.332745014448918061e-02 1.331242539912560474e-01 8.124249739792492597e-02 1.296530159507691959e-01 -1.770747117462969922e-01 1.562982767780515814e-01 1.925658469003107415e-02 8.832954130233970635e-02 -1.375776165625988146e-01 -1.148975722430247842e-01 2.007143375591388945e-01 -1.832846197164761104e-01 -6.575512314113517165e-02 2.067777498927343000e-02 8.044486178977071356e-02 -1.672606135645544889e-01 7.409091395471482933e-02 -6.330337583019404746e-02 -6.216843507676905051e-02 -8.199018134656799184e-02 -1.090345225380150163e-01 -3.113419315331758877e-02 -2.375954511527914037e-02 -1.369168916365985089e-01 -1.272258555479688913e-01 -1.451702290827885378e-01 -2.078234298924088452e-01 9.521457997609523993e-02 -5.444078658858433895e-02 4.653978345183382853e-02 -1.586509326198098091e-01 9.655423136151813565e-03 3.179756476768649809e-02 -1.593513799275052267e-01 3.047889506611512270e-02 1.106809871802849274e-02 2.283506127125472726e-02 -3.251200271580218654e-02 6.103263774652045899e-03 -1.507992990361554098e-01 -9.172275069148547177e-02 1.201145032963567144e-01 1.091755814491993937e-01 -1.046572118626906273e-01 7.462665682045867104e-03 1.056009525027979817e-01 2.101205704983209396e-02 1.142929178773741290e-02 1.225044514666228518e-01 -4.470890945805548050e-02 -1.147106407776819076e-01 -2.430231429963018459e-04 -2.662043156965335569e-02 -1.059568402891127581e-01 -6.574873254421530200e-02 3.044899855108809325e-02 -5.801853188339067130e-02 2.580057928054183686e-02 -2.361271479312642210e-02 1.118954889892849747e-01 2.373521183089588246e-02 -5.425587048121083278e-02 -4.240398448078273180e-02 1.169027268898908400e-01 1.307927633307050530e-01 1.410339047817769920e-01 -9.419186437758376995e-02 1.257237800805866001e-01 1.302007516763785573e-02 -1.952046367247615294e-02 7.329919472178402125e-03 -1.244695198232123184e-01 1.826583597895701516e-01 -1.204223416158351490e-01 8.060387241729372043e-02 8.138152960893281496e-02 -7.991385051766915215e-02 -1.520424592399330366e-01 2.570356368412010997e-02 1.936280263615236252e-01 -1.776483724587707771e-02 6.295166377124321311e-02 -1.555861117549167671e-01 -1.779244672116634118e-01 6.198508253200645662e-02 1.785827572483262848e-01 6.206022889917165580e-02 1.359574057651460055e-01
-2.861672502800042053e-02 9.367367854375392711e-02 -1.358381500327054264e-02 1.431409757226534962e-01 -9.310420655548440338e-02 -1.306097856034813820e-01 1.447581844715411514e-01 1.669852769321603370e-01 -1.449150535018494945e-01 -1.653476657614344481e-01 -1.055909139362546101e-01 6.662472379716619098e-02 -6.218777123976340637e-02 9.069852887247630002e-02 -5.772355181537569546e-02 -1.163949913039390716e-01 1.394066427637190297e-01 -1.203907367052590022e-01 -3.367014456815534823e-02 -1.262830696515625239e-01 -1.541061305405519721e-01 5.116382237977612490e-02 1.381994937814839119e-01 -1.670218384078064611e-01 6.684877094520007799e-03 5.763930051894319839e-02 8.095919536954464257e-02 8.545023895924502844e-02 1.673946968970227434e-02 -1.246429693189578525e-01 2.235918401041222386e-02 -4.706432357811554668e-02 -1.370869790208945338e-01 -7.890091128754323294e-03 -3.017383326927848899e-02 1.049729846814910078e-01 1.317148064163268517e-01 2.936857116672139667e-02 -1.576699867867039362e-01 -7.496506533038643783e-02 -1.131754270771434950e-01 6.027081658817952381e-02 1.231105327827438228e-01 -1.045974202297494382e-01 1.407826828084340065e-01 7.850737468127898244e-02 1.176015824536909976e-01 6.572438930177217087e-02 1.159632739488009462e-01 1.724650723205287950e-01 -1.856012122350958471e-02 -5.921596163036996208e-02 -3.602938045512419502e-02 -1.164578334351419747e-01 1.306715991463671019e-02 6.545505765191660108e-02 -1.063985053800392683e-01 -1.327206933953875290e-01 2.064185544405319414e-02 -1.404503259186672681e-01 -9.908003598248917715e-03 -1.316221180111349920e-01 1.326897422701290297e-01 -1.359299307319371541e-01 -4.337630060955822292e-02 -9.600900754800199832e-02 -2.216724570026750232e-02 7.816711556334631633e-03 -9.804946952335727439e-02 -5.521160090562866017e-03 7.056452371103234811e-02 -1.156467671757504673e-01 3.359613576623075165e-02 1.344238484239833331e-01 6.776270353909977749e-03 -5.661030668147373768e-02 6.359037677389095533e-02 1.231430392791938028e-01 2.311148092513547192e-02 1.563242118776684841e-01 7.882781636481468734e-02 5.334619970898605949e-03 -1.584876426638274216e-01 -8.205863190008422237e-02 -2.096464677036408153e-02 -9.121289016261840965e-02 -1.318375287663355877e-01 -1.261802721222546608e-01 -1.948460237227003788e-01 -1.345383786414156846e-01 -1.444830470192119964e-01 -6.410309223001281476e-02 1.676709235176800442e-02 -4.146186895594898211e-03 1.079827407797327582e-01 1.062156950586304605e-01 -9.416395632533880455e-02 5.910115884445180101e-02 5.834525319475655780e-02 -2.348425178648922557e-02
9.288223522465743898e-02 -3.833622241738173647e-02 1.833963299338043640e-01 2.406688432089336763e-02 1.374239065688437622e-01 2.357436602890424643e-02 -8.678941307665676008e-02 8.252895117236477840e-02 1.405107708255106530e-02 1.279658359005085844e-01 -9.871876020626098314e-02 1.755671958800799348e-01 -9.698584499670161174e-02 2.873165134406296950e-02 -8.219789681874763165e-02 5.098389120701437432e-02 1.589780119704435890e-01 1.388803163880512614e-01 -6.245187994606389570e-03 2.126645954280186740e-02 -1.379002193798322951e-01 1.301632437943472768e-03 -7.349471223476873594e-02 -7.602189382549182084e-02 1.495771194451947783e-01 1.102037700843531004e-01 1.553417051252174441e-01 -1.892036058404560073e-01 9.887907207068762083e-02 -1.374737115086042960e-01 1.252092449829238785e-01 1.360951679947304260e-01 -1.058998021732768940e-01 -3.994583559708939774e-02 9.121615621327221202e-02 -5.338887997713281236e-02 -1.390225780982629333e-01 -6.028725769601919922e-03 -1.435145702265035010e-02 3.576297749462199749e-03 -6.839540008083629108e-02 1.342444192845819451e-01 9.760620057244760728e-02 -9.726941547259795873e-02 8.979995057516400314e-02 -1.646135817341588259e-01 -1.252032215989395091e-02 9.777147339402518511e-02 8.091931820056114111e-02 -7.874971662056433341e-02 9.958665744871965375e-02 -1.027926913127389930e-01 3.401623074767724797e-02 8.658299906290956027e-02 -8.861083149679641058e-02 1.387752075425446319e-01 9.905655644105555713e-02 1.347899757036056800e-01 -8.384800494955527497e-03 -1.050080875115014384e-01 -1.177834150902592469e-01 7.524169892759240141e-02 -1.183673642317211866e-01 1.936687117256153112e-01 1.301333309887273970e-01 -2.681317163763531630e-02 9.957774450843967506e-02 -1.770051831373503637e-01 -1.156114449601836069e-01 -9.352802167417595403e-02 8.345933972208800788e-02 -6.892361023404380838e-02 6.232541115604062903e-02 1.383406212592484252e-01 -3.825738546743818330e-02 -5.421584497258102181e-02 1.293617087190251091e-01 1.079125511962008704e-01 3.733708845866126613e-02 -3.944163587897692972e-04 1.139700120178105819e-01 -8.983430038257081418e-02 1.038040972980080329e-01 -3.291445032504097118e-02 1.283571932093796053e-01 6.478158945406561897e-02 1.490591642144377671e-01 -6.318406059787201601e-02 1.113375240513645031e-01 -3.080248293247840607e-02 3.009562458213562233e-02 1.534539101005734374e-02 -6.345801931729865009e-02 -5.462969557201666215e-02 8.545090724816666733e-03 2.464390348012925058e-02 -3.571646289190651830e-02 9.307007471912269458e-02 1.385443870189614901e-01 -1.493467059629241256e-01
4.272837603909021564e-03 -4.981768824515873939e-02 -1.056065552844771827e-01 8.367358161917627657e-02 1.260307698838106505e-01 1.136232212736428271e-01 9.041008263668012801e-02 -1.313420395139896016e-02 -4.523350386500742809e-02 1.005933109108974877e-01 2.354851648009114590e-02 1.596315328837154268e-01 -1.049538837910639760e-01 -7.296266196921780134e-02 5.381317086457313575e-02 -1.590680137279911199e-01 -9.002778829330014554e-02 -1.236528603843716212e-01 -1.525365489467675195e-01 3.241532074568375527e-02 6.864417848005097134e-02 6.720926870451210573e-03 5.040688033261537387e-02 -5.170356381680818979e-03 4.903420046001697591e-02 7.509886280230182454e-02 -8.366629288891686000e-02 9.520295794471447803e-02 -2.723994140165897013e-02 -6.754269121873444914e-02 -9.573124020928745412e-03 -1.189739986073341284e-02 7.458320201721742662e-03 8.284651796458973594e-02 2.998359566657719105e-02 1.295975917102131225e-01 1.458518897341746501e-01 1.502298568327709583e-01 -1.524421906827238826e-01 -2.467535178466954623e-02 7.020685225381607074e-03 -9.224733327377462877e-02 -1.729164386324470448e-01 -4.871200195630144558e-02 -1.749697456861354361e-02 1.330529940865939620e-01 -1.837343122444708154e-01 -2.494050441928277392e-02 -7.167966304160536262e-02 1.579235451704739668e-01 1.084098970223856956e-01 -6.006535624339739976e-03 2.103576080774297030e-02 1.292832595623715219e-01 1.592610305867576265e-02 -2.990744219239015178e-02 1.915012321856066624e-01 1.733267204093415781e-01 -8.192962624921722170e-02 8.858511149504839921e-02 7.470266451476574587e-02 4.066017184486871855e-02 2.709568065146754703e-02 1.732164624644858264e-01 4.169665670263971585e-02 1.083511681223591760e-01 -1.021002789595249205e-01 2.483089845487451708e-02 1.372081264987019822e-01 6.648800435911209061e-02 3.201438717773403414e-02 -6.152979310276512903e-02 1.202204897512741261e-01 -1.181174385565401247e-02 -6.335225631663276256e-03 1.527949012953895569e-01 -6.596099766913667006e-02 -1.680893044639358846e-01 -6.695212967305538485e-03 1.198134782790576391e-01 6.856955461654477835e-02 -1.426615946707689986e-01 1.469000570148338014e-01 1.431929262523766178e-01 9.336305434954489391e-02 -1.665288550471263063e-01 1.454509613588645944e-01 -1.037141119160565200e-02 1.240183639621629808e-01 1.817281359920077666e-01 -3.417236898671310169e-02 1.276167700904665969e-01 -1.065495893034498764e-01 1.274845341171932656e-01 -4.674580555854957603e-02 1.239977444541482954e-01 1.094762440028184680e-01 -1.488227948018285562e-01 4.620922572023886815e-02 1.166682590229896864e-02
-1.158487523679449793e-01 1.106935014304894077e-01 1.529867061004467309e-02 -1.014254405033235273e-01 -1.103609061071319508e-01 2.353210658720749499e-02 -1.121968610085708196e-01 -7.056748925231109970e-02 -7.220248307933889442e-02 -8.266219243734716782e-02 -8.896155234029828884e-02 -5.742472968665375543e-02 5.580124758035925892e-02 -4.909343533207885524e-02 1.149642271536503585e-01 8.235940382884723854e-02 -4.275910649906443373e-02 5.721067740624827952e-02 1.417979299995968945e-01 1.262587755780269771e-01 1.067738987418784119e-01 4.170782953985718161e-02 1.895639908634441373e-01 -1.684317752716294192e-01 2.300971947429010858e-02 1.217406360760447948e-01 1.497892704488615612e-01 4.947646694729715411e-02 4.044180944104391190e-02 1.091430936640163246e-01 -2.356427785202167002e-02 -6.278478807699076555e-03 -7.367840198032808707e-02 -7.676742214167631140e-02 9.710752096505657904e-02 -1.722168954155718357e-01 1.193773156240838379e-01 -5.799592582632647972e-03 4.665428541412434960e-02 5.206685609894015632e-02 -8.745733889549013595e-02 1.007067295619333280e-01 2.740187538544119721e-03 -5.613155311066567177e-02 3.211293270149494922e-02 8.694771575570610367e-02 1.293371890080636244e-01 8.026136577141551598e-02 -1.200746176751378569e-01 -3.827578014791930411e-02 -9.275106096753060509e-05 1.066634137867511489e-01 6.003764342008262311e-02 -6.448130455731920785e-02 3.205428429339225033e-02 -1.587478345083635500e-01 1.011025904876144965e-01 -9.695822575868359716e-02 -5.413773511102409897e-02 1.299117764931546383e-02 1.238763155189359644e-01 4.236260746532483773e-02 1.018331865740969427e-01 1.982027591929526600e-01 -7.141776398628375822e-02 1.206161966548483094e-01 1.626637596104051411e-02 -3.315566687286868736e-02 -7.298896349327844979e-02 -9.109730810670951806e-02 -1.080243267274520191e-01 9.028377741100790388e-02 1.350082624773382145e-01 1.406608659467213640e-01 1.415434207148541790e-01 -1.089920136473287587e-01 -8.862901312386414765e-02 -1.221674513072847496e-01 1.483174982865561597e-01 -1.131457855425584552e-01 9.681886288105404081e-02 -4.475964402530092229e-02 -1.359911623684813553e-01 -7.990629684519059972e-02 -1.264120574882727221e-01 6.308814010349972357e-02 1.699505159818831823e-01 -1.772481331585955833e-01 -1.526179525469472387e-01 -1.193348423689703230e-01 -1.622947267855149034e-01 -6.420855320209134520e-02 2.245331152499628613e-02 -8.799923249127995437e-03 5.180764009442510171e-02 1.046032269512724017e-01 6.890497592603628263e-02 -9.182327330627257367e-02 -7.944247572714940864e-02 -1.962553483726020287e-01
-5.431017267269087900e-02 -1.861552566929896846e-01 4.284295858508145594e-02 -1.649015640151278994e-01 -9.522423646104803685e-03 -6.621308620558942482e-02 -9.629813819292015742e-02 -6.772002088628030492e-02 6.798460044452137030e-02 -1.601634554820645651e-01 1.235521571012339614e-01 6.383002987219226106e-03 -1.051804292432114984e-01 8.085651986142530778e-02 1.305141282482690790e-01 1.141830821711821708e-01 -6.319171847749489868e-02 5.117014608879806581e-02 -7.620681193474235227e-02 9.459403147622105767e-02 -1.078978219209984213e-01 -1.425180006197475646e-01 1.546198842744578583e-01 -2.128803978484231085e-02 1.974565876050270868e-02 -1.161221248072593082e-01 -4.908125379156978718e-02 1.110268733890643240e-02 1.057200967437372900e-02 7.495433292941559855e-02 9.076810766976689537e-02 -9.261855967863698302e-02 -7.640433803359879261e-02 -1.441573383522242735e-01 1.087915454855793718e-01 -3.719952937065884591e-02 -1.573791346650106268e-02 -1.392724523167716000e-01 4.320975627465081098e-02 -1.439948507005714140e-01 1.596561797199495814e-01 -1.311770335388204867e-01 -3.990810992705268699e-03 1.400294314362621716e-02 9.432746933623856189e-02 6.293209918872105790e-02 -8.006235000082423392e-02 -1.316402793540590033e-01 -5.895658807596932532e-02 -7.287311638690656401e-02 4.463891012309379597e-02 -8.323178545464279821e-02 1.250410902328285001e-01 -2.155542374907214870e-02 1.493187279855997807e-01 -1.206372526143314333e-01 1.239362605048403426e-01 -1.628855152911201087e-01 -1.607990823083296494e-01 3.753637232754548220e-02 6.157656501838354446e-02 -6.062367873677090672e-03 -7.489856916410672638e-02 -1.674347149012443301e-03 8.342085802754777013e-02 -1.458163903590764011e-02 -1.065381277576769314e-01 3.787277084864507787e-02 1.240386321195020985e-01 -9.265737916668632945e-02 -1.602246180861733593e-01 6.055617088898211653e-02 1.547719432048468291e-01 1.685829952794775863e-02 1.027734276431410167e-02 8.304752349914587550e-02 -3.440054847960142409e-02 5.006538302749269365e-02 -8.864849367144908565e-02 -1.096244293186100088e-01 -9.443269330043509407e-05 -1.166238595731769190e-01 1.288887229449992289e-01 1.028463603762476419e-01 -1.486964739056101381e-01 -1.483739845714135142e-01 -2.499176403072687555e-02 1.152352453751950973e-01 1.059831557031793436e-01 -1.279824667405064786e-01 2.649463098071166978e-02 1.824000045164230199e-01 5.893452632387377599e-02 1.165754580964737802e-01 -5.925769431083210276e-02 -1.284202249355658743e-01 -3.574621874409659311e-02 1.648666477117212426e-01 1.636150079895947740e-01 -1.163186484174534990e-01
1.852982182736680750e-01 -2.212686398716355932e-02 1.793143332924639066e-01 4.572525159701092135e-02 1.129202834934526535e-02 3.445017811935945778e-02 1.652212615752837455e-01 1.968906050021488607e-01 -4.925692581369146145e-02 4.300986494640065411e-02 1.081143051654055443e-01 -1.255515011350925303e-01 -3.530403768815437715e-02 6.040494177570512185e-02 1.607349617910960315e-01 2.849854923234975898e-02 1.419510357704925341e-01 3.799246355359159333e-02 -1.536340279377811924e-01 -1.007066345787760164e-01 -9.880910191335741388e-02 6.410704859651438284e-03 8.743838519629894973e-03 1.466996047190585462e-01 4.107448147719764027e-03 6.554688116795483188e-02 1.051118758560495720e-01 -2.088488673356459213e-01 3.314717243147641268e-02 1.291667754066592733e-01 -1.210394494959240747e-03 -1.157356790542816427e-01 -1.683310232974761372e-02 4.964631669039721446e-02 9.907670184541909897e-02 1.713762286391832812e-01 -4.493588143554450715e-02 -1.148108594003136029e-01 -1.412231726747132099e-01 -1.220279161599403528e-01 -1.351141321324223765e-01 1.487810039428845987e-01 1.148547246873482530e-01 4.113351675052871054e-02 6.007610490269069820e-02 9.519244460458331503e-02 1.118557567886124815e-01 -5.348065197916709868e-02 -9.711122379730663390e-02 -8.944436878172805361e-02 1.879877679501245902e-01 6.536644006094435855e-02 9.974479886552528596e-02 6.747255588619378679e-03 7.559177704378300389e-02 -1.861372576525977540e-01 2.047644568840420801e-02 2.511014323542626325e-02 -1.050490192975095383e-01 1.659997053341944655e-03 1.121463555577879440e-01 1.115812495133062243e-01 1.066395102285368768e-01 -1.082092961174084128e-01 5.614704368641942889e-02 4.306154856300669666e-03 -4.848555389140904448e-02 2.653713635966789205e-02 -9.804200171101130901e-02 -1.376328907184806161e-01 4.750488822313789911e-02 8.033871649565763051e-02 6.230636154403344090e-02 3.118914768709320565e-02 4.106564979131276799e-02 1.138067281869282465e-01 -7.543276058623415992e-02 1.412145264961362778e-01 1.107373286691828822e-02 -7.405967450866413060e-02 -9.137871816019035864e-02 1.510143350151015862e-01 2.506796482608799129e-02 8.305687105122196504e-03 5.398789767711495435e-02 1.339429137121564417e-01 -9.691065444751194649e-03 -1.269898313865248929e-01 -7.810207833814082450e-03 -7.423451825683492766e-02 -1.920543233250659731e-01 -1.457520746300714765e-01 1.312065852351940176e-01 -6.020581509911576701e-02 1.589371106978774151e-01 8.103027123562733455e-03 -5.570253942411168557e-02 4.964567433148784487e-02 -1.029635341748561840e-02 4.250133551937684134e-02
-1.366141306468255656e-01 -1.807809428685933084e-01 1.960315054065912554e-01 1.643743653755326550e-01 -3.818260334176794280e-02 6.113927323067414737e-02 -9.486021958810772481e-02 -5.803532823008928504e-02 3.605190865941537010e-02 -8.356070307332788549e-02 -1.393538991744183719e-01 -2.953781038090332739e-02 -1.416856253111338226e-01 5.490781477244732756e-02 2.982060062879778040e-02 1.477011514547136306e-01 -7.998439427497322507e-02 1.465421770586795291e-01 1.252153052914655174e-01 -8.158928011377021561e-02 -2.843157589038933231e-02 -1.295854683381126859e-01 3.523396743711609130e-02 -8.392796737139293639e-02 -4.166609256447805637e-02 9.956509795862597545e-02 1.150770815146782838e-01 1.019774765695929120e-01 -8.617934611786030527e-03 1.293868289798464355e-01 -5.840509300922568092e-02 2.966908157687930814e-02 -5.160410489374362558e-02 1.281599738863324345e-01 -1.230865901542207569e-01 -1.634794090262262078e-01 -6.326831047046400924e-02 -8.131497917592372948e-02 -8.879748172628285086e-02 1.073947767850001594e-01 3.373065835546991409e-02 1.671698504262163903e-02 -1.502710225986923775e-01 -3.109126808999955818e-02 3.050475560593000554e-02 -1.135391808402953229e-01 -9.714507696915125612e-02 -1.422056722132768181e-01 -9.337184784620231048e-02 5.462385863824881921e-02 -3.047618792130702206e-02 1.258615701768529653e-02 9.241687767835812806e-02 1.444837136134589084e-01 -4.272279622102782143e-02 -9.023801320230535883e-02 4.035236247428151957e-02 -2.122198807562560019e-02 3.751267980152112047e-02 7.990971431441379336e-02 -5.745898730501425300e-02 3.080641187253723920e-02 -6.896044898894627961e-02 -1.419436394034498394e-01 1.099500770418409684e-01 4.067123381853168795e-02 -2.173424254886641843e-02 9.714922331889114249e-02 1.123119847629667489e-01 -2.084571451655983787e-02 -1.491798917887666998e-01 -1.252314592254100689e-01 1.566001759226844647e-01 1.458346574560892006e-01 1.106573561486991486e-01 6.194418132718994968e-02 -9.558860879017483381e-02 6.413719390872589521e-02 -9.645102146734059814e-03 -1.515253182773361740e-01 3.887354719179451912e-02 -9.190657878713398565e-02 -1.700436745428928198e-01 4.492746698100878906e-03 -5.029722112904448650e-02 -1.341527538603068115e-01 7.906901990211551157e-02 -3.765174463480429334e-02 6.754754617900373195e-03 8.240458356352826919e-02 -1.921597424382650854e-01 6.651760319005205202e-02 -2.231410750414015987e-02 -1.078647069762131289e-01 -1.800622403110083425e-01 8.558122942624192542e-02 7.645326611256968163e-02 3.919680850547881124e-02 1.607517058697597312e-01 -1.869409596885596159e-01
1.797252127648030218e-01 -6.066415305017101162e-02 1.862281148807913567e-01 -2.789495737485922153e-02 4.582767182513614729e-02 -1.080243768545926936e-01 -1.127550294525334756e-01 -1.441262843456618259e-01 1.094235089025668295e-01 7.209840431165763508e-02 -4.027263511893477282e-02 6.204974920061070293e-02 9.167681721265140415e-02 2.722118749466461915e-02 1.593704679043628225e-01 -5.868465983874948666e-02 -5.831308334690096795e-02 6.165149538252578942e-02 6.799196744751476174e-02 -1.662408066253048822e-01 1.479372540852610940e-01 -1.039780427521362349e-01 1.377789402376263794e-01 -8.096901029156661211e-02 -3.235737781820720305e-02 3.709703600365517329e-02 6.333176068448517770e-02 -8.591654713183935477e-02 -1.262180571319531930e-01 8.659976299177456205e-02 -2.564610947403934971e-02 -1.570234997006378086e-01 -4.707533288887573442e-02 1.500344014228528200e-01 7.756949111911966288e-02 2.400624265167393065e-02 -1.285027982366827512e-02 -5.557168127913280492e-02 -1.638475081685035195e-01 1.030865831349611489e-01 9.533232940754284013e-02 -2.227481924855752304e-02 -1.687202703295488659e-01 1.788274570038802733e-02 1.435964082452397539e-01 1.435861276411081466e-01 -1.790336081752944564e-01 -2.823994706544084160e-02 -6.897743171306414123e-02 1.157349335011888386e-01 1.632929213830850435e-01 1.404288174787444998e-01 1.100991823908857997e-01 4.855507960176073945e-02 -4.803912588927718857e-02 1.061492366891916561e-01 -1.315663029240417004e-01 3.563990506090134597e-02 -1.222561846553883724e-01 8.848305064884195992e-02 -3.776275584228812950e-04 1.718708123934457599e-01 9.083939699607500307e-02 -1.265442289406746856e-01 -5.691562514504609066e-02 -5.916210339413340707e-02 -8.397781787572232426e-02 -3.258491328714375329e-02 -6.840648604600227389e-02 7.598099852089312822e-02 7.581368493700474387e-02 -2.716941523724737684e-02 -1.060694534875996631e-01 5.868534843730936063e-02 1.284177150092851716e-01 1.239727965455868913e-02 8.630426530901054438e-02 -1.100989619013510168e-01 9.025548461114919763e-02 -4.689435197088313856e-02 1.139924745187205352e-01 -1.013320906789972192e-01 9.963127225406401277e-02 -1.386405687968774447e-01 4.573561475994473297e-02 -7.687219442506161571e-02 1.562372723108768346e-01 -9.318920094444668734e-02 2.860176391456327114e-02 -4.671478201117472417e-02 5.522858087735090654e-02 1.554697804634967984e-01 -2.085737485141765657e-02 -7.494606377560415755e-02 8.195959745035891197e-02 1.434594521811505818e-01 -1.320710252073958590e-01 1.002905959086134863e-01 -8.969165617670080137e-02 4.989302014339258573e-02
-7.810090025333593644e-02 -5.489993792189463984e-02 -1.253748859911388291e-01 1.143597271962512874e-01 2.016509953354957141e-02 -4.580740818069989340e-02 1.445158443587483132e-01 1.721191956940915091e-01 1.000860562192501246e-01 -1.348836178188965174e-01 -4.485986150194765792e-02 1.591705170750624398e-01 -1.287355939104565215e-02 -1.422084098807374630e-01 -1.083815228052936591e-01 -1.358300501226679113e-01 5.436223126668979916e-02 1.251458109710855415e-01 1.388597426373633925e-01 5.932168925668359488e-02 -1.339801076171834027e-01 -1.572437625649958370e-02 -3.784094282056750524e-02 -8.639351525346759819e-02 1.320545268644468251e-01 -1.274318758561300557e-01 -3.004393697414195832e-02 6.187260978851463061e-02 1.299612885838207638e-02 7.444444496275080814e-02 9.365066131269861316e-02 -3.318472241947988816e-02 2.047223063575509192e-02 -1.095910475520942562e-01 1.904251224001458076e-01 -2.943728510786383298e-02 1.670715578224520603e-01 -4.717684654106489572e-02 -1.343036659324697568e-01 -1.687710615593360219e-01 -4.825695010510708954e-02 1.906447645422361392e-02 2.146666428759658619e-03 1.305837930468071173e-01 -4.971739680425497215e-02 -1.602876390275624618e-01 9.682605877881605982e-02 -9.814980962363147043e-02 1.554521994152229525e-01 -1.446900142082271912e-01 1.122411487936451208e-01 -1.056838944214380377e-01 1.240830573891462257e-01 1.099540631676471231e-01 1.259557417321796602e-01 -5.758745261903353702e-02 1.532465759304642121e-02 -7.862646148886275055e-02 1.399664264040035022e-01 -3.100154275826312936e-02 -1.225675795378497190e-01 5.249662992238122300e-02 5.866107040455867394e-02 8.319667703777026968e-02 9.552883165991642167e-02 -1.326650755893251377e-01 1.330032070509842290e-01 -9.996478534943092908e-02 8.805442879243903509e-02 -5.772450765296893715e-02 -1.452399620322078755e-01 -7.431604968159566393e-02 1.623977696028859261e-02 -7.288456861611673776e-02 -1.189463743092199766e-01 -4.720064726358186302e-02 -1.004452739392572812e-02 -1.573250921162972216e-01 -1.563800815761392238e-01 1.321853774722091257e-01 1.943342470846451051e-02 5.374422092835916265e-02 2.636430648268088886e-02 3.483498288494708134e-02 -7.603398140379288850e-02 5.456721624927066833e-02 -1.412160234373174006e-01 1.216368071006874718e-01 -3.847057588340303813e-02 -8.058387460141390457e-02 -4.193299691522414663e-02 9.656098275099611605e-02 8.790618414726635022e-02 -1.337018809060927238e-01 -1.326292111289751052e-01 -8.481754777271476031e-02 6.929671821564234446e-02 -1.624319183668797642e-02 6.263673469121042170e-02 9.325191448330646948e-02
1.075164063999001079e-01 -1.737884303503586247e-01 1.095553218086462582e-01 4.587582382658398489e-02 1.314855373504597302e-01 -1.079720185218159545e-01 -4.354194703570420100e-02 4.806558877029218357e-02 -1.186806402912512770e-01 1.729488318743583122e-02 -1.555579008681330921e-01 5.612523585835200307e-02 -1.258673233793100865e-01 -8.081924324444536567e-02 -7.065621757420405269e-02 1.043366213790184460e-01 -6.988533133807084408e-02 1.349469619434447432e-01 1.169027244218018013e-01 -1.330319327932092677e-01 -1.303377287548824759e-01 -3.456893557351933127e-02 -2.557421271790389153e-02 1.278777161242343752e-01 1.258497591021890405e-01 1.176249743119040653e-01 -4.984018726237609415e-02 5.025137322680758682e-03 -1.094872981003350565e-01 1.043348541432376486e-01 -1.349145741126425158e-01 1.359783037244445270e-01 -1.096777936383897673e-01 1.235880750739195150e-01 -6.280117339835507295e-02 -2.671238589451288212e-02 -3.709108574291183902e-02 -1.170135308505139832e-01 -5.708736224539663617e-02 -1.434136672870183205e-01 1.303875795262058324e-01 -4.286678848017046878e-02 9.038312721574578990e-02 6.410593716161681888e-02 1.114536202732828024e-01 -1.415426076745793793e-01 1.280620561638235247e-02 -1.423519373308595182e-01 -4.795457993671790875e-02 -2.577428923983449138e-02 4.870213684877092164e-02 -1.380389165281385999e-01 -1.327694805359754260e-01 7.203155009315589941e-02 -1.091818410458187533e-01 -5.151147095978084872e-02 -1.064140915516740699e-01 4.836436106464028772e-02 9.866862185145315600e-02 -9.862144537097929098e-02 1.522034476377286116e-01 8.671675656600637272e-02 1.588761311893238312e-02 1.618404031545900568e-01 6.000824276485139386e-02 -1.462479561236477155e-01 -1.124110000079924995e-02 -1.170519493798396066e-01 1.041895308289585709e-01 -8.328906304919533876e-02 9.409301755393863209e-02 -1.356228459141092801e-01 1.534936538194356659e-01 -1.065303113520892214e-01 -7.516807817384150298e-03 -1.133859428090297217e-01 9.781139784282137650e-02 3.515326381798369176e-02 1.115582206751585814e-01 3.467186438033100643e-02 6.227503181477268140e-02 4.167471651566633656e-02 -1.201243336070872830e-01 3.344864565407900531e-02 5.836271284916419444e-02 1.157463491448595949e-01 5.105367400663351346e-02 5.007151195914204961e-02 -1.634855312583780862e-01 -1.123480534762287368e-02 -9.823784812259984955e-02 1.077820587849550038e-01 1.572697486103883657e-01 -8.043783267018671593e-03 -2.900853470144494975e-02 -1.318066282218397500e-01 -1.164894429614850152e-01 1.441906023673819592e-01 1.276328223808112505e-01 -4.134324674910237057e-02
4.484942515164339061e-02 -8.260176113043051632e-03 -9.453858100433838729e-02 1.304062927000310401e-01 7.725732311007198205e-02 5.590601030448989067e-02 1.190277073297755367e-01 -9.070942810586220262e-02 8.186345175002995855e-02 1.475941641183786956e-01 -1.540785375336373164e-01 -8.503885619605948409e-02 -2.792622300298561438e-03 -3.174879042932944595e-02 -1.044701317956005654e-01 3.714482564712561635e-02 -1.221924088629956079e-01 1.161125923050472658e-01 3.814530653787361753e-02 1.180192676975040933e-01 1.933848617686080573e-02 8.034386543349436582e-02 1.003105607418192970e-02 -1.457278869553832179e-01 -1.301085693289855683e-01 4.593656405748116484e-02 1.372900613247714785e-01 -1.390291567530671513e-01 1.055067651878987267e-01 -1.331405262398794587e-01 1.586815554863230948e-01 5.873524034593118059e-02 6.898802141838559880e-03 -5.180377429849326865e-02 1.420903722459175289e-01 1.195533131189177173e-01 1.054453236583250547e-01 -7.655444807519480588e-02 1.213818675092289134e-01 1.204786617605810850e-01 1.125587546246898663e-01 -1.487374822575764366e-01 6.771817646043754024e-02 9.332328298461693705e-02 -2.148581067084588366e-05 8.030418059938934650e-02 1.086664938002081075e-02 4.535833581559746419e-02 2.425980245279994035e-02 8.291625769988028583e-02 -1.073310489982004096e-01 -1.472414007965706234e-03 9.849214763970068343e-02 -2.163581598930047756e-02 -1.090511445898225129e-01 -1.668043872512996462e-01 3.689473233995627099e-02 -1.444577983034836810e-01 4.441148690955983025e-02 -7.757848830392231887e-02 -3.293185261194094687e-02 1.750901347328057134e-01 -3.797479298688215266e-02 1.212133635051140940e-01 -2.313739108984699810e-02 1.051718738173107633e-02 1.867808350047550636e-02 -1.531421010600196586e-01 -3.453286389769857218e-02 -1.463481680608998692e-01 9.010969400182576583e-02 -1.525572216246448565e-01 -1.637675828610044015e-01 1.638575552373381650e-01 1.300477899121851300e-01 8.458160681412011175e-03 -1.032327334738337293e-01 -1.575854539593729842e-01 -5.725518970782303430e-02 -4.649837437228940967e-02 -7.034631727596961370e-02 1.301521608145171649e-01 1.419225969037395674e-01 8.744458632560153655e-02 1.162167600353168455e-02 -1.455289760558015066e-01 -1.300764760710328427e-01 1.035024497533537646e-01 -5.914981278685718658e-02 1.465814446551817751e-01 1.460570319274704654e-01 -1.099030430392963775e-01 6.858393778605204050e-02 -6.156009241165302098e-02 -4.879185790852992588e-02 -6.516874725155200054e-02 -6.228926938485821255e-03 -1.389023834815941542e-02 1.651416934139139647e-01 6.522968292131098300e-02
9.758115643801525130e-02 -1.658964928263205810e-02 -1.841157103951826871e-02 -1.520099545878380864e-01 1.322227646136550361e-01 1.241689507048128471e-01 5.678262215524450610e-03 7.637730745436092927e-02 1.375236574525010858e-01 -6.784370634004666112e-02 -3.399977287774794219e-03 1.686757267124081583e-01 9.433681891249862117e-02 2.144001109307108396e-02 -6.098772381037831196e-03 1.222801402165777512e-01 8.557361816761420437e-02 -1.418101996210933413e-01 -9.434536317119951443e-02 -1.013688433254156251e-01 1.481520820450090703e-01 -9.222290488644896422e-03 1.272247374880892123e-01 -8.420427656700078811e-02 1.646075762927285968e-01 4.204984290725057028e-02 1.192323677431456341e-01 -3.071553442106554621e-02 -1.505360484121592846e-01 -9.547178889308137462e-03 -4.534124659737041180e-02 -2.428964090759812983e-02 1.112920983028509309e-01 -1.686850522103362782e-01 1.102455323602414411e-02 -7.025657345386455976e-02 -8.940503464601608219e-02 -6.018330138843777655e-02 -1.367161013605283915e-01 5.502612912434752535e-02 1.532303247500225174e-01 -1.533914544053614380e-03 8.559392886571703940e-02 -7.517147859924985798e-02 -4.196695197403552818e-02 -4.271800697377232947e-02 3.315182458789051739e-03 1.227353019348257634e-01 -1.359511479996166894e-01 8.417252760630611341e-02 1.720217715994165619e-01 6.653718013488454930e-02 1.398292094137376304e-02 -8.977312060791416137e-02 -3.554420191999637952e-03 8.420096437471860651e-02 1.301796756451427395e-01 7.029233893258732269e-02 6.549899833607154831e-02 -1.659382751425263758e-01 -1.040779876888644345e-01 -1.262428075178769482e-01 1.304520753060199600e-01 1.786788753500455351e-01 -1.244765423474031574e-01 6.659623976968155612e-02 -3.833653087062955387e-04 1.314070627403433056e-01 5.561635369009130386e-02 -1.592279789171335835e-01 -1.428414628299115863e-01 9.477613571133548798e-02 1.269695632625675585e-01 -1.526716896926841871e-01 -1.226012938085540016e-01 -9.804282790343234189e-02 -1.477835848154654130e-01 2.762741172581308774e-02 -1.226249380140249506e-01 -3.977548804923264347e-02 4.293895217707243556e-02 1.514294406709141005e-01 2.503739860436979617e-02 6.985852369703668407e-02 1.406036637197068812e-02 -3.227294332680168826e-02 3.656840331095452014e-03 -4.808403117100052034e-03 -7.141104599417451293e-02 1.329487115184722727e-02 -9.773596775144872961e-02 1.297549296605408076e-01 5.761808469750560185e-02 1.484145109831802589e-01 4.063957666715121292e-02 -1.430424643578978305e-01 1.196265143401635672e-01 -1.252467038036431668e-01 8.801813140295429438e-02 -6.961173738625622831e-02
2.566851737314670284e-02 -1.682758565102716319e-01 1.987102454523519413e-01 1.920279662670368662e-03 1.148413507614346740e-01 -8.549914966458338483e-02 -1.469131609830776064e-01 1.143678584911107937e-01 -9.429590139043904362e-02 1.174528115961402525e-01 1.617244473588379597e-02 1.466442084021253589e-01 -1.194037192777454431e-01 -2.720796484437608409e-02 6.189566378606823488e-02 1.377171053666333134e-02 -5.389928689345443308e-02 1.552083080116644920e-01 9.677641188747462819e-03 9.427044693238928463e-02 8.121719919257225362e-02 1.457185329170415933e-01 -6.192274950309911707e-02 -6.495481884908552161e-02 1.769570678673504371e-01 -1.462844003034389356e-02 -6.500709069611031177e-02 -1.387509582506544770e-01 4.415832872605283954e-02 1.178074467021363730e-01 -5.742364391170372978e-02 -1.565222720138882417e-01 -1.025763400410711380e-02 -1.681027813607703647e-01 1.090387879648515024e-01 1.481348109841022220e-01 1.926320402199995646e-02 -1.615060836940413955e-02 -2.897163941975985924e-02 6.123231980942673430e-02 -9.175272288329303083e-02 -1.808866615546052548e-01 -7.483064234137444017e-03 -3.404478847033843431e-02 -1.034304006468125675e-01 1.430133330580609374e-01 5.488057714225210403e-03 8.961065897075527753e-02 -8.087698498391959756e-02 -3.723086778416596215e-02 7.351278749508000088e-02 -1.362506714969730359e-01 7.566654765523631032e-02 -1.309434685051513170e-01 1.412134643551507807e-01 -3.634190631394166454e-02 -1.137536123602072256e-02 -1.172385854056583188e-01 -1.165515205521062553e-01 -5.031077299260770797e-02 -7.500259011220998528e-02 1.814420301340914921e-01 -5.180998277007727026e-02 1.164513451288334278e-01 3.544039064208996323e-03 -9.883604702547585386e-02 1.635420359020281211e-01 -1.297458597504938527e-01 -5.294576313540943352e-02 -1.040782442271643987e-01 1.912762377293543425e-02 -1.094816741307544881e-02 2.715179018943375197e-02 1.309926778004332493e-01 3.666320060669289727e-02 1.081165194306545618e-01 1.184136050999783640e-01 -4.443396161563049201e-02 5.397543759484726283e-03 -7.116060359440089245e-02 1.285508143544435711e-01 5.234877983568919646e-02 5.964788633095607917e-02 1.031551807705601981e-01 7.191648499466758715e-02 9.252037399027615572e-02 -3.840223675190935354e-02 -1.594317704949220482e-01 -1.878608636190593206e-01 -1.319235529151341069e-01 1.157062271539028853e-01 1.043536063033258937e-01 1.113128241429351128e-01 -1.260038652364297296e-01 1.368974224401659223e-01 1.048714133478933080e-01 -3.537691867246210015e-02 -3.145284121435922876e-03 -5.185837063376085715e-02 -9.878932115009670181e-03
-1.303955164369289821e-01 5.967127379410994831e-03 1.033300144316081888e-03 -1.626553013621881982e-01 -1.594646563114073268e-01 1.334959967722290641e-02 1.429590387793410085e-02 -4.689329891047046370e-04 -1.188966100434546147e-01 -5.448531576473585047e-02 1.797588454600781635e-02 -9.477345554189042787e-02 3.496525490767824623e-02 -1.596777786851401315e-01 6.140032009834443111e-02 -1.411150359466614990e-01 7.208699559291073956e-05 -4.951070404028069111e-02 -6.736442766150171901e-02 1.356473059434390172e-01 3.061636437447491643e-02 1.740190074777871188e-01 3.564207773013021441e-02 9.994449412911784059e-04 -8.679264899436563152e-02 -1.345119934388427918e-01 -1.998825096495836576e-02 -4.209752296615380113e-02 2.144041110504078806e-02 7.091119224087030770e-02 -9.768356297224678464e-02 -1.735512707268656030e-01 2.518844042946238523e-02 1.428965007741855586e-01 1.720741450750012669e-01 -2.411624796850031158e-02 -1.373206042267923754e-01 1.215935685811216915e-01 -9.095744785045363143e-03 -1.316426351949992191e-01 8.898655404473721983e-03 8.053160684508517408e-02 7.833896782033009099e-02 6.575253163867171569e-02 -2.551643195388681937e-02 -1.616387587125382441e-01 -1.751433126032572174e-01 3.756735496229748200e-02 -1.376400917348423181e-01 -1.497740414891466643e-01 4.567751542366398076e-02 -1.426941303292409979e-01 4.810002188449459537e-02 -1.322230414363898265e-01 -1.410754703124437459e-01 1.062331637701699749e-01 -2.912582346810098366e-02 -3.560254641654836405e-02 -1.563981348278273287e-01 1.059961202614933956e-01 -4.035359714464133163e-02 -1.420405714144254705e-01 -1.385341880967999595e-01 -7.190121102205983272e-02 -1.451323205020225715e-01 1.582137070679609792e-01 7.747416438810095056e-03 -3.819460763051823332e-02 -5.108856721400053397e-02 9.927067553213939077e-02 1.307595208829093365e-02 1.083501246230435732e-03 -4.062982443735686788e-02 1.473316002782007195e-01 9.817906926657286870e-02 -1.429182601441055245e-01 -2.998157673044524879e-02 -9.121289054647691019e-02 9.996380458951625858e-02 1.355392676611106018e-01 -3.578160241210764231e-02 -2.503580737338391773e-02 1.200360657844162793e-01 4.328916793604455776e-02 -7.997222497284862952e-02 -9.635129542933665303e-02 4.374338269058643952e-02 8.190425240668891549e-02 1.297615229880190180e-01 -1.128099619047378925e-02 -7.895130945841005721e-02 1.867402419083699916e-01 6.217371575936169598e-02 -4.161173590768674213e-02 -1.686045104956224727e-01 -9.823389479178637473e-02 1.316322023530709373e-01 2.555879467990907969e-02 3.183132235110924108e-02 -1.777350968028765799e-01
1.438427980923644156e-01 -1.363955734463717095e-01 1.226287731872186156e-02 6.084042523182872642e-02 -1.495807557082190764e-01 7.924273793249476949e-02 -1.520178890619561518e-01 -3.233846484870695620e-02 -1.165000522915863174e-01 -4.837865103554733065e-02 5.544821086127670051e-02 1.173470401099784566e-01 -1.312544057785885177e-01 -1.352396226207799000e-02 -1.158561217423218631e-02 1.451047754553227986e-01 2.347869741526077692e-02 -1.090072302471933735e-01 -1.570562499297857295e-01 5.599929800686728049e-02 -4.933327973917190322e-03 8.960319029541545521e-02 9.089469841578598497e-02 6.074923790436348447e-02 1.578547534906713234e-01 4.097165870434196083e-02 -8.107007076275393742e-02 4.651504563059304098e-02 7.258199813852771187e-02 -3.369935035308846416e-02 1.243676761638560224e-01 8.508199645335209893e-02 1.195180302550282597e-01 3.036762743715920587e-02 6.152692009586911009e-02 1.107375945820291835e-01 7.650459915363685102e-03 1.169023864051192511e-02 1.036622120424549737e-01 -1.503252609836056575e-01 1.016732725475882892e-01 -1.428219952045248556e-02 7.022053929022009644e-02 -7.766455753727120881e-02 1.143743336007782274e-01 9.186494490082722231e-02 -1.644926594822755384e-01 6.677977393093659231e-02 -1.520469878978172873e-01 -1.074101287151459638e-01 1.823014850642925566e-01 -3.138541881710375098e-02 1.107405756015149290e-01 -6.977392886658023707e-02 -4.315530587472918116e-03 -1.579461353184561101e-01 -9.488214458726380862e-02 -1.568846480951975875e-01 1.113216048513156614e-01 1.515800682071143934e-01 1.045071919080888811e-01 1.222043859467722288e-01 7.116458332143876797e-02 1.043427126377182573e-01 -5.102065656303553937e-02 2.221011906629235828e-03 -5.278765487805790052e-02 4.614799945598577896e-02 -5.591987137384325790e-02 6.065097709334772713e-02 1.432226729245652808e-01 1.635020851795280505e-01 1.558598802756142043e-01 -3.512838477735818338e-02 -1.362712165162398847e-01 1.011638224123685842e-01 -8.998211796079440272e-02 1.224994090830057447e-01 -5.806996886570966326e-02 9.566071689495862784e-02 -2.108558119002922754e-02 9.785080342782320750e-02 -1.586612507709418696e-01 3.255216115412818551e-02 2.766353444116536817e-02 -7.330860165327426903e-02 1.074336983915474136e-02 -9.015299908505994275e-02 9.969186019160169998e-02 -7.604623774865716668e-02 -8.045865713606681346e-02 1.196035834353190302e-01 6.431495615555972434e-02 -1.647039625736089474e-01 3.690978200748124688e-02 -4.167826256347201969e-02 -1.621985829134303114e-01 -1.439443911247473562e-01 1.632800767628583560e-01 -1.356212412527629113e-02
-3.585161512744640400e-02 1.280175502784255959e-01 -8.153634280450046401e-02 3.670197469864922013e-02 4.566159300578422758e-02 -1.725897124170919505e-01 1.401672916667174584e-01 1.221886780369855346e-01 2.976697663861943219e-02 2.569468968084282628e-02 -1.382182779870581857e-01 -7.401614300620711073e-02 4.058964952930943504e-02 -1.266074086483854888e-01 1.862548258959593195e-01 -1.458282821036139543e-01 1.404721602832997851e-02 -1.166821524437083729e-01 -6.949828231377441767e-02 5.133544407039493385e-02 4.093150765999743063e-02 4.393719808638115593e-02 1.285831150515372723e-01 -3.291040052621087286e-02 -2.263778947521144502e-02 -1.498635754439636703e-01 9.161646242054427569e-02 2.877465573768216503e-02 2.598300492750658941e-02 -1.637187487709876321e-01 1.509763619045002003e-01 1.383868664711426499e-01 -7.112660552590789782e-03 2.442507266234071606e-02 1.884063419001121009e-01 7.778039371882153330e-02 1.506240313294360811e-01 1.228314594873230331e-01 -1.239408147117590508e-01 -1.749835070280394977e-01 -1.168206991391741445e-01 -3.801794025594013721e-02 1.435078093716429248e-01 4.309433760249412743e-02 -1.694965603170075497e-01 -9.823332790646921442e-02 -7.400712033169246085e-02 -6.090309257628498743e-03 7.654085090014903225e-02 -1.847723666221570693e-02 -1.199504567234610797e-01 -1.093368647806623566e-02 6.219170956437930498e-02 -1.866053254418438001e-01 4.366047402144976330e-02 -1.517166462334705312e-01 -4.940331822487966686e-03 1.145403893081567009e-01 -1.288908842746348815e-01 -1.387568635347493085e-01 9.935695057577929867e-02 -8.502550087542404267e-02 6.700847679231250464e-03 7.020303120135031050e-02 8.240824371177661589e-02 1.447597910454686276e-01 5.501928877495634862e-02 -6.085553854254521777e-02 1.277556040481626354e-01 2.567375366476538218e-02 6.161194891934896473e-02 -9.234669685722882160e-02 1.172931593511214315e-01 1.400453839669489053e-01 1.811037342009421541e-02 1.252104595117423669e-01 -3.965220357643250287e-02 5.900512032946042540e-02 -2.262617929863122365e-02 -1.160034119605723030e-01 3.728140298050144907e-02 3.470805770662059586e-02 -3.588968682585220310e-02 -1.820978118094514764e-01 5.596923769788374886e-02 9.896180578568171404e-02 1.010428772798311892e-01 1.322177958203595849e-01 3.711628676220017631e-02 8.097149415899315694e-02 1.244648321547785486e-01 1.316428164430919201e-01 4.092043523301722857e-02 1.011801414528532006e-01 7.604192857933144735e-03 3.135632603658489170e-02 -6.687368955715861096e-02 -9.032945329982060290e-02 -1.514996815449510537e-01 -4.558654335006454006e-02
