1.040396607814197683e-01 -9.038443593781902985e-02 3.970170251809556489e-02 5.682150108033368757e-02 1.181359033490387081e-02 -8.661978308875854793e-02 -6.158704873617744380e-02 -6.690509351457475662e-02 -4.014584304106289664e-02 1.015346668279098613e-01 4.788920988033824183e-02 4.703056277522264794e-02 -2.184363405135611447e-02 -8.336107066387207776e-02 -1.218804761750216445e-02 -7.188324897597971053e-02 -2.176182684592401244e-04 -5.781491697958688475e-02 -5.046272400800372315e-02 1.398590497408092603e-01 -2.371007636018346992e-02 6.523264838273072630e-02 6.800924865849630740e-02 -1.376362981830831986e-02 5.758655986804097487e-02 -1.493607847282454361e-02 -6.607548126733045479e-02 -1.845989964241763481e-02 8.225543259917839078e-02 -8.074951515599954055e-02 1.070334151392531713e-01 -5.219036516114320540e-02 7.493032390187596981e-02 3.824105895396578969e-02 5.146808046455953606e-02 5.224765418705853981e-03 -8.917519828901972201e-02 8.137483397804741447e-02 -1.697908546551871178e-02 8.495783208778438789e-02 2.273548409391343283e-02 3.163925918340073501e-02 1.993245354301308604e-03 -2.336934716396944778e-02 -1.556729545782888427e-02 -8.683965360178265425e-02 4.223769319866447353e-02 -8.057844417884914290e-02 5.895538425162447776e-02 -3.404496874825225367e-02 1.013559301523048600e-01 -8.547217164795589683e-02 8.381968450477926547e-02 -7.422329628666327062e-02 -1.809390129056145241e-02 7.858331279760186194e-02 -5.428677675446718504e-02 -6.955660979838290160e-03 8.299640357338389229e-02 -7.399796924787322393e-03 3.221977827956395719e-03 7.057614202530046454e-02 -1.487782190057983928e-02 -7.728984670633630427e-02 -5.859739105650293989e-02 1.077898471908521859e-02 -7.104733028609731826e-02 1.758018587705264396e-02 -8.135862242144517587e-02 -1.068549055338024190e-01 -9.977472079812545191e-02 3.983370283282917229e-02 7.528753282417724457e-02 -1.359415730683005002e-02 2.009190386711440582e-02 2.664506499264550354e-02 1.024335961727865923e-01 -1.089282030205362406e-01 2.769690484398928260e-02 9.030974951170389620e-02 4.678224471503005660e-02 7.667522361628192895e-02 -5.079827476998687377e-03 -7.570397084517010988e-02 -7.436423569134310851e-02 -3.824066704670183586e-02 -4.094844614790617982e-02 -4.256335888946919527e-03 1.266320202082330156e-02 -7.703995053327697407e-02 4.127274087328980379e-02 8.808347093109639148e-02 6.048961983080130417e-02 -1.062705313370663346e-01 -1.086723511922560725e-01 -9.559462252774746094e-02 -6.420004568852737126e-02 1.501195919810001736e-02 -1.465140282973456318e-02 8.926417522318610964e-02 7.543059458780243531e-02 -7.878020197085205956e-02 8.369469848814255208e-02 7.238169026338932277e-02 -7.440931750259979771e-02 5.448830774020960860e-02 2.405625135876242673e-02 -4.823599581398931024e-02 -4.919870024629720978e-02 6.070245055015802832e-02 8.540288876644470950e-02 -3.635340531454248764e-02 -1.453689229565571610e-02 2.430532768075553685e-02 4.616997731639275321e-02 9.288480343410167317e-02 6.373526150500639746e-03 -3.096101407936091565e-02 4.424581128029910632e-02 5.051896478311448946e-02 -7.025758183904604048e-02 -1.124232867981228290e-01 3.032490123365754256e-02 -9.280660918839800377e-02 6.362495670821428917e-02 -1.156267311085948102e-01 -5.136905610923786503e-02 -7.991798948760519411e-03 7.906642271987963932e-02 -4.076964329130956105e-02 2.996054741658940243e-02 7.998016528740066423e-04 1.657819579060280241e-03 -5.867278498748780546e-02 -3.481592327476508431e-02 -5.530512863448210775e-02 3.463563225888681429e-02 1.426479490623748167e-02 3.339381699160297312e-02 -1.101964569451411137e-03 -6.039754508826597479e-02 1.038623768118295265e-01 3.114727380706062976e-02 -7.794091816009869611e-02 7.187303129153378711e-02 -8.868862419806439190e-02 6.028075561374620500e-02 -1.092702687008646062e-02 -4.678657221780275349e-02 -1.504598329113133667e-02 -6.940731982088234331e-02 5.405789640073218466e-02 2.607853636160688618e-02 6.278637586985209851e-02 9.222357423711166624e-02 1.177399686007762486e-01 -1.630411228341582461e-02 -3.362616415552119320e-02 5.231217839908487710e-02 -9.326104703202992355e-03 4.587215521647945021e-02 8.059515169442543758e-02 1.091616141905483789e-03 8.576206732669722221e-02 5.604932466631443178e-02 5.132321532830363617e-03 6.148000173041585220e-02 1.126302205074786594e-01 5.744951184284258217e-02 1.929409195785509665e-02 -5.618030268858512782e-02 6.902058884462670962e-02 1.027667265783072659e-01 -7.808118844738977382e-02 -2.072333658901621620e-02 9.705209631799345538e-02 -3.318800054325334037e-02 -6.266694101492611968e-02 -6.188777635661524973e-02 6.370068535695881662e-02 -1.206010051010718634e-02 6.567395843356824137e-02 -3.209347237276373443e-02 4.478684388346650808e-02 -4.094254195009587594e-02 -6.046266216856704956e-02 2.303501874727989160e-02 9.128794652656431474e-02 -8.823830369460753179e-03 2.345322471607434733e-02 -8.667774166973973848e-02 -3.457080574960138403e-02 -7.252862612677350718e-02 9.056044522294373622e-02 -2.181083609021449224e-02 -8.125623560459546701e-02 -9.181151519735226973e-02 3.277284901949915896e-02 -8.487839477014194611e-02 4.177635037276539176e-02 -5.539349731747632809e-03 8.900204575849537947e-02 -2.868635645334295312e-02 8.914446139080890730e-02 5.607275862164989161e-02 -5.403273566480019247e-02 3.485879590549390700e-02 2.715742803421454521e-02 -7.849378453988326010e-02 4.822280484301113071e-03 -1.034645470623448832e-01 -5.226951552843295962e-02 -7.347333625790684886e-02 -7.600519024478347152e-02 -2.925400429197888910e-03 1.019739197328963926e-01 8.001893925313139635e-04 -2.426118832509118264e-02 7.483714150261742970e-03 -9.791781981593295631e-03 -6.097275678385791903e-02 7.262968675657122120e-02 -5.265840204497884008e-02 -8.972186214632908718e-02 -5.600097141208994905e-02 4.574524913504354751e-02 -5.816356595270628926e-02 5.316203800838942284e-02 -6.731677143126137131e-02 -8.177037144580677486e-02 1.054619757665842261e-02 -8.229024071256429984e-02 -3.445189632896393690e-03 -5.064733412255115891e-02 7.156640928775220845e-02 5.024534577541418107e-02 7.205892835447111344e-02 -9.359218519114630500e-03 -3.985806119783866230e-02 -6.904966594644550149e-02 6.728264820147754344e-02 7.394260897992468995e-02 6.184832447733634719e-02 3.834881863933190232e-03 -7.172170354499565748e-02 -6.044005817532852737e-02 -1.027261580635154131e-01 6.583064494061319216e-02 -3.028162455419707716e-02 -5.538703762022239435e-02 -9.032072256016086820e-02 8.450736513369579150e-02 -1.606726346129236371e-02 3.620127228708614614e-02 -8.543208607276386868e-02 1.063866998390053248e-01
-7.758934318536174490e-02 7.624028552865924624e-02 1.058686500420785853e-01 -4.455796750713335308e-02 -2.934113617149810421e-02 8.748948200265459219e-02 -3.687820153864528050e-02 7.383915853336650570e-02 5.215838150240697385e-02 -9.357329243207580544e-04 9.365283208814285942e-02 2.755727891972257690e-02 -7.658873700795865158e-02 4.601926291797838603e-02 -8.080644190618195555e-02 -9.368057743673828541e-02 -1.859240911902608137e-02 7.837712834432560005e-02 -1.984582199401977234e-02 5.381256659389188624e-02 4.452390532263719031e-02 9.428429286748821192e-02 5.386086372829609198e-02 5.343579745015089588e-02 -1.834238572063398923e-02 -1.922603507372044884e-02 6.805665096051709273e-02 -1.250668751004684609e-01 3.098440998814270923e-03 -1.118361207551122893e-01 -2.166294421924374811e-02 -2.150246460908183943e-02 -1.033973607723396443e-01 -1.665706529633188826e-02 2.135120054462509923e-02 -7.277112257965753783e-02 5.837090010264016707e-03 -7.977268045364163673e-02 9.179419523375731416e-02 1.649350019753089910e-02 1.784592224885206760e-02 -5.900750203109726699e-03 2.244064104125236339e-02 6.054374875671805767e-02 -5.949479495694498521e-02 8.568414772771271171e-02 1.619003816446813390e-02 7.363394295163069869e-02 7.103205371212692465e-02 -4.237381198299190743e-02 -3.850584636396226640e-02 -7.551505241109079947e-02 -3.479304732938896805e-02 -4.045841258153068387e-02 3.996739970574831463e-02 -6.009242920446148523e-02 -1.183711692238476887e-01 3.202723046546248828e-03 2.699460643887057962e-02 6.749268220608868607e-02 -9.979785949908566434e-02 -6.577376435283341718e-03 5.241159792855516059e-02 -3.977503567610379820e-02 7.527116635400677097e-04 1.767201610860969288e-02 5.197032366140353493e-02 -6.461756437961441168e-02 3.820900268456784571e-02 9.101355938707281212e-02 -1.788210509086922417e-02 -1.019469793765822863e-01 1.577975806445350640e-02 -4.604417694183775278e-02 7.756290018199892000e-02 -4.000486928685732801e-02 6.252382815769436109e-02 5.797787662184845231e-02 -8.830050111251364076e-02 6.695464955685694053e-02 9.515882721687045354e-02 -4.980036914736181083e-03 -2.364345077955965629e-02 -1.697559057116000691e-02 -1.334834791204771165e-02 5.255495329574334101e-02 -3.248117800813551254e-02 -7.570636988563336778e-02 -9.019982032611410794e-02 -2.783651989254814010e-02 8.850813995896522623e-02 -5.740547110275029397e-02 -1.034427365372263263e-01 6.037817151858274750e-02 9.372848139737065265e-02 -1.462619986784611387e-02 -4.178608343132771130e-02 -7.074012525686884656e-02 -8.089726830833707250e-02 -5.885622468758880399e-02 -1.414597875673562211e-02 -1.552862476386172820e-03 -8.883093719764757756e-02 1.860157621903998568e-02 5.801724556756385209e-02 -7.084357781838807044e-02 -2.270460035912747962e-02 1.444062630124045904e-03 -1.281538867008025218e-01 3.394720911810394232e-02 4.988211930953501821e-02 2.100915949103712710e-02 -4.771040007209236683e-02 -5.409582947714428741e-02 7.828335767254883393e-02 2.306711566582694481e-02 -3.493912580207470669e-02 7.628521121629808742e-03 4.413771618687400977e-02 -7.547456826098059013e-02 1.292490472846904818e-02 -8.527721960492901099e-02 -5.843512529659128374e-02 1.657875618794511438e-02 -4.591160633718251866e-02 5.351772351475210521e-02 -1.708151066071104951e-02 -1.220106726065593901e-02 -2.147252504764534525e-02 -1.022708341674307408e-01 9.956371438680193531e-02 -8.420694978291372312e-02 -9.479732287185396733e-02 -4.443526850683672536e-02 -8.860803545570344886e-02 8.495032846968475493e-02 1.874251301513951348e-02 -3.512237390062086101e-02 -3.634862339106975648e-02 -8.964818822712196378e-02 1.351822712212725694e-02 -6.743793479200868579e-02 -8.085079119396874903e-02 -6.705390078141433563e-02 4.561915893543493083e-02 -3.585946567169522731e-02 -8.532047449552648821e-02 4.174973453408264978e-02 -6.265272690255566101e-02 4.272152428306300043e-02 7.578663212805736293e-02 9.610699681846925080e-02 1.052821049681666593e-01 2.411833497548302591e-02 3.691767376718908117e-02 -1.058242399478258877e-01 -6.031539887684285450e-02 6.228938758612138221e-02 -2.382122964595843884e-02 5.013603788745771977e-02 4.009713489333627950e-02 -8.648421698213440423e-02 8.067334730063933923e-02 -1.144330055146922653e-01 6.613986538965493933e-02 5.810566707868682068e-02 7.693011098026066030e-02 1.817205031873873888e-02 2.667751141182614708e-02 -4.432927520946353811e-02 -7.873218942746880444e-02 5.733817742481749774e-02 -1.183085564316367980e-02 -7.226965313749622588e-02 -9.270044747389954987e-02 6.509910060313016389e-02 -3.268978362359684781e-02 -3.314522380867696710e-02 4.904144830021624907e-02 1.040803321198953668e-04 -1.085116904269513849e-01 -2.088393078363269886e-02 -4.573835701643848284e-02 3.833610434339762563e-02 -2.560410512425399451e-02 5.084355017443448199e-02 -6.958984436505556703e-02 7.349610277486091914e-02 -2.260806700811657938e-02 8.460659389337477077e-02 -1.006068519843789921e-01 7.768023024060126402e-02 4.297480956373479766e-02 -5.885962779116464538e-02 -7.529838299242212762e-02 4.295488688580927777e-02 -7.913771659559486193e-02 -7.214803068343132730e-02 -5.329188994211234848e-02 -4.389456821061444441e-02 -5.144740544215910261e-02 5.169343914196163764e-02 -8.691031126769638293e-02 6.447759583303527831e-02 8.375387420403233862e-02 1.012606035928655390e-01 -1.022128348991206276e-01 -1.102293314029958032e-01 1.936607904999297983e-02 -7.959830917901519753e-03 2.447456053936140560e-02 -8.169678559975017407e-02 7.839601723041335346e-02 -3.904374798183850304e-02 -4.595173946813742999e-02 4.708206459601895627e-02 7.997349580640387978e-02 9.023969827797401200e-02 5.697467912994660932e-02 -6.324747709480749158e-02 -5.942318667869816301e-02 6.078913013087366979e-02 5.931749263028480296e-02 6.340599607890709533e-02 -1.038751550858609540e-01 4.063076025513435302e-02 2.728205120647590048e-02 3.744791966688678243e-03 -5.455079842710721348e-03 -1.054314680809817356e-01 5.427025550196604847e-02 2.036589665158666795e-02 6.632921864388872935e-02 -3.623847433463065620e-02 -2.548864414230896103e-02 5.984736759422403657e-02 9.323139515792071633e-03 -1.217834820560271050e-02 6.253984691051629741e-02 -9.654284597225371023e-02 7.677871381885906232e-02 6.466562594679842180e-02 -6.699825435699174880e-02 7.143133143382847383e-02 4.722331370062506778e-02 6.365740001159529704e-02 8.297548417830499790e-02 -3.765191047569273197e-02 -1.036947870773249347e-01 3.989617486613931258e-02 9.579948919509274907e-02 5.022166333754030793e-02 -2.419929343320805296e-02 -6.056327552681921300e-02 5.939191352082801023e-02 6.141180071609855795e-02
1.875441094270365039e-02 8.824012898169244709e-03 7.442320655569002741e-02 -7.392254360910537059e-02 9.074831594846118066e-02 -1.301031443113098316e-03 -5.060084706342786454e-02 1.717315330110910296e-02 -9.930123508479002381e-02 -2.657830230166689095e-02 -8.319299928979335956e-02 7.974668412013487251e-02 6.044538232163664676e-02 5.168377300435002264e-02 -6.657262035123640009e-02 -3.132159992283425898e-02 1.199781522302216658e-01 2.267268485655430516e-02 2.644058425602095058e-02 8.154628870756663872e-02 1.031960434092706186e-01 -4.945702755773324216e-02 2.432029999756908298e-02 1.883711195155460900e-04 1.110424252214287505e-01 -6.462792228749052181e-02 -8.285462121594592416e-03 2.647382181912199747e-02 9.441494497798257057e-02 1.318089104257820221e-01 9.831513033661549994e-02 -9.918998644497913075e-02 6.112722691510160539e-02 -6.022481904896535843e-02 -6.467215631060233005e-02 8.028462580911895075e-02 -1.213798005473777468e-02 -3.115663590296531126e-03 -7.855543336444338609e-02 -5.928581791083400651e-03 3.106944968548159061e-02 -4.564680679003739472e-02 -4.477428014186557448e-02 -4.764289602612216401e-02 8.612998743129053614e-02 -8.862835442403373121e-02 -1.093721458576334127e-01 7.342890430941717561e-02 -3.406015181454054297e-02 -7.347247773118045777e-02 1.041821128126579898e-01 -1.560782268723970301e-02 -1.235756474655645004e-02 2.531388738980771408e-02 -5.051960642561335174e-03 -3.322921825066858098e-02 4.159108816534895503e-02 7.137939331143441923e-03 -5.047875134300511095e-03 3.633216720698657313e-03 -4.960934475344886546e-02 -9.084224030685171536e-02 -3.655485840294867006e-02 9.955273293084329622e-02 2.173414366935335143e-02 -6.433704532012277100e-02 -1.017600465365154638e-01 5.857087332440984867e-02 -6.585997941798447941e-02 -3.951592085986067870e-02 -5.077601067801044976e-02 6.757687556675462393e-02 9.913357902834935009e-02 -7.134329879338983590e-03 1.693799569514880393e-02 6.603004773391693560e-02 -8.128828380169136891e-02 -5.793371838909412014e-02 -1.456355137523599602e-02 -2.278814643191895070e-02 -6.158457238384199006e-02 -6.581627173704424072e-02 1.011296332671364206e-01 -2.574959785251653126e-03 7.010104642237799388e-02 4.183258918361807549e-02 -3.522598664403355645e-02 -8.782532133629444848e-02 -7.459996012265708576e-02 3.820998297084040457e-02 2.440764244376567721e-02 2.149777984246405420e-04 -6.730156316099988878e-02 -3.438867417406971105e-02 -1.798134307962207662e-02 8.609506566346873668e-02 -8.799419617624669454e-02 4.627655542944818234e-02 -9.053237956074607073e-02 -6.842595323172520616e-02 -5.994585180753431858e-02 -1.096547522746546717e-02 8.813064707219945811e-04 5.012057518452709554e-02 4.503653740629882940e-02 4.984816361235307886e-02 1.050910792960390999e-01 1.233198062859195976e-01 -1.436565616065365279e-02 -3.646806669576672238e-02 5.967438584417018160e-02 7.549271452576708508e-02 6.890941264883018724e-02 1.182973148566388716e-01 -7.362542901908351867e-02 -7.416532194837725800e-02 5.815363618820695857e-02 -4.665539971616115139e-02 1.127065726656179857e-02 1.120857241253574443e-01 -3.393697381298783899e-02 -2.649291577758447654e-03 1.963697105261090134e-02 -8.138311703621335658e-02 3.927673399602819057e-04 6.742296197994070150e-02 1.050730684335572790e-01 2.347956713249147939e-02 -6.962380232679966918e-02 -7.854534851238680060e-02 3.816167221994570813e-03 1.291763075402994638e-03 -7.225240263152964137e-02 -4.458117746987916297e-02 -4.681249946737319791e-03 1.215811208162700940e-01 8.591800502376030491e-02 -1.189224410537487869e-02 -1.662169006802841076e-02 1.144515487463538123e-01 5.305227974523042678e-02 5.461608374596724907e-02 -5.378680578562393400e-02 -7.080259253644675954e-02 -5.130289814784471519e-02 3.449938973274627174e-02 -6.959563842924129662e-02 -6.772164868784830150e-02 7.879022007669921057e-02 -5.424507630059662716e-02 -5.590364365598905760e-02 6.921372636481813723e-02 8.913127963540121157e-02 2.965116488648320003e-02 -2.324977083385241193e-03 2.876316438580870868e-02 4.331433372161649226e-02 -4.258001764309723991e-02 -3.262944277990085379e-02 -4.938476254997339887e-02 -4.657134075262136380e-02 -8.630340700319033553e-02 -8.419103718913448220e-02 4.688036803268199465e-02 -3.785173456326060976e-02 9.196569536651497123e-02 4.994922955704424183e-02 -7.067680095388208239e-02 6.882324052351788957e-02 8.524055505890003326e-02 4.137292088326209594e-02 1.138496552540052414e-01 -6.376488908647569287e-02 5.654327081220759249e-02 -3.977001899244041183e-02 -1.060540305802911143e-01 -1.871390315565049298e-02 -8.699758386353419887e-03 -3.064519418461827266e-02 7.937219877986352590e-02 -3.322800083711818092e-02 5.044473663423936632e-02 1.406204607208262902e-01 -4.813078757817084580e-02 9.331211014048437780e-02 6.980246191071784456e-02 -8.064441018366076686e-02 7.963196948603348813e-02 -5.048431212735456086e-02 -2.456504028281149971e-02 6.123929867053988507e-02 -3.267063911308248220e-02 7.553421008563241529e-03 1.964869868079610962e-02 5.762571943866639373e-02 -1.151176469062574481e-01 1.955666001339160381e-02 5.839367360645800198e-02 -6.537726860790039896e-02 4.882698201260225052e-02 8.837747495805310660e-02 6.355865662577156808e-03 -7.720171881209020315e-03 1.212907104530906582e-01 -2.807536119300657954e-02 9.020511028837206735e-02 6.637326594602496743e-02 -1.056953689311705344e-02 -2.463876564717291939e-02 -6.010512529545542632e-02 2.952642303875380181e-02 1.594947537998555459e-02 3.099982758275096617e-02 1.990132907535477683e-02 -8.559373829272554079e-02 -3.775890611028981381e-03 -7.344954575850194678e-02 4.458875922693170124e-02 -7.679954187738644023e-02 -5.568878647680097077e-02 -5.072344486062960178e-02 -2.834127365620272773e-02 4.910548431821312731e-02 3.497260729603403340e-02 -6.074319598124824915e-02 5.866745634545061233e-02 4.564275134932083838e-02 -3.039754205081189944e-02 2.854715091895109608e-02 8.371984091210291079e-02 3.441975449807829074e-02 -8.438394076195174232e-02 2.142362349435105590e-02 1.041038366535763510e-01 -8.111493723605216200e-02 5.711220708029936255e-02 -1.055050820790683769e-02 -8.026511596660887427e-02 4.135975769946501068e-02 7.430770207941764238e-02 3.006323593878557424e-02 7.129487228738357052e-02 2.703812605507632458e-02 2.918492268466755038e-02 -3.893104926522296394e-02 5.766624293304167814e-02 8.687939922569441753e-02 -2.048153290561938872e-02 6.562217789739831220e-02 -6.699520546736928428e-02 4.109839009748622596e-02 1.118790970905604067e-02 4.345058218377667592e-02 1.148089858560285281e-01 -8.104606786319726308e-02 -1.691929660847866709e-02
-3.503537214871289135e-02 -2.297467580880983504e-02 6.367668425520253694e-02 -7.243468669000956150e-02 -4.439402943052200845e-02 -6.261268831434126103e-02 -9.419632960141825773e-02 -1.020749397605479059e-01 -1.998481695879427561e-02 4.443470930880702441e-02 2.753412533076705915e-02 3.431393610433173397e-02 -5.634535459957345366e-02 3.509429546789571974e-02 -1.781403146704514315e-02 -1.116286646196637256e-01 6.104180371617664441e-03 -6.277947431585444160e-02 -2.158578779294141603e-02 3.949105139176726370e-02 -3.676076622622674595e-02 5.477773733450354288e-02 -2.761645582085477113e-02 7.608335902450279187e-02 9.858202359973311513e-03 4.607686289175610267e-02 -4.228417876703455952e-02 -1.288539482952144044e-01 4.478104861748045257e-02 9.056579900029948504e-02 -7.606513554218288960e-03 7.565548325233033278e-02 3.597433082225091200e-02 6.459274226635750016e-02 -6.927254503186093537e-02 2.478263220811465981e-02 -9.837216707838694618e-02 3.229401011283072886e-02 2.671431613649750264e-02 -1.037827629512668298e-01 -4.468491517935502429e-03 -1.205959857511590579e-02 3.652844611165685651e-02 -6.213640997526252707e-02 -5.408827971927628042e-02 -3.933491054789284291e-02 -8.919591307157342247e-03 -9.005744716927889526e-02 -8.779685908395519489e-02 1.038672004507622121e-01 2.515741478757515040e-02 2.097400556635125798e-02 -1.000641443661406949e-01 6.703726990464713154e-02 -5.676030976354661667e-02 1.916334293528992178e-02 -2.362181000210468451e-02 1.622221342616423593e-03 7.799658997666253368e-02 -3.022195975110989960e-02 2.678508302761952592e-02 1.041000679907156667e-01 -5.151431555693160476e-03 -5.371181761746746108e-02 -1.179260493693677636e-03 -2.665357583668771096e-02 1.140710472449684015e-01 -8.719427046928525382e-02 8.061786249797300852e-02 6.858189347871801456e-02 4.981790783931754757e-02 7.283821245353873375e-02 1.391872712264294147e-02 5.616546536025183306e-02 3.666888659071825679e-02 -9.393607818955648781e-02 -1.813457199210605567e-02 -9.218307278872946153e-02 -6.116441646350579200e-03 -1.071626898633546224e-02 -1.685028057594149462e-02 -6.004634119477979259e-02 -2.936806546013099109e-02 -5.707229448265217775e-02 2.625440184090202522e-02 -3.715901036443589652e-03 -4.511266326112889358e-02 -1.295596892325840549e-02 -8.020723981331963348e-02 6.820368991237042711e-02 -6.295237860953858955e-02 3.175273169867605383e-02 4.094518324125906439e-02 5.685441488670670701e-02 9.056440455676152690e-02 -9.836457971579166959e-02 8.534431283352768294e-02 7.622893895518190188e-02 2.301579313550328187e-02 5.037241885861100388e-02 8.086663894585968682e-02 -2.515338498673102760e-02 8.601562742449868348e-02 3.624953969964727490e-02 -5.903537119683302525e-02 5.519438872821171016e-02 6.839103359907278135e-02 2.533242552245700691e-02 5.714342183977601242e-02 7.525733091456900115e-02 8.039108437261820173e-02 8.340686807723292351e-02 -4.491260858967523369e-03 -5.836059963591433419e-02 -4.433150452420070442e-02 6.981948811450142123e-02 -1.770047917382838731e-02 -4.765535669195621743e-02 4.226424871751711249e-02 -2.850730543680756249e-02 -7.368626611423048645e-02 5.417042388339791958e-02 -2.053776456796799557e-02 -9.132160206821966775e-02 5.946779469241486593e-02 9.530893433464696085e-02 5.624433627050812179e-02 -1.014407890061068962e-01 4.663661552528121368e-02 4.725263352427141322e-02 5.485139584150396097e-02 -7.715278940069505986e-02 8.356170462057654902e-02 5.816860101266294047e-02 -8.514859351488134054e-02 -7.465310069813324567e-02 1.398940297659300239e-02 7.141717241748538059e-02 6.456414028410677186e-02 1.085649366627426150e-02 -3.110443020640796599e-02 -7.383337039918484723e-02 6.980650847851249674e-02 -1.153843271458244168e-01 -9.619608229706955171e-02 -2.821080306145149971e-02 3.401340830689201372e-02 -3.691363252805791167e-02 -3.970352252182000191e-02 7.622271170652859806e-02 1.129568118411820726e-01 9.235749195538768899e-03 -7.994592501571962107e-02 -5.680409984220064629e-02 -3.848303875777676908e-02 -1.372514325699870918e-01 5.509121680157064160e-02 1.944026020113761742e-03 6.572423086628634281e-02 4.322973265530691972e-02 1.673328238325525949e-02 5.749073502983070849e-02 7.282551052971487915e-02 7.267756931425062294e-02 4.712525059567738289e-02 -3.617347293321705737e-02 4.101280339077362919e-02 -1.085051871411167324e-01 -1.009002310222346516e-01 -2.441793741834865500e-03 -1.767683880535850585e-02 7.232671773089269229e-02 -1.314954054625269361e-02 -6.331584650989834084e-02 7.388054840888651220e-02 -2.666460360268516419e-02 9.262534898207695766e-02 -3.762026401258031921e-02 -2.623575534323531813e-02 4.583639357325713232e-02 -3.016609807165673146e-02 -8.521960335088248073e-02 -8.640850642601979881e-02 -8.140405075861871509e-02 1.633607393008063013e-02 -8.516708235698253193e-02 8.594873922691880636e-03 -8.632827936937154112e-02 -1.050999905307613974e-02 -1.053773437983767519e-01 -3.262168906348460878e-03 6.186630423838699461e-02 -2.984119566267612322e-02 3.183155746962140764e-02 6.446017382893962089e-02 3.143669177334360715e-02 -2.492540193660407882e-02 5.974574964605498112e-02 5.043732638866874757e-02 8.478768653779958364e-02 8.266573511443197839e-03 5.056491874587953905e-02 -2.320548536777742102e-02 5.476511480004744165e-02 6.306861808797666058e-02 -2.243606354554714567e-03 5.241907495913334519e-02 2.607282867942894294e-02 -8.386519392991451105e-02 -7.576837318774587438e-02 1.063417579654881567e-01 -7.854592212840594279e-02 -8.141172645000291364e-02 7.269939117853636834e-02 9.235769635687883505e-02 2.575850725919494842e-03 8.929497677822555157e-02 -7.853508004284814881e-02 -5.828536869978395707e-02 7.141521023115453282e-02 -4.913073406497873996e-02 6.900557152014888396e-02 9.893709619842472325e-02 5.843154923370218190e-02 -6.127807273169295216e-03 -1.175852430470212540e-01 9.020140182492307479e-02 9.039616137853913325e-02 -1.174081416146040974e-01 -9.445787610159989134e-02 8.068686964446158960e-02 4.816626870314154318e-02 -8.716221124066494963e-02 4.373562261761210213e-02 6.633522574458342036e-02 -3.212068331922780101e-02 1.984129567919320353e-02 5.325601037229203694e-02 -9.155073585214916487e-02 8.763526966376239402e-02 -3.377634364389974636e-02 -9.133247867452524982e-02 8.271303504270374751e-02 -3.013995539924648175e-03 -7.165168229748593298e-02 -4.009856663633418195e-02 -6.645622111579765900e-02 -3.010469829828972196e-02 4.556705952998674897e-02 7.998821116050246205e-02 5.712094758773635095e-02 -8.130837205689880887e-02 1.827600231251547136e-02 -1.329787679515032246e-02 -3.594944359692302249e-02 -5.143965335634902158e-02
5.495894191368566606e-02 -2.481480711875010473e-02 -9.702333196100683052e-03 6.908741329311516135e-04 5.294865350685341171e-02 -6.011745747889070401e-02 4.386691955150700400e-02 -1.007798833539797351e-01 5.333653458204517389e-02 -1.425106443465240643e-03 2.961166080272145673e-02 -6.026141370508894014e-03 5.960288166247295488e-02 8.541324805151555288e-02 -5.506188146345022266e-02 5.964150878322659055e-02 8.709721601030587235e-02 4.462149778058080440e-02 6.443281749341739362e-02 6.315118748717091224e-02 6.894733075878861465e-03 4.413795835384304311e-02 8.711562209162840298e-02 -6.253737696828379211e-02 9.329138256286456654e-02 7.235285510503272621e-02 -6.010729388514930022e-02 -4.977470890467834350e-03 6.449672767524511872e-03 -2.723992024884874102e-02 3.107965934213461137e-02 2.062031140321245182e-02 1.012240525704898725e-01 4.596595750543892855e-02 1.055387389507486673e-01 8.614552900129841817e-02 -1.021887927174068150e-01 -1.008403357999148875e-01 3.645667224309569188e-02 -6.750089141788827296e-02 -4.511279776158790694e-02 4.646785591959689231e-03 -1.044664432519230995e-01 1.645392678771198311e-02 5.035538749974980549e-02 7.398341284703056908e-02 -5.898015116511965555e-02 1.051734276259374268e-01 -1.148399433652994191e-02 9.332602547676981108e-02 8.898794030738062244e-02 8.494806698257948568e-03 2.636789994622262129e-02 -1.144737318809074672e-01 6.435456524824351935e-04 1.001838541266110855e-01 -2.507929455393463278e-02 -1.070360198512672507e-02 -8.276028249056391339e-02 7.952365910139316818e-02 -1.381542661883833800e-04 4.945902813126056355e-03 9.037449721189398655e-02 -6.853162411943997112e-02 9.007926919012987366e-02 -1.725219146794978314e-02 1.785966324945642905e-02 8.992466842964218221e-02 -6.255436585805514149e-02 -7.359140694960020213e-02 3.527790844621057822e-03 -9.052803199740822038e-02 -3.282765427744224751e-02 3.686169864110311334e-02 1.989376625358545495e-02 -7.525197292172755570e-02 -4.135056715752720435e-02 5.431951425393087562e-02 -2.774512069583172716e-02 1.021404842471734797e-01 8.938496043603708086e-02 -1.226426702113579334e-02 2.653669772806980034e-02 -9.040851313675878076e-02 3.208823101222613161e-02 -3.125401772602439537e-02 -1.077872170187599843e-01 -9.376544132501209161e-02 -1.255763984530797704e-02 5.151015731367745293e-02 5.730339397828999870e-02 5.431507419242397744e-02 2.492349512413635435e-02 -2.751580723092324557e-02 5.225655660973554245e-02 4.431493784055788587e-02 4.490712028130766642e-02 -9.994623284132715668e-02 -1.021794803604564664e-02 -7.377497109178514367e-02 2.136681690551587784e-02 -8.925991256428844611e-02 1.028196245503169293e-01 7.563810274155950697e-02 3.527860328487793934e-02 1.054238574286690128e-01 2.078529960961516057e-02 -5.782475954064335982e-02 -7.989747681323318418e-02 -1.788243301436063040e-02 -2.433425137332694346e-02 -2.037112666992883445e-02 -7.179771249852849591e-02 -3.192569953409694905e-02 8.252979069570900994e-02 1.957945241094179167e-02 6.425070525804486843e-02 -6.764347340654432161e-02 9.545658853507947572e-02 1.508490301073958997e-02 9.007024138027132365e-02 1.031958151551842229e-01 -8.145507630039507119e-02 -1.080625190961670840e-01 -3.753917009479824929e-02 -4.086337037038675901e-02 1.582067629058575564e-02 -1.955190678733389337e-02 -4.783407305320712399e-02 4.068099506310815516e-02 7.337233578132973388e-02 7.499570188395542070e-02 -3.233101173032357917e-02 -2.830905781890452957e-02 8.851689540876592210e-02 1.839402867277352763e-02 5.208708169327551374e-02 -6.714053513966533604e-02 4.609423749596390507e-02 -4.369650239360355071e-02 1.616261816613683358e-02 -3.142406175167086757e-02 -8.339054810860839495e-02 5.486307788595425755e-02 3.596920942248579139e-02 -7.963575451641863312e-02 -9.180363483006262482e-02 7.155559371587405515e-02 8.457858711738640289e-02 -1.166401625064969055e-01 -6.408003219110078308e-02 1.042957624108419440e-01 4.822553313454268353e-02 3.732960249195646876e-04 -7.182335390472376069e-02 -2.817980342952506115e-02 -4.834176634770327025e-02 -1.276929705325507806e-02 -1.002147703905928305e-01 1.828278092036206282e-02 -1.032834000383945072e-01 3.932938259235298911e-02 1.062201757554861146e-02 -6.995695646205832285e-02 3.511097909826044194e-02 -1.023770375856445369e-01 -9.165251001568680209e-03 3.872629146702539354e-02 -7.090610980974350330e-02 -1.064181998401823731e-01 6.346549357501832245e-02 5.576680853139809324e-02 -4.637322513682114872e-02 -1.729057685306075592e-02 2.397285008325172190e-02 -5.493608364396717486e-02 1.040697120129277335e-02 5.200360233996685622e-02 -3.836886630035525603e-02 -9.806113132212167238e-02 -1.140535782495405853e-01 -6.010812730735601989e-02 -2.236115705017187316e-02 2.038109496823616029e-02 6.075923205499850904e-02 -5.600005264728376980e-02 7.389243440056983414e-02 -4.562435153883381833e-02 -2.699822789625484082e-02 1.576489453377449834e-02 9.336164663658121088e-02 -7.596531914179531497e-02 8.780885625986864507e-02 7.368224768512041112e-02 1.752463194894802317e-02 6.388313100902889841e-02 8.519876277578475321e-02 -1.442191356785675095e-02 -3.167869041868515145e-02 9.179675773341931799e-02 -4.506037685193559766e-02 -4.198983621471966132e-02 9.498237375598353460e-02 5.075459416469999159e-03 -7.913493703365234722e-02 -2.868809002619939277e-02 -7.891599517745698233e-02 -9.888004465910577023e-02 7.773112863860154320e-02 2.795429245296625342e-02 -1.413837365820701589e-02 1.380553977083180499e-02 5.228739051273759847e-02 -6.821558034897850370e-03 -1.541619259207965657e-02 3.047210352297831815e-03 -3.693224155967447103e-02 9.568674324011994248e-02 -5.138911245865730032e-03 -4.863469614815144754e-02 -8.669392399494986468e-02 -3.435369489007564225e-02 9.826319521052413741e-02 -8.687535231808726777e-02 -8.522487214012244849e-02 -4.881570564473518975e-02 6.851756432206999869e-02 1.411565342620903045e-02 4.165210230719902651e-02 8.607901828686377599e-02 -8.190130501787457051e-02 -7.939948851858964762e-02 -6.506199250662240974e-02 -1.026569495339564771e-02 9.368215726945698651e-02 3.720434327031340443e-02 -3.449303957346804613e-03 1.446592092449408909e-02 -5.949953403084713710e-02 -8.762293894978517850e-02 -1.082538549438561148e-01 5.081942377627776675e-02 -5.269913475490378002e-02 -6.934757482362113867e-02 3.309801201477462207e-02 6.870090722180484388e-02 -4.447560734277086758e-02 4.370524439233883229e-02 -1.055230173860127324e-01 3.613319366149303491e-02 -9.051735482382211595e-02 3.957068974199421524e-02 -3.913613978754233724e-02 -7.040954376976986395e-02 4.648633646296526645e-02 4.501066096336292510e-02
5.850765550120594349e-02 9.539450957014265764e-02 -2.077104886112193100e-02 -3.564724511356894693e-02 4.850772900254252118e-02 -7.354159585859197656e-02 2.769660007891069226e-02 3.413456751293827973e-03 5.806306022290896873e-02 -1.626179980519458501e-02 7.066435016406209801e-02 1.062817531963157480e-01 -1.106703070099613190e-01 -1.145221858435828150e-03 4.585914766933569392e-02 -5.320869452368882924e-02 3.530044573920536333e-02 -6.895450127702688892e-02 -7.562865245713611129e-02 -7.534043227125525322e-02 1.067631117729398865e-01 -9.727510113401709180e-02 2.671815803467457451e-02 -8.795321418259091639e-02 1.434196521297654778e-02 6.436327583583334455e-02 2.306350072935924381e-02 -4.630567963563522738e-02 2.610326685715764344e-02 3.182548624495101786e-02 -6.277416604997768101e-02 -3.045202854451266664e-02 -7.522795573096154043e-02 3.993774016151319800e-02 9.877464706678346085e-02 -4.086891504205178438e-02 1.871516035799447239e-02 5.515434044171797778e-02 -1.061884605616291583e-01 8.445609785507136869e-02 3.669681611030792961e-02 9.542007831489317249e-02 -9.258759087555026857e-02 5.732025612731311143e-02 7.261792690783390458e-02 1.104989889516095301e-02 -2.916249339190285766e-03 8.468310471685670804e-02 -5.926085352231724029e-02 -1.165440340896975457e-02 -9.420339900018594170e-02 -2.389389019817722212e-02 9.688522639261266944e-03 1.788626513142371754e-02 -1.720815535727966694e-02 2.097596389288271940e-02 4.488995096323698114e-02 5.425711078804328763e-02 -4.244552112431315520e-03 3.689487494626011305e-02 -4.646338275427051162e-02 -8.965628212850015877e-02 -7.292083175043263810e-02 -7.036799382862873875e-02 -9.063141981634328936e-02 -8.808243706942667228e-02 1.083537797968520816e-01 -7.280811945003029528e-02 3.308186296323589650e-03 7.129016460991981219e-02 9.474672191833348467e-02 3.572334014617616765e-02 8.796060444295138170e-02 5.044374287298906967e-02 -6.276373646406555040e-02 7.309432791100281546e-02 -1.038075680662157857e-01 -6.787479238023938488e-02 -1.097357127278043160e-01 1.027208842681889001e-01 1.025122305823872176e-01 -2.607879286702507668e-02 8.144594487456388587e-02 7.094784616609016437e-02 -1.008275538770985746e-01 -8.012386962312241512e-02 -3.316285617258332014e-02 -7.030044453640148239e-02 6.443546904353582294e-02 -6.312780884273247461e-02 -4.587332578985348769e-02 8.309756186881628315e-02 7.324394147853710568e-02 -7.422156756797059982e-03 4.095487459183653339e-02 -2.233843145341955425e-02 -1.001473235385707539e-01 4.703354716100938138e-02 8.326227495849568283e-02 -6.784294672969651274e-02 1.008844227569238583e-01 4.824208590225920884e-02 8.338882619801426263e-04 8.085358177819251813e-02 1.609916021635530992e-02 -2.655549056974885330e-02 1.010276904774020518e-01 -9.668282294287583456e-02 -3.841400363781468513e-02 -9.804866851373716941e-03 9.098491900389069076e-02 -2.679508446000971808e-02 1.260741614574214381e-02 6.891305170483660869e-02 2.959162356799724738e-02 -8.652950370008047343e-02 1.525826641374238533e-02 -9.872788522766773323e-02 -1.566870764232420775e-03 -2.929643023837168528e-02 5.283588754675881335e-03 -9.426858082529360194e-02 2.665549337881023551e-02 -4.188184821851206191e-02 4.388106995821395434e-02 -2.759889897346172374e-03 -9.405344592082406918e-02 1.076662861901865054e-01 3.244723547818210985e-02 5.013859422296054746e-02 6.826939813945660795e-02 -6.334693409152690469e-02 -1.693794009255985417e-02 1.931018222317097341e-02 4.610136524048293050e-02 6.697905529293640692e-02 -1.866105953466199938e-02 -6.298210793545074015e-02 4.845099173582002178e-02 -1.026814905218419033e-01 2.196039513867914517e-02 7.599765082236252176e-03 5.050350116543222273e-02 -2.000034083453850961e-02 -9.496974944258126591e-03 -4.934047540410665955e-02 6.421406062044598961e-02 -9.553375111774708994e-02 -1.681616866676788856e-03 -1.070292443818279260e-01 -9.469290733877196165e-02 -2.042598759700501448e-02 -3.363180516573201911e-02 9.012102307520204747e-02 7.957337696887784029e-02 -9.686970631275267085e-02 2.826091990191998207e-02 3.783161614020209146e-02 5.596667695689726274e-02 4.661232736584852016e-02 2.576517698843445742e-03 2.689184528060514431e-02 -6.072714720422273116e-02 9.367545627005711972e-02 -6.875423383415417422e-02 3.284557982318800362e-02 -4.752977759457201884e-02 5.226222935813595177e-02 -3.409776970668057516e-02 8.025025920048227401e-02 2.354630442381243707e-02 8.020282747139570456e-02 -7.479550859041135535e-02 1.984600166726048151e-02 2.940911504411220997e-02 1.714525851472750717e-02 -4.803791799591025646e-02 -7.151475002235414130e-03 1.941552980251753935e-02 -4.137942820592793725e-03 -4.108544282049318014e-02 -7.535425912245770352e-02 4.396921488609810413e-02 -6.220666170945843287e-02 -6.702984414556664716e-02 -1.056353294216472449e-01 1.230045474889119445e-02 -1.942301761697797294e-02 -7.208806604798388348e-03 3.098005891636842687e-02 6.802364587292266881e-03 -5.010725175929366115e-02 -3.824491470653297327e-04 1.049084781669707006e-01 4.232079914893882577e-02 -5.447649549036091138e-02 -2.008188702260308225e-02 2.828645065014915444e-02 1.041363127570964870e-03 -6.791267994052845036e-02 4.968474275297234816e-02 4.129842959806059866e-02 8.726522403913938852e-02 -1.035877735218321272e-02 -1.067960360193729308e-01 -7.584162697257669505e-02 -1.066164903390736662e-01 -9.714584794521904931e-02 -1.076264327224782519e-01 6.517247907348538982e-02 9.637901160473578976e-02 6.703456002801277958e-02 -9.806190209355282461e-02 3.278020407960664795e-02 -5.937782104337049199e-02 -1.672786303574626959e-02 -1.721725975724324592e-02 2.669393323939246374e-02 6.355951859340128185e-02 -9.238725002479057646e-02 -4.388399626063102521e-02 -1.236414405095147794e-02 -7.512758611610140247e-02 1.828593455928267594e-02 2.848618105059721323e-02 -1.471630778185385735e-02 -1.058423884287678640e-01 -2.465619855818490871e-02 2.530492129986641314e-03 -9.316173614744582832e-02 2.689787029552291250e-02 3.969620231102872349e-02 -1.053367896273419424e-01 6.494813932442312920e-02 -5.930282455620536353e-02 8.841644539515353118e-02 -1.802881443550134397e-02 7.661424407230425782e-02 -1.676871805510553315e-02 2.820546950483247394e-03 3.303114699805207582e-02 5.596570703637866739e-02 -9.712733679481100335e-02 3.004242293129820787e-02 -7.540175126428992625e-02 1.003588318248818945e-01 -4.288176645792911995e-02 6.461593085774368361e-02 1.021800822838266343e-01 -5.093986657655978634e-02 3.730135008269154506e-02 -6.556479235371903691e-02 7.063258691165165415e-02 -3.534614721127872505e-02 -7.534419739552090933e-02 -6.065189499270117607e-02
8.522993142574849038e-03 -1.618375733286093673e-02 -3.790123818111131027e-02 -2.457530001939723860e-02 8.490255325808240827e-02 7.659702556116158856e-02 -7.684291506360800550e-02 2.878255574052992344e-02 -6.943963713457582988e-03 9.987084132538871784e-02 4.046137219859031325e-02 -4.913701972766149235e-03 -5.541938269364271585e-02 5.245245647442626363e-03 -2.478916190790089041e-02 4.876991154505949493e-03 2.982797067256834009e-02 -5.795589269085390377e-02 4.559647815130627585e-02 3.578363953450919288e-02 -7.032096147560509825e-02 5.833652489362274596e-02 -1.054535902996200057e-02 9.586696340816031059e-02 -4.737279898560817909e-02 3.840043972100377900e-02 -6.061777093712269332e-02 -3.984360940040130444e-02 6.751882296946629114e-02 -6.465653819783571954e-02 -5.576275407087389474e-02 1.086084105241158504e-01 -1.301485428092089003e-02 7.668872646868098164e-02 1.455470266323272144e-02 -8.963754776320725925e-02 -3.576356231244134671e-03 -1.109295020454131309e-01 1.128868903117267453e-01 -4.167684157928239902e-02 -2.593708733264778535e-02 4.422927682806086780e-02 6.445432828680873472e-02 4.259540802332428128e-02 4.374094255871719544e-02 6.692693785670949733e-03 -2.788585235402005549e-02 -7.194062476945189272e-03 -4.405609948923592048e-03 -5.515976151091026708e-02 6.904883336191888765e-02 5.880619338150026854e-02 1.517464121793475965e-02 9.188248274800338289e-02 1.326932407889094313e-02 2.647678964023796391e-02 -6.101406994897387581e-02 -8.443046192488078139e-02 1.236055092226751029e-02 8.329612514916537314e-02 -1.267935859939934851e-01 6.539145329249979044e-02 -3.267175195294371587e-02 4.097405719127425461e-02 9.220889064965827331e-02 -1.081229017316353777e-02 8.458796581885728860e-02 8.623526788688025413e-02 3.939677273103114191e-02 2.407295176354916995e-04 -3.944038681862981760e-02 3.185215329801152455e-03 -6.238223073545495420e-03 -6.352485402181888563e-02 -5.438121616392171953e-02 9.945459401652444187e-02 5.674168659994015956e-02 -1.136796758736039747e-01 -3.687236158674898207e-02 2.228780449931794597e-02 -5.221314717918290604e-02 -1.804261716793938500e-02 -8.068973549968042058e-02 6.055802123687704930e-02 5.159891772686504147e-02 7.217299234231241978e-02 7.625672756015191428e-03 9.526924039391902743e-02 -7.287397398516171076e-02 -7.013911243068511603e-02 4.453744591447972995e-02 -7.157944719287799573e-02 -8.970252719619089751e-03 4.408996162719482081e-02 -8.244938430096121484e-02 -2.245189591300694384e-02 7.219802069231003039e-02 -6.628121123255187146e-03 -4.931631707123858288e-02 -2.871294450924627775e-02 -2.988948650203380672e-02 3.321706403101412630e-02 -2.574089256658743455e-02 -3.511250674891210066e-02 -9.852856708643980416e-03 -4.331041347045407053e-02 -1.071110338281136276e-01 -8.757056276645924786e-02 -8.030727354370640562e-04 -6.151841243316527597e-02 4.489894387609533882e-02 7.330902627999857923e-02 -7.302519215140404474e-02 4.174731971563110447e-03 -6.949097225826139645e-02 7.015169223621382788e-02 3.228341862093512399e-02 1.081877306452982100e-03 9.795578658585350762e-02 -1.331912246020575119e-02 -5.415582749841604121e-02 -1.131564489946859479e-02 8.463439204324994802e-02 2.344628367430937055e-02 -7.895049719024641033e-02 -7.501443118408940292e-02 6.372313984000477216e-02 -5.907376586069818664e-02 -5.213880312617669155e-02 -2.066524479635532818e-03 -1.009942544626174360e-01 -4.141370946168885375e-02 1.046570491448061274e-01 -1.045392338409889682e-01 -3.239875272619668900e-02 3.728605602200982944e-02 4.820253537948925027e-02 -8.529381596284748082e-03 6.830788892967952497e-02 2.238142890715578981e-02 9.282677357673881080e-02 -6.836509311425927049e-02 6.100699459164106442e-02 2.361458058840847866e-03 -3.380842349441554734e-02 1.716638683097316403e-02 -7.033420760856846921e-02 -1.804873192168219773e-02 8.291755914891019152e-02 -1.040458613395939952e-02 -2.087399038685851596e-02 -6.944734918237360777e-02 2.700127749756994853e-03 -4.146052975807129615e-02 3.331520266362724553e-02 -1.981797156773228499e-02 -5.110976197621840827e-02 -1.175865928713872369e-02 4.102278511180805498e-02 7.039892782424017614e-02 1.250682560221054174e-01 -1.117090694685311802e-01 -7.525540627119375880e-02 -8.467795499674139748e-02 -5.771458837020718852e-02 -1.075056763705532631e-01 -9.027891059448528432e-02 -8.403251436585892908e-02 -6.841301144601859285e-02 -1.044810368852267662e-01 5.455884106006031464e-02 -1.352659935569567283e-02 8.924631403127875062e-02 9.099563319322648280e-02 -3.098817301986707753e-02 1.253398947266795918e-02 -8.804989527436939134e-02 -4.471453674244478538e-02 1.757850209957797019e-02 9.296157027361771907e-02 2.601686437636200472e-02 -1.101772748847165140e-01 -6.838498785753757692e-02 9.854838004563178100e-02 9.323197145180371626e-02 5.381438060491434971e-02 -3.463383226592275932e-02 4.992636525429305222e-02 -1.022127097383025013e-01 -3.250204338239012780e-02 9.748507581389274923e-02 -5.035632347605521753e-02 -4.409783806846066800e-02 -1.187463017059340181e-01 2.239303613368699708e-02 3.629191767077782210e-02 4.288356938245113659e-02 -8.661256757593621680e-02 5.784170975042531027e-02 8.951711354669468490e-02 -9.435640962900833373e-02 -4.236020543103424102e-02 -2.656197230329531908e-02 9.917876880849217647e-02 6.789670913656289941e-02 -1.248418345460184792e-01 -7.776261030506079197e-02 9.479289772513836698e-02 5.061285069302954437e-02 -1.996864126465754813e-02 -1.375979639384899283e-02 9.809813961004203164e-02 9.357160687665698473e-02 -7.179014870479111243e-02 7.756066958733576211e-02 -7.026684819209097488e-02 3.320834286750381364e-02 2.272857068467642235e-03 8.483204240111134886e-02 -8.463863047493028896e-03 -8.760287341093427049e-02 -1.255506670828486146e-02 2.946627732638673614e-02 8.413536183012527980e-02 3.667458861920219748e-02 5.454908956474247700e-02 5.722252792657524928e-02 3.779806881114697314e-02 -4.688778202636002118e-02 -3.935470443680921110e-02 9.322400982128864477e-02 9.403202566506888016e-02 6.338798941669800818e-03 -1.053656014440411959e-01 -3.605458914052302177e-02 4.139678493466317916e-02 5.942960837777139932e-03 -8.453285341191725533e-02 -1.023604454382034783e-02 2.145843968649778152e-03 3.231203081585911491e-02 -9.660702968804993351e-02 -1.424115208371244494e-02 -1.116158656576272945e-01 -7.307137742137397030e-02 -1.224316078128161005e-02 8.450911866610164025e-02 4.060911651886561086e-02 9.626534150490270725e-02 -1.204687377253247788e-01 4.241595613284645377e-02 5.017946802608080209e-02 -3.835688206711933279e-02 -9.232530002303697414e-02 -4.046945066639349997e-03 1.389584896147433128e-02
5.582974573073833796e-02 3.378453313235422421e-03 -8.198498756575299182e-03 -3.912598206506119614e-02 -8.094690856430501735e-02 -1.002567137608974257e-01 3.341832436117000288e-02 1.162393815548983383e-01 5.259261487958744735e-02 -8.354267324417312748e-03 -2.345304810768781070e-02 -4.087543449018985614e-02 -4.040595270036972941e-02 4.631677473533723360e-02 -5.905748513664378641e-02 3.485634427287363779e-02 -5.093590087707660502e-02 1.456939238763982347e-02 -7.300273996825032419e-02 1.406368283147561848e-02 2.199069682641529785e-02 9.601278062113641210e-02 6.993885374652759586e-05 1.276484306652058143e-01 5.004404698864059475e-02 -3.503106813087585730e-02 -4.862155536962568803e-02 -2.628960013408603719e-02 9.039666146897183674e-02 -3.247378573569668914e-02 -9.641540385827984672e-02 1.155448564249704629e-01 2.957208967599644911e-02 -6.697236681296883654e-02 1.297805446880116731e-02 3.917335147207905849e-02 -2.626889472071742074e-02 -5.346438871070394172e-02 7.070979063335045001e-02 6.483727698406419049e-02 2.485285563732640007e-02 8.518513277273925821e-02 -1.678605867458339909e-02 -4.818482919881648258e-02 -4.884274005443870609e-02 -2.471360945935262114e-03 1.674762377492605009e-02 3.501888000031840031e-02 -7.442287691501427854e-03 -7.818931035268282537e-03 2.574236354330244978e-03 6.516644481857311599e-02 -1.057161575734477943e-01 -5.061208682668347919e-02 -4.955136563143668765e-02 5.275946128989397049e-02 1.423285800567100357e-01 -3.582496274384586177e-02 1.088414127558534339e-01 7.579652812374694515e-03 -9.197768141652669024e-03 -1.122826130066511066e-02 8.242555123695517738e-02 6.434650980516994079e-02 3.605305356434082564e-02 -6.634505919107104577e-02 -8.510097331038474211e-02 -8.750154991909395163e-02 -2.575010149883986618e-02 -6.630467289180079493e-02 -2.486056253215286962e-02 8.170525913913040394e-02 -8.065362179415390409e-02 -4.059137943085613064e-03 -5.351071181488999129e-02 5.329501012661638087e-02 2.628041527323289953e-02 4.218374315921663564e-02 9.327125249427132073e-03 3.414241296293292461e-04 6.925350620064311957e-02 -9.372228353085591823e-02 4.181949563740443992e-02 -9.513211710787428110e-02 6.016085572324118662e-03 2.544541424952479619e-02 -3.006611992998928576e-02 -7.796825946319535516e-02 -5.961686988853443642e-02 7.547073529295381111e-02 -6.504853161998513933e-02 8.828195037222884289e-02 -8.039927540283581253e-02 1.516329345368107491e-02 -6.746254289055582387e-02 -8.798400519895678562e-02 5.841401161009335263e-02 2.030960189860253270e-02 -3.964261454681994312e-02 7.517168822566661079e-02 -1.013677361583166653e-01 2.763908419073554668e-02 8.116747761855358859e-03 -4.446718933177232908e-02 2.199679872371528011e-02 -1.155110177595959214e-01 -2.452197404874018397e-02 5.519638297175903652e-02 -5.446496867073410963e-02 -5.300898132583222594e-02 -2.660203096924551591e-02 8.792053087611544082e-02 4.675868361125897973e-03 5.471896363812334824e-02 -8.623439694470999561e-02 -6.858377628869248566e-02 9.028239307044490236e-02 -7.814799263910703064e-02 5.581102382100489034e-02 1.154183082440558283e-01 3.501656655234402366e-02 -3.251051934815768485e-02 2.294509549299712445e-02 6.622745127276481736e-02 1.963501214444003315e-02 -8.812983461951362507e-02 -8.294034145022247118e-02 1.048848522169624868e-02 5.471959720610445471e-02 -7.368665785022267267e-02 7.816019790323053273e-02 -8.385171218739374821e-02 -3.376119362444975763e-02 2.076154481279130978e-02 6.751583051643356148e-02 4.276035525320406872e-02 -1.020527356154325993e-01 2.363936845208939111e-02 -6.899736164835014451e-02 1.130857985659596276e-01 4.465620791108161625e-02 -3.195717730185837491e-02 1.170767379952589171e-01 4.672688458252286653e-02 -9.101493259938364666e-02 3.176131212333768022e-02 8.101631918301495372e-02 -4.841435302323110479e-02 3.278968581240462865e-02 -6.756871201543165895e-02 9.379082038746176797e-02 6.251287083065078243e-02 6.241377358339163239e-02 -7.937222090150290732e-02 5.392234066426106892e-02 -4.393151051347826686e-02 5.465078779529843750e-02 1.513034057831616833e-02 -2.460926706060931682e-02 2.003379713248558749e-02 2.161927801076062375e-02 -6.116496749110057751e-02 2.830757791802633941e-02 -7.643688685995572024e-03 9.142234367342515211e-02 1.009919648286719818e-01 -1.334583441788317164e-02 4.210180558691632019e-02 5.299151764546217343e-03 -9.437574170723114775e-02 -8.322855187295155610e-02 1.271409169449579102e-01 7.798800929279371685e-02 -5.873781047006126216e-02 -5.357208133872389325e-03 5.749047055155129954e-02 4.733578639396442134e-02 -4.094150590292203878e-02 1.069022339510232039e-01 -1.653107896625292256e-03 1.055825733931871624e-01 -4.914610378935010959e-02 1.468940030832972254e-01 -8.451332913733400343e-02 5.459885091384349132e-03 2.280206494557798086e-02 -7.748777794358142901e-02 1.203946597827105502e-01 3.462742148851497698e-02 5.947188419408449417e-02 9.685444013377299266e-02 -6.921750907161244859e-02 6.512947214589953626e-02 1.125449676731157811e-02 -5.465024407495721465e-02 -5.109657783569953454e-02 -1.719384484787650144e-02 1.392518082911105640e-03 9.176289583585637080e-04 -3.630852807867893106e-02 -5.172157822986896136e-02 4.763328057431894663e-02 -9.866330159188189952e-02 1.095914107801820858e-01 -5.277665805454696130e-02 -3.147448166395961505e-02 -5.245265159289264068e-02 -8.509252901173740280e-02 8.777770143089987098e-02 -6.511630569804192914e-02 6.351319252013865047e-02 -6.915984523695584141e-02 3.657259513369569975e-02 -6.513079067700874858e-02 -2.209262889550208872e-02 1.069146982847274802e-01 9.016156693009666490e-02 -5.943753956468611488e-02 7.985042052038089644e-02 -5.236220266270971008e-02 7.729048626236143969e-04 -7.082283047844424584e-02 3.701529475101558719e-02 8.611924103700924205e-02 2.948605363653979822e-02 -2.473860406580504281e-02 7.632902817319560385e-02 2.382199498999551870e-02 3.156215622784617342e-02 -1.114171853007799168e-01 1.284868478347339360e-01 6.252245617716642445e-02 -1.178000397423484280e-01 -7.515463645470496501e-02 -4.631982445080572858e-02 1.045291193366678154e-02 1.337523164729246053e-02 -1.499301869073827245e-02 4.135835792005362194e-02 5.257158140683389474e-04 -4.076264491117875810e-02 -1.733944507867353838e-02 1.006165724404251699e-02 2.068894520558304737e-02 7.238301193669027800e-03 -7.087182742690777137e-02 9.182431203394912644e-02 -4.064935145964739677e-02 -3.525725298288717030e-02 -6.842151644031441160e-02 5.948584330346017718e-02 -2.126237947515710255e-02 -6.679699938091378242e-02 -6.807100205505707546e-02 2.060952531475183577e-02 5.444178880707059576e-02
1.406361727424628241e-02 -1.629052482712674277e-02 7.241059212696544789e-02 -4.265131918304392034e-02 1.162348320937332813e-02 -4.121423973757627757e-02 -7.158803955574868927e-02 6.247989874892659334e-02 2.038987820894097580e-02 9.464397426011300629e-02 4.446008909970333711e-02 -1.123225294961538168e-01 -1.181879612655807321e-01 9.110697951999441324e-02 1.735356320750789522e-02 -9.201974087570903571e-03 9.901131871979834340e-03 -3.975438415985634716e-02 1.042750831107465137e-01 8.292577484866832382e-02 1.083037341559614231e-01 -9.933423759236327533e-02 5.177583643291674975e-02 -1.198653904448161583e-01 5.907078936948801165e-03 -2.130656201959876817e-02 -3.265389900935578016e-02 2.189045895573863559e-02 -1.458774557620560498e-02 1.743932406670754137e-02 8.574623282716298256e-02 7.113552205353627922e-02 -8.812329683174424666e-02 5.156135144893366634e-02 1.389552460046748206e-01 -4.318769694075436094e-02 -7.818980860927308985e-02 -7.341847276720359083e-02 3.303115388425983262e-02 -2.717305092612583295e-02 5.395474534549165452e-02 -4.720570724497910597e-02 1.663942014056607119e-02 -9.432016504441496918e-03 -6.904429118258549603e-02 -6.610586544323706661e-03 -5.549547811817347881e-02 -1.151351545299652002e-01 1.667017933569822294e-02 -3.792824461472262682e-02 2.366555562803357438e-02 -6.224444386642209032e-02 2.903193263856488140e-02 2.740041161853376539e-02 -5.783608090772840611e-03 -4.004383540203765302e-02 -3.504161541815613984e-02 -5.094765559511788694e-02 8.523062114206345075e-02 4.250128971164169461e-02 2.633711717566165726e-03 2.934282551329973551e-02 -2.449466916870623231e-03 7.370398988705886834e-02 -4.289542369924842502e-02 8.887516622865899996e-02 -9.040078449103565103e-03 1.026890004895747582e-01 5.510729350453200809e-02 -2.034127103186328736e-02 -6.744763634410377851e-02 3.524029553538624016e-02 2.346601754837512183e-02 -1.453024482190467918e-03 -1.245759649196155616e-02 8.944232430603207828e-02 8.589743456168823232e-02 -1.142014837141277633e-01 7.476015512289012344e-02 -5.082106701774695423e-02 -7.362799250702568854e-02 7.933763058120027814e-03 8.424008851256048480e-02 -3.677705184208963918e-02 -4.131002437820012474e-02 9.989821548792307548e-02 -8.414191034154143434e-02 -9.068896260948136612e-02 7.195328550478838348e-02 -7.334686641761901937e-02 -4.680955078378403605e-02 -6.617981547691507982e-02 -7.206715881609138813e-03 -2.417185618762551780e-02 4.984768033655423425e-02 2.066847138521651570e-02 -9.880254496476847947e-02 4.772221070751024585e-02 2.766547872529937641e-02 2.220563098035760463e-02 -7.935340259642325797e-03 -9.152522507818088016e-02 -8.748195197973530901e-02 2.146147640071134491e-04 -3.968997483186498948e-02 -7.873906588343920418e-03 1.012887533326119471e-01 -1.334143400139475334e-02 3.014591664456084744e-02 1.806707264644036304e-02 6.199799163861276913e-02 -9.361846354668985903e-02 4.863726332359954302e-02 8.972473176400642958e-02 1.084032462545270539e-02 -7.580153925849311691e-02 2.457525081080150567e-02 7.763732290834322869e-02 -2.552165754803317754e-02 9.186613225391474305e-03 -3.433311832139613468e-02 -2.700717084073113797e-02 -8.710093534283144812e-02 -2.001342507613777452e-02 -1.010342482034010392e-01 1.150234581340475737e-01 2.544746733493111895e-02 -6.599411648844145939e-02 -4.949236692617850486e-02 -4.992525721154655871e-02 6.500567973527154875e-02 -1.926007360819452507e-02 8.070983719858834671e-02 -5.494698196355804129e-03 3.187322705470385653e-02 1.152293864207065699e-02 -2.274065224597277002e-02 1.036804648897080433e-01 -1.031167289457576158e-02 -1.083030759825898415e-01 -1.259911505871800230e-01 9.421776371339506129e-02 4.391839976353468372e-02 -8.592513929789970251e-02 5.087670775079344149e-02 8.731443801389510151e-02 8.022234836404762426e-02 -9.572187763908829305e-02 1.138864272825406559e-02 2.883898201517462109e-02 -1.569726266334216594e-02 -1.074796310040223718e-01 -5.438420500998441404e-02 -5.968327745057313422e-02 -9.599905046006612652e-02 -3.026850789660629273e-02 1.041858804667442212e-01 7.662025242304962291e-02 -8.994182477570018819e-02 8.418248138962305949e-02 -5.056184669597319631e-02 -2.641953987004494811e-02 -7.264734169859798918e-02 -3.729185875976314540e-02 1.148947167914706087e-02 -3.258069789136808572e-03 1.024543395616072800e-01 -5.600901238901761364e-02 -7.651234065772898052e-02 3.778222324791667697e-02 -6.750132369310965497e-02 2.301311549650701324e-02 -4.655483942330795183e-02 1.139429054698388871e-01 -9.882088144735423976e-04 8.015811829999466148e-03 1.929981013214655816e-02 5.970303275424795192e-02 1.048985995307578738e-02 9.444830057134057100e-02 6.160671796800106306e-03 -5.288989630234902650e-02 -3.833122959255234885e-02 7.507581251990720628e-02 -8.111531417741642269e-02 -6.278669105805330386e-02 2.429291705688441105e-02 -9.154573130602873532e-02 -4.737718236467312015e-03 1.519769592852949526e-02 -8.960629203748300686e-02 -1.261674136089870925e-02 -2.408886624563731649e-02 8.988423492568305140e-02 9.636838299831589072e-02 -4.678984603702466410e-02 -8.530192438381980699e-03 9.987723348392384126e-02 -1.594643007645589125e-02 -6.662328514883691932e-02 -6.252659589863124312e-02 2.836580989720851112e-02 4.345820044527168302e-02 -1.964681977522976519e-02 -7.638497970018330585e-02 -8.140638801163704863e-02 -9.670906313042626490e-02 8.570336157930348933e-03 -5.662136355489041928e-02 4.761546756131293176e-03 3.272373271694690999e-02 2.364801896169370019e-02 -6.477678494124738257e-03 5.565800301983479109e-03 1.182166648131065673e-01 5.616404526188369800e-02 1.490673386864473440e-02 2.592867044270495344e-02 9.369946636240962523e-02 3.187440259030568240e-02 -6.218274919555090430e-02 4.829683561359616323e-02 -4.817278207955036362e-02 1.003756356951463792e-02 2.056895081230817462e-02 2.097047514466657617e-02 9.541883804006932868e-02 -3.194683535595572998e-02 1.932154524327990217e-02 1.029715080312989667e-01 -1.584782223047946290e-02 -1.435977828619711683e-01 -5.813133211589556482e-02 3.584935511294185667e-02 1.227499896212124429e-02 -1.087797863459539355e-01 -8.275787720436450501e-02 -8.559004692794357216e-02 8.895483752490647433e-02 -7.419382157404413869e-02 1.995205944870304289e-03 3.704761844479399768e-02 8.669992070959278707e-02 -7.803887622245761664e-03 -5.231437210940655808e-02 3.914565681567817867e-02 5.612364259439753950e-02 -4.543500345233568438e-02 1.123858726062227087e-01 -8.513271892372990812e-02 5.333702210140622152e-02 -8.827142491964219684e-02 -3.494306170047628730e-03 3.551940877085334181e-02 -6.827100602048331857e-02 7.248466930246501294e-02
6.315885400013351858e-02 -7.090999285000505747e-02 1.046494087051012406e-01 -2.372062016701192294e-02 5.274497502762879458e-03 -3.275740293113182239e-02 4.576176565484074005e-02 -8.158846942900711829e-02 -8.149134369557865798e-02 5.918340481660581270e-02 -9.851881114258530248e-02 7.109447227338204500e-02 2.157333912204699097e-02 -7.630184599059113004e-02 2.849662418930575675e-02 5.355108378329875591e-04 -4.412140336781655153e-02 -9.689307162278451568e-02 -9.128728854813054905e-02 9.247681918750638719e-02 2.587174012261118580e-03 -1.084130744391995776e-02 -5.733071949703015535e-02 -1.117738987591699873e-01 8.036513526674457508e-02 6.109607376196746903e-02 -4.683408521413975206e-02 -1.091809000259836016e-01 2.933846871177894430e-02 -6.115001982502272365e-02 4.847351422113220509e-02 -8.569312399261483360e-02 1.683013596849186957e-02 9.499890201146155011e-02 -2.196964563232751619e-02 9.691900464482479383e-02 -1.767131331349982779e-02 -1.970268837493792391e-02 2.947761770823991920e-02 9.409341182824314254e-02 -7.574333777072110585e-02 -4.146714228185739703e-02 6.709810127336993113e-02 -5.276326744593784479e-02 6.247391209150984781e-02 5.563112107771232828e-02 -2.437264312084035447e-02 9.665204478457939397e-02 -9.937862083392774021e-03 -2.147785830988789904e-02 -1.158254353990775670e-01 -1.125640291340114230e-01 4.142397299001578104e-02 5.302577059698512785e-03 2.172275321311724697e-02 -5.577171022718053345e-02 5.162646188796235491e-02 5.316169669705623352e-03 5.462551517050019505e-03 3.386993152902584292e-02 -1.968827510374632911e-02 3.615710050338478976e-02 -1.049906913360712651e-01 -8.966555671040803144e-02 8.259024649238000393e-02 8.405049460712513132e-02 3.520026288566090178e-02 -6.987487591924447516e-02 6.609112033634144401e-02 6.847527831160697687e-02 -5.774853854560160066e-02 9.263052639913284259e-02 -4.558599107740918255e-02 7.445582293347650926e-02 -5.387400481611823166e-02 -2.027251479267926223e-04 3.282415264746413319e-02 -3.857198569533702021e-02 7.671833076464078249e-02 -3.367567361191741576e-02 5.745083995635493629e-02 -7.357564688859116742e-02 -1.125871798591530776e-01 3.444464532078365948e-02 -9.548636828112504193e-02 -7.295439196098628398e-02 6.159724440598488004e-02 -2.052794925354531688e-02 4.536814839088032514e-02 4.198091678853573677e-02 8.279242969874006652e-02 4.725550914912151484e-02 -1.014695954880050904e-01 5.890107385646740565e-03 -4.958814197347635386e-03 1.104285578822649522e-02 7.969027233272917010e-02 7.276502352134719964e-02 7.911430281134691767e-02 -3.571961501173422874e-03 -7.743950795694733158e-02 2.121989729408808520e-02 3.116540916742105427e-02 3.292118347628139596e-02 5.965767600489620820e-02 1.022885544858652962e-01 -2.383738771236678169e-02 -1.632909312016216780e-02 3.340951532402106766e-02 -4.907877822542951879e-02 -1.120331077943591963e-01 -7.318596312044087226e-02 -5.397948695956766157e-02 -1.375417161109305456e-03 -7.828019308137165733e-02 -1.147367036782864363e-01 -4.483377793263641775e-02 -3.462305444185021647e-02 7.231410652824468710e-02 -2.498947486394091991e-02 -1.058215148889678353e-01 -9.662681856346112819e-02 -6.697356989276999351e-02 -6.881645486631556008e-02 -3.609882397038694651e-02 -2.157819323384085539e-02 -4.364229327336569680e-02 -3.504633760313140625e-03 -6.841722881836453940e-02 1.215147813423488564e-02 -6.453885195083995663e-02 8.628488713882888350e-02 -6.409638302732365012e-02 -8.580917489021665234e-02 -1.123413659713321834e-02 -1.120568863993761793e-01 6.106542286055643542e-04 9.575477638626204990e-02 1.035431925489608586e-02 8.121953362531738468e-03 3.355912117788423243e-02 -2.618869166753030886e-02 -8.229169283123576040e-02 -7.347651571947501348e-02 9.792544060010073548e-02 1.042004101163112630e-02 -7.982605693249095191e-02 7.159225243486977419e-02 5.320279067314212518e-02 7.978367631119915107e-03 -3.348912427100668443e-02 3.385976338829531362e-02 5.684592652108868410e-02 2.849950115393772195e-03 6.208719214840226208e-02 8.149746991519203621e-02 -6.211728110494252331e-02 3.872741298493913992e-02 9.201782272714824351e-02 -3.331050364809921838e-02 5.719494982188527005e-03 6.545877762278426437e-02 5.794178010587990035e-02 4.838594264446729326e-02 7.510013125870730610e-02 3.567135953449489250e-02 9.446637235563744295e-02 -1.028905690393043665e-01 5.944175034261501428e-02 -5.961400099039448203e-02 3.374781418200521743e-02 -1.870785057166851270e-02 5.512113340116153726e-02 -3.038914390160200873e-02 -1.054965326931327496e-01 5.145660354873309028e-02 1.554178815344364750e-02 -5.577515313540254562e-05 -1.210603103171917355e-01 1.596208038984446229e-02 -7.712026613941815045e-02 -1.003504707768973214e-01 -6.078064785010028198e-02 -1.288426528941046499e-02 7.006961163092899347e-02 3.619563908047809114e-02 -5.772031691488718752e-02 -1.981287920028881530e-02 6.210405115477393712e-02 4.734292237432471961e-02 9.342517523248365652e-02 -5.650164296828769778e-02 -4.261463234358225591e-03 -1.661715239176343381e-02 -6.368622225932317471e-02 3.520243716507443638e-02 -2.149795429318264797e-02 -4.183918948347462030e-02 -4.587918663730532892e-02 -9.922626210135335190e-02 -3.652042890462216251e-02 1.015235479112471528e-01 7.927008852215562673e-02 5.134633927227116174e-02 -5.386600574191003840e-03 9.048667724592630857e-02 6.977731408471639363e-02 -9.936743302191994309e-02 3.916533203763308130e-02 5.899936973114765226e-02 6.258223919933264545e-02 -4.209664403891764245e-02 8.821955954409665956e-02 -1.794650138783632567e-02 -1.675869776085729679e-02 -1.703386030294452846e-02 9.468081994282860625e-02 -6.100545476066678713e-02 -4.782728893581782853e-02 4.656783934363158128e-02 1.029304956363179431e-02 -6.422157375884270103e-02 4.630643990938700799e-02 6.551960478429393053e-02 -7.065955333001995575e-02 6.959741614491243844e-02 -6.989562904359673812e-02 -8.459542430382037403e-02 -6.541752277032762686e-02 -2.930100684850264411e-02 8.198584243513919179e-02 6.986882841577131409e-02 -6.281993561935190692e-03 -1.027487886635556347e-01 -3.963096146202699233e-02 2.252582582645705142e-02 6.178268037971394733e-02 5.123119472103847966e-02 5.779595732676119646e-02 5.912180017104108620e-02 4.458424513382328730e-02 -4.034110308125646999e-02 9.432220646350614190e-02 2.581251671914680523e-02 7.355616752691565563e-02 -7.792238523273144202e-02 -1.121205978211772120e-01 8.073111182365690086e-02 4.318697666650087030e-02 2.255307272274923933e-02 -4.216088230091589659e-03 -9.109958903623702198e-02 -2.718255125787309018e-02 3.637345402179533588e-02 5.977215616275200621e-02 6.383557698599874597e-02
-5.615051839255578991e-02 4.068591851098148776e-02 7.258965324378909012e-02 6.710662841636118314e-02 4.349300785181583334e-02 -6.767039133855765054e-02 -7.672695595246928346e-03 -9.833443337199705703e-02 -5.233265414684358519e-02 -1.072595179563018697e-01 -2.166785282773898633e-02 5.556533610423319142e-02 5.091582092364799889e-02 9.154241688743560909e-03 -8.959841318685896755e-04 -6.428161330066514689e-02 -6.516595598467380714e-03 -7.060411723342116530e-02 1.630525561709263854e-02 8.402124780886116584e-02 -5.294989707440214688e-02 -2.290894451549433872e-02 -2.860984983826352426e-03 -6.980483564919076622e-02 -5.854476358683060461e-02 1.838217897313276783e-02 -4.340320207051541479e-02 7.991993228974038355e-02 6.797320258831561490e-02 -9.731811031849182947e-02 -4.820034118812437270e-03 -1.688002457066567485e-02 -9.895643313562209331e-02 -1.095134419466753523e-01 2.952672295049731804e-02 4.231356362087575207e-02 1.556706052382227437e-02 3.181394552469282017e-02 -6.850396430562953609e-02 2.363093512355860307e-02 -3.593401138065983880e-02 -7.830591533166290918e-02 3.071716642751289375e-02 5.355317022630232127e-02 -9.357688816758585881e-02 4.668864992013633392e-02 9.271145845798599294e-02 -3.591690673897845651e-04 -8.531289324016566589e-02 -1.055291570616774949e-01 -6.581376557308765696e-02 -4.566238446044171978e-02 -4.624646226092818391e-02 -7.861039831212576767e-02 3.204048413638631992e-02 8.051002281552326056e-02 -9.045183371592725383e-03 5.488660736555159986e-02 -7.656813806279218204e-02 7.357464667727330043e-02 4.934773088294164278e-02 -4.470627277201723315e-02 7.101404400656301241e-02 -2.419026313171772358e-02 9.611751334917491285e-02 -7.745492259096652121e-02 3.802271625776128955e-02 7.016498897962464287e-02 -1.192378075578820334e-01 -4.599231646741791524e-02 8.341893318044453151e-03 -4.967904047343219692e-02 4.276335139371610639e-03 4.856566630350952520e-03 8.462036905666787956e-02 -5.188780448891611424e-04 -2.691885402870225485e-02 -5.736379876188050370e-02 -2.464297174278759234e-03 -7.882312700521593163e-02 3.582826568075611617e-02 8.311247501805174576e-03 3.355842389971568779e-02 4.600488407950139615e-03 3.533441708109005125e-02 8.160961177563511026e-02 2.959470722892245872e-02 -9.350984592207206569e-02 -8.579834883425427328e-02 -1.093607121737351223e-01 3.196721384733796495e-02 -5.874410113920350979e-02 -6.283689279804229033e-02 1.046723103106442752e-02 6.681632846708326912e-02 -6.827990758406805860e-02 -5.728461266461174102e-03 -5.782116823881603904e-03 5.762315426200611407e-02 4.057459990608921346e-02 -3.001455192391937893e-02 4.733188737490165443e-02 3.550663804397157647e-02 -1.056291904338275550e-01 7.323485087734495080e-02 -1.062146778109493567e-01 -6.081640553339739616e-03 5.867153449620904349e-02 -7.168836066004781460e-02 1.643837574189347533e-03 2.190024632019609441e-03 1.233773090702711406e-01 -5.802740927817347238e-02 4.434807700602521469e-02 4.130278651714133775e-02 2.520629211182761134e-02 6.797319137992861859e-02 7.576503362127766372e-02 -9.446459075542881778e-02 -3.804179655889729228e-02 -1.080860839329419662e-02 -6.238816171198281052e-02 6.015304762438485747e-02 6.644052307452290307e-02 2.974126311835887868e-02 3.487959867779222983e-02 6.661845965082371923e-02 -2.857671304564278481e-02 -9.216253610079484793e-02 -7.302130150210292547e-02 -7.182283207435270767e-02 3.796138297604070150e-02 2.508853101361786797e-02 8.818275772901540410e-02 2.002582751309979134e-02 1.428440145000256338e-02 5.021279691845679377e-02 8.746918530110810164e-02 3.344519621278672222e-02 2.746103159367604268e-02 -2.946378494155548616e-02 9.908151204575493809e-02 -3.897947813328322963e-02 1.851417636346190101e-03 5.691730124024649284e-02 -8.977069404321069701e-02 -4.018989081487112092e-02 6.688746738714552997e-02 6.482720824201544663e-02 2.233162053758396687e-02 -5.425616923107291073e-02 9.323835658920962000e-02 -9.903548975663642451e-02 4.054216198328607079e-02 -4.001235229126618581e-02 -9.861869189332499175e-02 9.443657771731742145e-02 -9.391334212600509213e-02 5.529598333656935132e-04 -1.390977865940394055e-02 7.389900825871384415e-02 8.324243880413309538e-02 5.816567044936413883e-03 6.529239664422729905e-02 8.137472734346497261e-02 5.749173719522059078e-02 5.332816993526475619e-02 8.660875231682950773e-03 5.142870739379767214e-02 -1.173632409503178597e-01 -6.958139693695637729e-02 -2.012938526411830326e-02 -6.010038638357795282e-02 -8.246556845201002961e-02 8.321170823389524573e-02 -1.049725926447800245e-01 2.653455301173812328e-02 1.497933240457798541e-02 6.400115380160703582e-02 -3.736026196046677433e-02 4.252718363921397654e-02 4.026144056929453763e-02 3.273210790005250115e-02 -1.045890390387147484e-01 8.445214193087767496e-02 1.923389273091965015e-02 9.554536562977695990e-02 7.230994346142775864e-02 8.739793503977211220e-02 5.024473177219578729e-02 5.927724713662308603e-02 6.104361675264503156e-02 -7.335138721625678038e-02 5.595829145581381753e-02 -8.210318511325762070e-02 -3.722265914424398303e-02 2.394374525989035121e-02 6.555545773514670493e-02 -1.012283390785267134e-01 -7.946546925870477673e-02 1.291219748705146192e-02 2.582896414874825616e-02 1.432531357784464724e-03 1.002057888864457680e-02 -1.177820922683076171e-01 -9.613823465465798357e-02 -3.080803151305387504e-03 -5.887938536561818786e-02 -9.133814910419328637e-02 -6.531011650675441760e-02 6.079687254217321785e-02 -4.104942811227735300e-02 1.200545110244834318e-01 2.270059198127458849e-02 -2.671108183586031609e-02 5.627271799169787647e-02 -9.839570393346958044e-02 -4.435972583696902449e-02 -9.156266405610548331e-02 9.190635346406635098e-02 -1.096301881470212736e-01 2.588027760570213096e-02 -8.201585352725195358e-03 -1.979326478016826818e-02 2.036175030587190644e-03 -5.853171971766911452e-02 -2.903109253045715529e-03 -1.916424380325280896e-02 -3.798730794991508897e-02 9.419792835659164532e-02 -1.152088836422775348e-01 -1.061722553217399612e-01 -9.427498933428826722e-02 3.453131278918612074e-02 -4.050044111429965815e-02 -1.067690389823848784e-01 5.251114281490010943e-02 3.355498611127043923e-02 7.841713177239742483e-02 -9.709198833561713537e-02 -2.587895789795031931e-02 9.642282305187958868e-02 1.329225340564122414e-02 -1.400274903187697512e-02 -9.525445928233219894e-02 -2.139331881040723929e-02 -8.356080360142167929e-02 5.625375822897557554e-02 5.591284139863570563e-02 -1.271898307908791124e-02 7.496652584636345762e-02 -1.336812721156528140e-02 -3.234577398986691193e-02 7.874627794932965996e-02 -2.452865870655899366e-02 7.721644095537678887e-02
3.430531427862233175e-03 4.472191615079706278e-02 -8.846222653642299080e-03 1.432279013105478699e-02 -4.292800915504599996e-02 2.896947886328574140e-02 -4.030078956891343378e-02 -7.723307330808687476e-02 -8.618048834399344438e-02 8.994802737241067159e-02 -5.438245811509174327e-02 -6.773829768478294329e-03 -3.658287661100698834e-02 -9.197262979010210893e-03 -3.389294977657363733e-02 -3.867504244293992061e-02 -3.237202718992603090e-03 -9.409874122227074311e-03 4.613242460763184588e-02 1.395255615841468032e-02 -8.924948212232075573e-02 1.411256959049849921e-02 -2.947401193761050794e-02 3.860847381000586526e-02 1.103757500156324761e-01 1.007842675928830867e-01 -4.058839064118813234e-02 -9.941919095703110817e-03 -6.625648306661083287e-02 -1.271366095434739961e-02 2.488627929204014280e-02 1.034586550091857737e-01 3.730176124069183724e-02 -6.318236444937586072e-02 1.059892835816469564e-01 8.688412485551567921e-02 -5.797017828741130724e-02 7.854910531733286239e-02 -6.672465293743876091e-02 -8.842370985740775902e-02 -6.951110800014458080e-02 7.209040457001489322e-02 -7.323174816907164486e-02 9.131725277313647304e-02 -3.490413554466652302e-02 9.135455154219980500e-02 5.510081480914470753e-02 3.199435495726563571e-03 3.381176886607512033e-02 -1.009804191410121170e-02 9.884321180060898215e-02 -5.888794144465187355e-03 8.181240026848773939e-02 -4.536458072723338619e-02 -2.781191551553828870e-02 2.285378626988118778e-02 -5.452986914341990954e-03 -7.592460739487064125e-02 -2.632690356134155529e-02 8.471282095650364830e-02 6.883869351968747996e-02 2.447484355027737448e-03 1.081241580956992382e-01 -7.809492303074302977e-02 8.860935720676674492e-04 3.572715525759168065e-02 1.206695777240443940e-01 6.638537221816434575e-02 -5.488683951062547223e-02 -3.144653051551386108e-02 1.006837868132985370e-01 -5.434534439378985171e-02 -7.964180146735232169e-02 -3.277621018735551311e-02 7.083537332062614378e-02 6.769322696402589601e-02 2.722747639478520498e-02 9.819893853574894471e-02 -9.362536043172987876e-02 1.764946079947741012e-02 -5.493192875221803925e-03 6.507091440312288977e-02 2.678370180056694611e-02 -5.137140819448572648e-02 -9.251898449480693010e-02 5.850319688956336778e-02 -9.882204589109953863e-02 1.012712249043373480e-01 1.256975269266937673e-02 6.760728156814570233e-02 -9.315571970245732636e-02 5.749027563408036501e-02 -4.546164646364246609e-02 -4.887466828530667023e-02 4.627522685020435574e-03 3.068921441145007131e-02 6.635559677597844229e-03 8.846470587917949768e-02 8.737028373462397968e-02 8.373395655062602916e-02 1.841339189851760524e-02 -9.853087063871949353e-03 4.421907810199746103e-02 5.405751151572385158e-03 1.032883968886038201e-01 9.296027281500876538e-02 -3.971340601186749281e-02 -1.576710783304666186e-02 5.740963561997310810e-02 6.094220618694492358e-02 -2.826507726843704386e-03 -3.725027684259617829e-04 -8.189943860282344890e-02 3.771864491530185076e-02 6.540985353302763983e-02 -6.389254829533073943e-02 7.864500407760176282e-02 -7.606249815806630232e-02 -4.228546050870024900e-03 1.025641520799382284e-01 -5.805820678853530759e-02 3.725386114408285598e-02 -6.446661209946516480e-02 -8.123733335741541162e-02 5.133948961342663792e-02 6.147693813904403504e-02 -4.635510889569286613e-02 7.899015259000921607e-02 6.726299329766383117e-02 -1.847375908225928551e-02 -8.564012717485031123e-02 -6.017855845786813929e-02 -3.022031047816370330e-02 -4.321814421824835689e-02 -3.998776641045316549e-02 9.492992993421511816e-02 -5.631019410617488230e-02 5.154902936954488396e-02 -6.876612065343636060e-02 -1.063789199299693122e-01 5.358711868807321949e-02 6.271076378279033525e-02 3.968810167596822924e-02 -4.789301597593681459e-02 7.815046234838959882e-02 7.723906924545323764e-04 4.066568896761880991e-02 4.573472815321694140e-02 -5.740821623310074506e-02 -4.740275655925156595e-02 -5.053310669610121264e-02 2.063983834604516190e-02 1.732316593341952718e-02 -9.755169180915095051e-02 6.587762968791649465e-02 -1.019502014405872653e-01 -9.537037518667541847e-02 -2.028124018667009851e-02 4.406022972646393004e-02 2.342962987450834811e-02 5.676447339950685053e-03 7.995646726023493411e-03 1.285888400136562248e-01 -8.766475682020714866e-02 -2.060307080417260461e-02 1.969808659435902387e-02 -5.426998324844364147e-02 4.995458563769031995e-02 -2.056399087723581945e-02 -5.808080835438084871e-02 -5.486304839736402122e-02 -1.082414938201946841e-01 2.507445887100474835e-02 2.539452400051723374e-02 2.853659890255446502e-02 -4.274603491104288222e-02 -3.719705236587255576e-02 6.952752875298201518e-02 1.057930278107929861e-01 -9.875436479805242695e-02 -3.831929810799003522e-02 5.505453713110739639e-02 1.455553573884016752e-02 1.062796385048657144e-01 -5.345017175093194628e-02 8.950240645264367911e-02 -5.086883219482552648e-02 -7.734786688661905718e-02 4.419548003988284929e-02 1.580395730954957736e-02 -4.494457222967565557e-02 -8.956299939977872826e-02 -1.855489693571726840e-03 -8.776916858532989030e-02 6.436216276917987311e-02 9.313855979012769515e-02 2.040274133330059053e-02 -4.240587564054051212e-02 -1.312152124414386369e-02 -9.157948264864348986e-02 -7.806727595995635594e-02 1.130380769027301835e-01 1.066481554793872744e-01 -3.942516171414530216e-03 -6.213596399858157399e-02 1.059508134977778793e-01 -8.464551240809753407e-02 5.947065342440792379e-03 2.295550809637562917e-02 8.789995011076610909e-02 -7.560325046878896282e-03 7.919752785325992472e-02 1.077831922149848076e-01 -1.571700907182810303e-02 5.839846973419621223e-02 1.003362171041124601e-01 2.421869022521313738e-02 9.155151139504848212e-02 5.336557337337192314e-02 3.257250894803899455e-02 2.721940635821893176e-02 -6.785176572966196418e-02 6.353903703830972305e-02 -2.907037700290402565e-02 -9.353731709822736551e-02 -3.024476925706167177e-02 -9.485490011745657812e-02 4.442589419601260942e-02 1.177669968254623986e-02 2.370407844529016581e-02 6.418247542144389639e-02 -6.964331427950473663e-02 -5.607934511354119994e-02 3.430857312177491153e-02 -5.587559789340261485e-02 7.981856395134714899e-02 1.025315886713527719e-01 -1.057123977133109793e-01 -3.103274783620678726e-02 1.930218219896307971e-02 8.999525734758932749e-02 8.526633021661468581e-02 -6.318671612700799134e-02 -6.098638017696982050e-02 -7.217963993902125341e-02 -9.046223205202219564e-02 -5.254774475789924376e-02 -3.389485985962378822e-02 -2.327916578465805478e-02 3.780515498393013235e-02 4.305135423939591283e-02 3.634174230078121570e-02 -3.058760218584829355e-02 2.111637071083884848e-02 8.856264715899388185e-02 3.229919703066679026e-02
-8.639384624231181975e-02 6.821338772812397810e-02 5.352785370573079349e-02 -7.857352958313251756e-02 3.170252435731855251e-02 -9.361056589353604351e-02 5.335639838773904853e-02 -8.803602250465601686e-02 8.852201271805697214e-02 -6.326388810504128719e-03 5.267790337150314584e-02 5.014737129184811126e-02 7.994550712917609936e-02 2.383301699562116738e-02 8.450108422111826667e-02 -8.750298777608181422e-02 -1.947604479224992677e-02 5.243696717878689600e-02 -4.727548530163157119e-03 -9.195485485310203599e-02 -7.478964954305347690e-02 1.098470726065226173e-02 -1.230252198862223124e-02 -5.539528407171522700e-02 -6.790286014693239225e-02 -6.722690406670235597e-02 4.451040021142471659e-02 -9.031873658529974980e-02 -1.534409590051036103e-02 -8.028506543799569795e-02 5.891392924860222591e-02 -1.913718391801322999e-02 -8.551059341112260404e-02 -1.855668842126168699e-02 7.155103280686565814e-02 -7.250870203924743296e-02 2.143323529858397192e-02 -9.549322399294306318e-02 1.976651367924287320e-02 -2.693405089227712823e-02 3.652041194139987734e-02 -5.849453683582288982e-02 -5.643048561344133490e-02 -1.075046019729526126e-01 -4.243124226651421617e-03 8.757352916888472283e-02 3.026308521425337753e-02 8.285584720017624694e-02 5.127387974269902865e-02 -1.289129704578999801e-02 3.393076876564986299e-02 -1.337657633390024192e-02 -1.068996097885146906e-01 3.899833582490650624e-02 -9.332393589104770459e-02 -5.486846430849270928e-02 4.660157727509143394e-02 1.607725973913481585e-02 -6.087038538652782965e-02 -4.977668881648197874e-02 -4.423353415401723443e-02 1.257866477324406235e-02 2.835219676099356642e-02 3.054728322993884287e-03 1.070254933812917050e-03 1.232799241240251954e-02 7.982579902749320500e-02 8.893624755016871219e-02 3.656322478576987112e-02 -5.056817058026943229e-02 -6.754896682745488434e-02 6.548361612026458445e-02 -5.691234315994021797e-02 -1.413958069786760627e-02 1.640623002345289452e-03 9.097301966714223254e-02 3.669365883274725709e-02 -6.181763038610253724e-02 5.213731628029270870e-02 8.257254971848879480e-03 9.280606679148889482e-02 1.718747132331484989e-02 2.053297133022773720e-03 -4.812229211312130800e-02 -5.775064026220628338e-02 5.318676866854304269e-02 5.963183374046891055e-03 4.566340188638882275e-02 -7.377341162650687123e-02 5.470760489131757526e-02 5.742969095955004905e-02 -9.851875241893756630e-02 -8.486505038804036116e-02 5.307113566941398797e-02 -8.646488502967367151e-02 -2.183243214536608259e-02 9.986152607193565789e-02 7.395561215760998452e-02 1.785028122053230679e-02 -1.836583935703863316e-02 -4.617644360027471770e-04 -4.113771337432434866e-02 1.018721127696043810e-01 -6.180029163102252615e-02 -1.075245519077440148e-01 -3.628572581598624863e-02 6.204512422128900979e-03 5.308560546590239404e-02 -9.738682148396933524e-02 4.724036431954276721e-02 -5.050160919251765052e-02 5.399788741692434363e-02 -9.315279267475939928e-02 9.786247461436850537e-02 1.115193403356908863e-01 -6.119821166161320408e-02 3.970225102478955326e-02 8.163579709436534493e-02 7.094969183743321528e-02 6.905533866730492742e-02 5.150158530301481019e-02 5.691475328494467051e-02 -8.607165422242729624e-02 2.357227995918959387e-02 -8.910005884883726024e-02 6.289156911074883505e-02 2.685072303586779480e-02 1.058320671782882610e-01 3.031621416559968779e-02 9.808207653209699561e-02 -6.691623227381432448e-02 3.017739524169375104e-02 -3.115273081954839096e-02 6.105724534151546479e-02 -4.963869692496676589e-02 -2.519612472544591544e-02 1.575113020937705596e-02 -3.706730639967671659e-02 1.832247770413180515e-02 7.318626999498398233e-02 -7.264150708958025393e-02 -3.708419087522086405e-02 5.114400595934542187e-02 9.760726899730834405e-02 8.361162869271744624e-02 5.928052046681628329e-02 1.125477674158043701e-01 6.282719456543617298e-02 1.627756007096076152e-02 3.070354801798111377e-02 7.138591738739057113e-02 -4.807012493377215562e-02 -3.481038974307342632e-02 -7.956834656312201937e-02 2.964182916230929249e-02 -1.025075807266552161e-02 7.686810777262556571e-02 7.708597952047401176e-03 -3.185906434236283197e-02 -9.100603660931458339e-02 3.700164743768082076e-02 -6.250537946770746978e-02 -5.235518871630342325e-03 7.116904851791314157e-02 -6.697270024191909199e-02 7.117630364644216001e-02 8.961151483954986341e-02 -8.889272646698202773e-02 6.015644016620565193e-02 -8.705821210944486577e-02 6.031090705416475989e-02 5.192735780983260413e-02 -3.546810419443121361e-03 1.142206328589496882e-02 -9.011977993960319788e-02 4.736799730157015970e-02 7.381060354082986941e-02 3.552013096230080547e-02 -3.135171728666481111e-02 -8.998812961093066720e-02 7.523640105931146682e-02 1.110648628327562670e-01 2.499737831064244645e-02 -9.177967562306774130e-02 8.036630785323099768e-02 -3.376452989356996254e-02 8.301502395614547558e-02 -8.399946949626646564e-02 9.818223586567843830e-02 5.062332672726457122e-02 3.003286379912629435e-04 -8.415250578666198800e-02 7.961567943962020999e-02 3.125070617399638290e-02 -2.990788790412994905e-02 -6.987398363527996814e-02 3.880672359230921686e-02 -3.860189587234664349e-02 1.046607768475608102e-01 7.752119935146492558e-02 3.837296005626404660e-02 -1.285917778207470823e-02 4.593781986243233861e-02 -4.133517705483701066e-02 -7.774608893164429435e-02 7.869486030590101822e-02 1.164454880271224707e-01 -4.296116237531032861e-02 8.090929519169968998e-02 -4.791456834389067748e-02 7.657335674711589039e-03 9.927815355455373025e-02 -1.193051364910652917e-02 1.750737796786318301e-02 9.881587657103224967e-03 -5.952277745703071776e-02 -8.109086135774437598e-02 -5.471381503725109702e-02 7.016086919973799074e-02 -6.422795820569766889e-03 5.708101348288806970e-02 3.163987780794152299e-02 -8.536024766335596758e-02 3.187120005642138376e-02 -8.764488146973442584e-02 -9.913996332900609776e-02 1.073463404837709211e-02 6.098683833887334760e-02 -6.021287675608545664e-02 -3.166894907699693146e-02 -9.260167811555375383e-02 7.827078391626016152e-02 9.251346146902546252e-02 2.834254444315537774e-02 5.356248808681380452e-02 -4.704230972029244812e-02 -1.587200850086264645e-02 -6.459538984401828887e-02 9.144238494399123396e-02 1.067282141675779533e-01 -5.122844590334033055e-02 -4.908856982339619875e-03 -2.583196755914199144e-06 -7.808072134249618990e-02 -9.163737698427315906e-03 3.025248645441137862e-02 4.768087281293375418e-02 -1.103953254769607512e-01 3.261556778518075184e-02 -4.527795896051385605e-02 1.172444930561479803e-01 -8.438523630027151834e-02 -2.702626572047413592e-02 -7.130443097310402989e-02 -3.784483704788565994e-02 2.513929408653354375e-02
-3.300121850827892472e-02 6.712090019317833167e-02 -7.413646541562227132e-02 -4.566297978487025150e-02 -7.707404597570781390e-02 -7.858313211429593381e-02 -6.780956878704315349e-02 -1.340993954905626145e-02 3.454075356348763892e-03 -4.078693911968055835e-02 -1.542095992108292839e-02 6.557067123331934699e-02 1.321588872715112953e-02 4.722250840647389952e-02 7.286409610650158852e-02 7.085713643418041496e-02 -1.132603986342193142e-01 6.290617200611711701e-02 1.630840086158711830e-02 4.468855467297708911e-02 -7.971386403157887379e-02 -7.775973647107704834e-02 7.121867075850907280e-02 5.340966068004481676e-02 2.539241788917321815e-02 -2.950377124656658467e-02 -2.514846072967940119e-02 4.497082300950916434e-02 5.707631108956436050e-02 2.679250249535215442e-02 2.279400310094458620e-02 -8.892156130397899094e-02 -5.562357331402113109e-02 -1.590479385833573969e-02 4.974047179405229752e-02 1.112032755452479864e-02 -9.021569990435177044e-02 1.264515926350639335e-02 -6.926044713781907836e-02 -7.746941137795297638e-02 -8.476307796802202976e-02 8.380829629431472971e-02 7.005096657490968159e-02 8.236594414444601111e-04 7.980706237729279229e-02 7.972618218428920156e-02 3.775416047529567276e-02 -7.904633408374814318e-02 1.564749331959666007e-02 7.065288580970574030e-03 -2.392364469108368072e-02 1.444597286976111866e-02 -1.628091686241730715e-02 -1.757206887020266312e-02 -7.496820767970023558e-02 5.013275509486336129e-02 3.866922196425736508e-02 7.931952069937553418e-02 -8.769769744159307268e-02 6.480348180541961600e-02 9.477047401325608758e-03 5.250516187463669798e-02 -6.741920565633474638e-02 9.271618830513246590e-02 -6.418225724858625525e-02 -1.141792884839534783e-01 -1.160295645653777220e-02 -1.666934599060748007e-02 1.382147808909818879e-02 1.799436760543328059e-02 8.015913913620434372e-02 5.808609009290237324e-02 8.020755112099446638e-02 2.434831373255948866e-02 9.050714119886288378e-02 -5.784448048010108756e-02 3.886474019581403344e-02 5.050967439618476995e-02 -1.213361731851059500e-01 4.552728083442884877e-02 -5.372399090383656213e-03 -1.192872534272927144e-02 -1.856436561334048191e-02 3.824653130592548661e-02 -2.717235051342709387e-02 6.182014393752263692e-02 -1.126039622047828731e-01 -3.002370590174870818e-02 -2.330059648298160244e-02 3.573126925225343642e-02 -4.039828088769954056e-02 -3.317128494507917170e-03 -8.370968230993922066e-02 5.910130339474014421e-02 -1.134476674691373699e-01 1.097773715159362923e-01 -5.488164019856985737e-02 9.552138116745008400e-02 1.021636994931626602e-01 1.038012947294638180e-02 8.580848791526995978e-02 5.125093596908718990e-02 6.256107324517419521e-02 -8.000542122290907332e-02 9.777893883344659920e-02 7.061536379322834456e-02 -1.321741717871606318e-02 -9.990207456515644291e-02 -7.246562225965910709e-02 -5.152110770797004718e-02 6.223281030497583577e-02 -8.515911403332646068e-02 -3.153917607922587102e-02 1.254964072258251719e-02 -6.801989132046840081e-02 -4.074929474604221252e-02 4.819184356645821177e-02 -3.552413197319291560e-02 -1.066822959806834059e-01 -7.585811382802522262e-02 -9.708050000455001327e-02 1.033364953633193473e-01 -1.174147476781767646e-01 5.594343397888817959e-02 -3.413587494685799834e-02 -3.535271968320907732e-02 8.343127853930817905e-02 1.540803802626366549e-02 -1.095373120136236972e-01 -3.078258585626062610e-02 -8.905964612740310815e-02 -3.058938521177207576e-02 5.038166323384794809e-02 -6.541363703943223196e-02 3.528144655480693059e-02 -1.287176853835563482e-02 -4.716760517992256430e-02 2.966388610150763258e-02 3.234088048325632538e-03 3.777621107738929340e-02 8.374824975501643509e-02 4.148583150270747366e-02 5.622443255647089494e-02 7.111129164990548368e-02 3.624103428108895603e-02 -1.249885157104597966e-02 5.715267521112266796e-02 -1.113560606509506890e-01 -3.945116036229956435e-02 -2.978545485459766981e-02 1.102469231001656919e-01 9.626244158573805942e-03 -9.000964536835596996e-02 3.361776245885215314e-02 8.371448585692799205e-02 -5.798012334445869914e-02 7.222968915240549070e-02 8.583646939460419512e-02 1.206575275376504247e-02 3.209649788954556382e-02 -1.569276827006497316e-02 -8.439770114159916847e-03 2.288928439938109002e-02 7.892961966786729566e-02 1.945479861062665919e-02 9.394018071690527286e-03 7.254735097941392152e-02 3.016061326386262550e-02 -4.835670686766904008e-02 -3.415867205871148636e-03 -1.026914356572413978e-01 -5.432121798289150927e-02 -3.495898046413117161e-02 -6.966958444740226075e-02 -1.104739849472540815e-02 -8.396327060613917315e-02 -2.496972004383617161e-02 -6.769622041879562631e-03 -1.362559118427246196e-01 -3.116461656958398677e-02 -1.123468638194595193e-01 1.447515312108353137e-02 5.787952746686954308e-02 4.765746199461168287e-02 -7.328209788887470044e-02 7.570357295296652189e-02 -4.454663512523982655e-02 9.099952009435858039e-03 2.148287023831924741e-02 6.874463093115825742e-03 -4.447196849926456780e-02 -6.168641126920679923e-02 -1.107641119733806384e-01 9.229687917936696406e-02 -1.271127884663392216e-02 -5.928191149651942937e-02 6.564007398798889226e-02 5.143773641434439686e-02 3.183394897551123683e-03 9.972918241698586206e-02 6.384389088264796376e-04 3.077294729774196318e-03 -7.896517541405313756e-02 -4.340286944566346811e-02 -7.547395736121974286e-02 7.417342490659614707e-02 -6.072246108397114789e-02 5.640281362750262928e-02 6.960103001761160091e-02 2.291996585770656250e-02 -6.028604531898725666e-02 -1.562538033979888816e-02 4.935982271868150778e-02 -5.453453063416670299e-02 9.878798569974535371e-02 -9.854588623806535830e-02 3.554376873886993388e-02 -8.238259210694534596e-02 -4.397111237248434862e-02 -9.858587763649036273e-02 -3.669953677642428386e-02 6.900791137274762954e-02 -5.715978449315970572e-02 -3.091828357078386241e-02 8.775888266758034850e-02 -1.209752023315630379e-02 -3.461820146997331843e-02 5.011592387129284315e-02 5.437726993475815868e-02 7.220820291428473037e-02 5.014430117461377012e-02 5.818289735649503219e-02 1.928121442536791935e-02 2.616794740459599256e-02 3.928303180174572140e-02 4.540692955010691700e-02 -3.159879017634128345e-02 -2.109760444123535278e-02 7.135737255793152267e-02 6.101105859626845818e-02 -1.104544938729420389e-01 1.168372743306838601e-01 -6.791506415106172978e-02 -8.631254555565286146e-02 -1.150711237601445419e-01 -5.471503298171766227e-02 -4.486812897635025082e-02 -1.055227027666412604e-01 -1.012120206335685030e-01 -4.183353349607889238e-02 5.225029232862307693e-02 -9.004484729593657810e-02 -4.076357761007247393e-02 7.468448992656567809e-02 7.720155580053593425e-02 -6.287640026986245079e-02
1.102535520280087389e-01 -4.514413530476317493e-03 -3.533309849441450962e-02 -7.670655332587909825e-02 1.061179175051284174e-01 2.201522695124437032e-02 -3.396163159827008185e-03 6.679591100653922697e-02 -4.080154752937589779e-02 8.120373748302314731e-02 8.737340988322957192e-02 -8.169829329504026127e-02 2.862290605036121177e-02 9.451852256619665271e-02 1.257450968234515853e-01 -3.260568182232492090e-02 1.766843112485844136e-02 -4.602704370647757448e-02 -8.966563137138901241e-02 4.880134310648030077e-02 -4.024649597006882407e-02 -8.085644316143224264e-02 3.945964125473830353e-02 -3.954091339687037382e-02 -6.225156531861800180e-02 3.405306914538495933e-02 6.392058182123259991e-02 7.157383565987632257e-02 1.016843162602804745e-01 3.571337966085534610e-02 8.271594435353595010e-02 -8.995151969911699408e-02 -5.923268010423741320e-02 -6.502549328608558943e-02 -3.200989179856267297e-02 5.759667768984603857e-03 3.669793046594670149e-02 -7.130569614448348768e-03 9.999746511157606155e-02 3.625969828091232805e-02 5.057564873029939123e-02 -5.926301483665955688e-02 2.078395229934157026e-03 1.119594396304668671e-01 5.099854657105463984e-02 -4.252118243058363584e-02 2.723517860385534645e-02 3.893814289541897011e-02 -1.821003219519749805e-02 -6.299383966848379202e-02 -4.260312352916008349e-02 -7.634058681633119729e-03 1.090903951226671609e-01 1.077675884587639410e-01 -2.793335938223428724e-02 -8.806798846779760603e-02 1.030821702508865345e-01 -1.114935964352733837e-02 -3.784438367738970910e-02 1.098239741358401078e-01 -7.494696232235205369e-02 -3.245285588573686153e-02 1.491283472581712670e-02 7.756460786761061599e-02 1.486014243637039274e-02 1.044026095546620320e-01 1.345179834994740878e-02 1.496153136916332678e-02 -8.284451847942143898e-02 3.905105832281781375e-02 -3.714091529906039801e-02 8.651620006210472558e-02 7.020066826240147634e-03 -2.824590931802643812e-02 2.771757339603008255e-02 4.667401988228567916e-02 -8.916729175154182799e-03 7.275640195455225501e-02 4.752666685460780333e-02 -4.545444163861436099e-02 8.547920139310995202e-02 7.639167902478793959e-02 -8.408436307563338374e-02 9.484873388995025689e-02 -1.053662118345255611e-01 2.505676604313320649e-02 -5.729237364504986135e-02 5.062867481306418393e-02 -5.699124310051048581e-02 -5.068874907345918834e-02 6.920358967270434647e-02 2.175155985911240292e-02 -2.900383425973291230e-03 1.437076190375095874e-01 2.620565011248172232e-02 -5.598341694402948938e-03 -4.376767821572652081e-03 1.241214508134638739e-02 -9.149042090360612681e-03 9.658205916120233062e-03 9.567575625376874672e-04 -8.622442445636553654e-02 6.130082440814368927e-02 -1.905909401874809547e-02 -8.535547821561921544e-02 7.775217945868433123e-02 6.658807592620887006e-02 5.631212224596659349e-02 9.121112870434448794e-02 -8.210600210100742202e-02 8.579604451679238852e-02 4.924770585212250723e-02 -1.015159913810923936e-01 -6.014651088655376815e-02 1.133778266123431668e-02 -2.654086058026847161e-02 -9.051401326794973612e-02 -2.674635017278353608e-02 1.876656055706481946e-02 1.221566078327241019e-02 -1.221024042682679334e-02 7.099097627442333726e-03 -4.345991939479874194e-02 -3.913510328829321316e-02 -4.004059926817148118e-02 2.028014413079136380e-02 -5.320031580746506505e-02 -8.275759026627936554e-02 -6.651726079566232241e-02 7.450818998001290661e-02 -5.096074489101085070e-03 -6.370939107809787949e-02 7.986210384523585726e-02 6.401372830700864658e-02 -5.577733044357628678e-02 7.339916907344606889e-02 -1.827244368707680797e-02 -3.636806760547538209e-02 5.830632291019899327e-02 -2.324332020269407467e-02 5.113560671784198042e-02 -6.656448676182513680e-02 1.752316684697206861e-02 5.527191594509867079e-02 2.758091925761948018e-02 -9.873159201464476453e-04 5.721243913395343550e-02 -2.653613849948360456e-02 1.062213374379684383e-01 -7.961127707808090051e-03 -3.470062243148274578e-02 -4.199815588239098202e-02 8.036590063073993651e-02 1.171999103347263066e-01 -6.790800334112101315e-03 -9.301379919725391576e-02 4.869642575460719769e-02 6.836529105106310678e-02 3.430550793575236346e-02 9.567062038111072420e-02 -1.174792247288904690e-01 7.985749255694286897e-02 -5.504442427167220708e-02 -1.985513061986821440e-03 -6.325636407419406304e-02 2.996455226177108244e-02 -4.098898513700099250e-02 2.686320021296850422e-03 -2.875379200933147680e-02 2.581833437924985555e-02 1.079056690102681154e-01 -3.095449253093266948e-02 4.880937175980575721e-03 -3.161018642698933817e-02 1.622865978036596921e-02 6.011126251776611334e-02 -8.202105236268807109e-02 4.544847186155143853e-02 -2.536751518868509206e-02 -5.749526129989932649e-02 1.027085694979647435e-04 -8.859230895838053621e-02 3.531375080402911204e-02 -9.154496254195271243e-02 -8.756692043628371003e-02 6.346081642681808410e-02 9.408376610573039589e-02 -5.525362894413472087e-02 -8.967536385022861767e-02 -5.595261998734785830e-02 -9.487264711808052198e-02 1.007600530727953553e-01 -4.550305596101671124e-02 1.054083607973044512e-01 -8.154094910271889041e-02 7.874149801015979666e-02 -5.247817483026356172e-02 -3.312489557837611925e-02 -8.419735201284188342e-03 -8.322558977835216310e-02 3.731424520226667846e-02 1.030465778739357019e-01 -1.661124701975648030e-02 -8.107441169722134910e-02 -7.888589280065272380e-02 4.308080291023296676e-02 -5.973963099654911596e-02 -3.502951406073971131e-03 -3.049267252639120684e-02 3.990868965012352859e-02 -8.004622705750392975e-02 8.219572523217757998e-02 4.271192503303622781e-03 2.457308749955806199e-02 -3.902818237200384593e-02 -3.561919148747843232e-03 5.717166994697450016e-02 8.026341508043084369e-03 1.034003333866450186e-01 -4.540795190951045501e-02 2.758660594879608005e-02 1.032924474357369560e-01 -7.690608759296445850e-03 5.013587232404981969e-02 -2.475942130343890268e-02 7.540292635432459256e-02 1.013312694039482653e-01 -5.881873926518203441e-03 -4.075693687593441583e-02 8.100421313349916164e-02 7.022689069047899357e-02 -1.102960868694775054e-01 -6.916969645834084024e-02 8.321661809534330878e-02 5.576055006343714517e-03 9.240040689548248420e-02 1.219915680966173269e-02 4.261532084682315147e-02 7.222265795553718670e-03 2.721641401421699604e-03 -9.663138007891923509e-02 3.056704204084636708e-02 -1.182424586077175793e-01 -7.263124462109349366e-02 1.604338731063745249e-02 -5.423758232518101352e-02 -7.327769270816535119e-02 3.707688526304142584e-02 -6.069886196140841100e-02 -4.484625800420728725e-02 -3.063670769853840681e-02 1.175612997539341453e-01 -7.541201670143909963e-02 6.367612760539349825e-02 8.927686001848410269e-02 -7.085956194085563098e-02
